%YAML:1.0
---
opencv_ml_svm:
   format: 3
   svmType: C_SVC
   kernel:
      type: LINEAR
   C: 2.6699999999999999e+00
   term_criteria: { epsilon:1.1920928955078125e-07, iterations:1000 }
   var_count: 1344
   class_count: 10
   class_labels: !!opencv-matrix
      rows: 10
      cols: 1
      dt: i
      data: [ 0, 1, 2, 3, 4, 5, 6, 7, 8, 9 ]
   sv_total: 45
   support_vectors:
      - [ 0., 0., 0., 3.89205512e-09, 0., 0., 0., 0., 6.16360921e-06,
          1.17807576e-05, 1.82271051e-05, 9.99264557e-06, 5.41959434e-06,
          9.80139430e-06, 9.80139430e-06, 1.02178929e-05, 1.31661909e-05,
          7.86556757e-06, 4.16204466e-06, 1.59574270e-07, 0., 0., 0.,
          4.89859318e-08, 0., 0., 0., 0., 3.89205512e-09, 0., 0., 0., 0.,
          9.74633622e-07, 4.59688454e-06, 6.19946286e-06, 9.57412158e-06,
          7.57285352e-06, 9.09355185e-06, 5.72761155e-06, 4.99678947e-07,
          9.22484162e-07, 5.18897332e-06, 1.09512230e-05, 1.00173111e-05,
          7.54376151e-06, 7.95801861e-06, 5.49298829e-06, 4.29965121e-06,
          3.43937614e-07, 0., 0., 0., 0., 0., 0., 3.89205512e-09, 0., 0.,
          1.94926724e-06, 3.87638374e-06, 4.58892237e-06, 6.27707050e-06,
          1.02847916e-05, 7.65891946e-06, 6.26152769e-06, 5.18209981e-06,
          1.38403914e-06, -6.35274710e-21, -6.35274710e-21,
          4.72773127e-06, 1.12344724e-05, 1.02633230e-05, 1.06113366e-05,
          1.07254464e-05, 7.83371706e-06, 6.08202981e-06, 4.08323740e-06,
          8.41729047e-07, 0., 0., 0., 0., 4.89859318e-08, 0., 0., 0.,
          2.81314715e-06, 5.95589427e-06, 6.32111824e-06, 6.66296637e-06,
          1.31059351e-05, 9.94923994e-06, 4.04442017e-06, 1.51278698e-06,
          -3.89205512e-09, -6.35274710e-21, -6.35274710e-21,
          4.72773127e-06, 1.14304166e-05, 1.12430416e-05, 1.40403517e-05,
          1.30747594e-05, 9.09911523e-06, 6.99043494e-06, 6.09878134e-06,
          3.70306975e-06, 1.12968894e-06, 0., 0., 4.89859318e-08,
          4.89859318e-08, 0., 1.94926724e-06, 2.48088554e-06,
          4.32761863e-06, 6.65150719e-06, 8.22890524e-06, 1.03106076e-05,
          1.52783687e-05, 1.07817250e-05, 2.92901291e-06,
          -6.35274710e-21, -6.35274710e-21, -5.31618355e-07,
          -2.30367937e-06, 1.16808326e-06, 7.64626748e-06,
          1.17329009e-05, 1.58038456e-05, 1.59237279e-05, 1.24457265e-05,
          9.48845172e-06, 6.57125838e-06, 6.15911995e-06, 3.90205923e-06,
          1.25211898e-06, 0., 4.89859318e-08, 4.89859318e-08,
          4.89859318e-08, 4.43015279e-06, 5.64844504e-06, 6.28497082e-06,
          7.55867086e-06, 1.17866284e-05, 1.76603771e-05, 1.38939295e-05,
          6.42840450e-06, 1.67372173e-06, -8.86030591e-07,
          -1.81643520e-06, -2.84520570e-06, -5.63620188e-06,
          -2.29143666e-06, 4.30820637e-06, 9.96083963e-06,
          1.49668003e-05, 1.95486864e-05, 1.85199824e-05, 1.40395805e-05,
          7.07941672e-06, 6.98600707e-06, 6.36803270e-06, 2.84428347e-06,
          0., 0., 4.89859318e-08, 0., 4.43404497e-06, 5.79151856e-06,
          7.60992725e-06, 1.08238191e-05, 1.46500934e-05, 1.38412943e-05,
          7.30967031e-06, 3.49188326e-07, -1.06323671e-06,
          -3.38669247e-06, -5.93342747e-06, -6.48782407e-06,
          -6.49171625e-06, -6.49171625e-06, 2.07341927e-07,
          5.91285561e-06, 1.24622466e-05, 1.88734466e-05, 1.84620276e-05,
          1.61196713e-05, 1.06332473e-05, 8.86975340e-06, 6.86128215e-06,
          3.51725112e-06, 6.86673673e-07, 0., 0., 3.54412236e-07,
          4.57869828e-06, 6.47997012e-06, 9.36819833e-06, 1.37157913e-05,
          1.05043609e-05, 7.06899891e-06, 9.61688613e-08,
          -4.56946918e-06, -5.69915801e-06, -5.90490117e-06,
          -6.56566499e-06, -6.69021119e-06, -6.72523947e-06,
          -4.22684479e-06, 2.02713181e-06, 5.10685322e-06,
          9.94403763e-06, 1.42414165e-05, 1.50598999e-05, 1.74529323e-05,
          1.41380833e-05, 1.04862893e-05, 7.37145137e-06, 6.31610737e-06,
          3.63272534e-06, 0., 0., 5.29403269e-06, 6.29603346e-06,
          6.18481681e-06, 6.09155359e-06, 9.54096868e-06, 9.35949174e-07,
          -5.23520782e-07, -5.26929307e-06, -6.33952232e-06,
          -6.40597455e-06, -6.45368118e-06, -6.72523947e-06,
          -7.04049580e-06, -7.13390546e-06, -2.40228178e-06,
          3.49713901e-06, 4.81211782e-06, 9.39525762e-06, 1.35345999e-05,
          1.39626700e-05, 1.45332451e-05, 1.73106582e-05, 1.21028252e-05,
          7.66536687e-06, 6.31610737e-06, 3.63272534e-06, 0., 0.,
          5.55188399e-06, 6.03262015e-06, -2.96665416e-06,
          -6.71822318e-06, -3.32032471e-07, -8.96416282e-07,
          -4.67381142e-06, -5.95917254e-06, -7.40298856e-06,
          -6.79819050e-06, -1.05429872e-05, -1.23945902e-05,
          -1.28149322e-05, -1.29355858e-05, -8.20785499e-06,
          -2.03236777e-06, 4.65387018e-07, 8.70940039e-06,
          1.34293978e-05, 1.39596032e-05, 1.46908433e-05, 1.83172124e-05,
          1.25926845e-05, 7.76333854e-06, 6.48092555e-06, 5.81071026e-06,
          3.61057459e-06, 0., -6.10950383e-06, -5.80959841e-06,
          -1.19512806e-05, -8.13166480e-06, -6.85803059e-07,
          -1.21829203e-06, -5.94638550e-06, -6.43293106e-06,
          -6.24536688e-06, -5.78130948e-06, -1.56528713e-05,
          -1.95902903e-05, -1.98627331e-05, -1.99405749e-05,
          -1.68271908e-05, -1.06206726e-05, -5.02014973e-06,
          7.67881465e-06, 1.32620398e-05, 1.35698619e-05, 1.41361670e-05,
          1.80192710e-05, 1.25926845e-05, 7.76333854e-06, 6.51896062e-06,
          6.31088687e-06, 4.43015279e-06, 0., -1.38388796e-05,
          -1.34635411e-05, -1.29000782e-05, -8.13166480e-06,
          -6.85803059e-07, -1.21829203e-06, -5.95997062e-06,
          -6.41084489e-06, -3.45223361e-06, -9.95598384e-07,
          -9.46549335e-06, -1.55712423e-05, -1.99133301e-05,
          -1.99405749e-05, -1.99405749e-05, -1.44141222e-05,
          -5.28741430e-06, 7.31685395e-06, 1.30557610e-05,
          1.33554486e-05, 1.36610934e-05, 1.49369280e-05, 1.19060105e-05,
          7.76333854e-06, 6.51896062e-06, 6.31088687e-06, 5.11682629e-06,
          3.16755927e-06, -1.34838865e-05, -1.34255060e-05,
          -1.29000782e-05, -8.13166480e-06, -1.44912678e-06,
          -1.45045101e-06, -3.61155685e-06, -2.65003973e-06,
          1.71402448e-07, 2.62134762e-07, -7.90734066e-06,
          -1.46619141e-05, -1.99405749e-05, -1.99405749e-05,
          -1.99405749e-05, -1.49709431e-05, -5.51140010e-06,
          7.13003510e-06, 1.29506752e-05, 1.33243129e-05, 1.34838865e-05,
          1.26332488e-05, 1.13743927e-05, 7.76333854e-06, 6.51896062e-06,
          6.31088687e-06, 5.64844504e-06, 5.64844504e-06,
          -8.49449134e-06, -1.07735714e-05, -1.26171662e-05,
          -8.00249927e-06, 9.44043052e-07, 7.72708245e-06,
          8.90771025e-06, 2.10530243e-06, 7.09652454e-07,
          -3.53035823e-08, -7.42620114e-06, -1.46619141e-05,
          -1.99405749e-05, -1.99405749e-05, -1.99405749e-05,
          -1.49709431e-05, -5.51574522e-06, 7.13003510e-06,
          1.29506752e-05, 1.33243129e-05, 1.34838865e-05, 1.26332488e-05,
          1.13743927e-05, 7.76333854e-06, 6.51896062e-06, 6.35526112e-06,
          5.87348495e-06, 5.64844504e-06, -3.53030168e-06,
          4.06298841e-06, -9.84157396e-07, 2.19330786e-06,
          1.23969930e-05, 1.26888735e-05, 1.25931119e-05, 5.47520131e-06,
          9.18386036e-07, -3.09618855e-07, -7.42620114e-06,
          -1.46619141e-05, -1.99405749e-05, -1.94793320e-05,
          -1.94793320e-05, -1.53138444e-05, -7.22913683e-06,
          8.10849826e-07, 9.17875877e-06, 1.21976364e-05, 1.34838865e-05,
          1.26332488e-05, 1.13743927e-05, 7.76333854e-06, 6.51896062e-06,
          6.45668752e-06, 6.37110907e-06, 5.64844504e-06, 5.34860828e-06,
          1.01158894e-05, 1.59349565e-05, 1.93278720e-05, 1.73121516e-05,
          1.31842498e-05, 1.29912642e-05, 5.59245018e-06, 8.81746757e-07,
          -3.56323540e-07, -7.42620114e-06, -1.46619141e-05,
          -1.99405749e-05, -1.50206588e-05, -1.50206588e-05,
          -1.55587750e-05, -8.54852806e-06, -4.08774349e-06,
          6.23960250e-06, 1.13158894e-05, 1.34838865e-05, 1.26110617e-05,
          1.13426968e-05, 7.76333854e-06, 6.51896062e-06, 6.45668752e-06,
          6.36793948e-06, 5.64844504e-06, 5.59584350e-06, 1.06894831e-05,
          1.65476595e-05, 1.99405749e-05, 1.79248545e-05, 1.37969528e-05,
          1.32737159e-05, 5.59245018e-06, 8.81746757e-07,
          -3.56323540e-07, -7.42620114e-06, -1.46619141e-05,
          -1.99405749e-05, -1.97868267e-05, -1.97868267e-05,
          -1.55587750e-05, -8.54852806e-06, -4.08774349e-06,
          6.23960250e-06, 1.13158894e-05, 1.34838865e-05, 1.22814254e-05,
          1.09148032e-05, 7.76333854e-06, 6.51896062e-06, 6.45668752e-06,
          6.36793948e-06, 5.64844504e-06, 6.44754346e-06, 1.07807364e-05,
          1.65476595e-05, 1.99405749e-05, 1.79248545e-05, 1.41963201e-05,
          1.35779956e-05, 5.59245018e-06, 8.32760861e-07,
          -3.52431471e-07, -7.42620114e-06, -1.46619141e-05,
          -1.99405749e-05, -1.99405749e-05, -1.99405749e-05,
          -1.55587750e-05, -8.55175676e-06, -4.08774349e-06,
          6.23960250e-06, 1.13158894e-05, 1.34838865e-05, 1.22592382e-05,
          1.08831082e-05, 7.76333854e-06, 6.51896062e-06, 6.45668752e-06,
          6.37110907e-06, 5.64844504e-06, 6.36905770e-06, 1.11074387e-05,
          1.67383696e-05, 1.99405749e-05, 1.78758692e-05, 1.39453359e-05,
          1.29619229e-05, 5.24954885e-06, 8.32760861e-07,
          -3.56323540e-07, -7.37721484e-06, -1.46619141e-05,
          -1.99405749e-05, -1.99405749e-05, -1.99405749e-05,
          -1.55587750e-05, -8.54852806e-06, -4.08774349e-06,
          6.23960250e-06, 1.13158894e-05, 1.34838865e-05, 1.25159740e-05,
          1.12222524e-05, 7.76333854e-06, 6.51896062e-06, 6.45668752e-06,
          6.37110907e-06, 5.64844504e-06, 6.53811458e-06, 1.14813529e-05,
          1.68901606e-05, 1.99405749e-05, 1.72390519e-05, 1.07612505e-05,
          5.85896305e-06, 1.91850518e-06, 2.93915605e-07,
          -1.65125542e-07, -6.98296935e-06, -1.46619141e-05,
          -1.99405749e-05, -1.99405749e-05, -1.99405749e-05,
          -1.55587750e-05, -8.54852806e-06, -4.08774349e-06,
          6.23960250e-06, 1.13158894e-05, 1.34838865e-05, 1.26332488e-05,
          1.13743927e-05, 7.76333854e-06, 6.51896062e-06, 6.45668752e-06,
          6.37110907e-06, 5.64844504e-06, 6.68990469e-06, 1.16743449e-05,
          1.69524319e-05, 1.99366823e-05, 1.69373525e-05, 9.12525411e-06,
          2.31640774e-06, 2.45199487e-07, 0., 0., -6.59622765e-06,
          -1.46619141e-05, -1.99405749e-05, -1.99405749e-05,
          -1.99405749e-05, -1.55587750e-05, -8.55610233e-06,
          -4.08774349e-06, 6.23960250e-06, 1.13158894e-05,
          1.34838865e-05, 1.26332488e-05, 9.44727617e-06, 6.87730835e-06,
          6.51896062e-06, 6.45668752e-06, 6.37110907e-06, 5.64844504e-06,
          6.68990469e-06, 1.16253595e-05, 1.69524319e-05, 1.98526686e-05,
          1.66820864e-05, 8.50252582e-06, 1.87499461e-06, 1.38503196e-07,
          0., 0., -6.59622765e-06, -1.46619141e-05, -1.99405749e-05,
          -1.99405749e-05, -1.99405749e-05, -1.55587750e-05,
          -8.55287362e-06, -4.03875765e-06, 6.28858834e-06,
          1.13158894e-05, 1.34838865e-05, 1.26332488e-05, 6.94423989e-06,
          5.74761953e-06, 6.51896062e-06, 6.45668752e-06, 6.37110907e-06,
          5.64844504e-06, 6.64091885e-06, 1.16253595e-05, 1.69524319e-05,
          1.98821945e-05, 1.65886777e-05, 8.21840513e-06, 1.64536334e-06,
          1.55682205e-08, 0., 0., -6.59622765e-06, -1.46619141e-05,
          -1.99405749e-05, -1.99405749e-05, -1.99405749e-05,
          -1.55587750e-05, -8.55175676e-06, -4.03875765e-06,
          6.28858834e-06, 1.13158894e-05, 1.34838865e-05, 1.25635179e-05,
          6.85232180e-06, 5.74761953e-06, 6.51896062e-06, 6.45668752e-06,
          6.38695701e-06, 5.80058486e-06, 6.64091885e-06, 1.16221900e-05,
          1.69524319e-05, 1.98783018e-05, 1.66182035e-05, 8.15613294e-06,
          1.54967279e-06, 0., 0., 0., -6.59622765e-06, -1.46619141e-05,
          -1.99405749e-05, -1.99405749e-05, -1.99405749e-05,
          -1.55587750e-05, -9.10908602e-06, -4.20822835e-06,
          6.23960250e-06, 1.13158894e-05, 1.34838865e-05, 1.22592382e-05,
          6.45295495e-06, 5.74761953e-06, 6.51896062e-06, 6.45668752e-06,
          6.45668752e-06, 6.45668752e-06, 6.64091885e-06, 1.16221900e-05,
          1.69524319e-05, 1.98783018e-05, 1.66143109e-05, 8.15613294e-06,
          1.54967279e-06, 4.89859318e-08, 4.89859318e-08, 4.89859318e-08,
          -6.49935419e-06, -1.43454590e-05, -1.99405749e-05,
          -1.99405749e-05, -1.99405749e-05, -1.55587750e-05,
          -9.46106411e-06, -4.36584969e-06, 6.23960250e-06,
          1.13158894e-05, 1.34838865e-05, 1.22592382e-05, 6.45295495e-06,
          5.74761953e-06, 6.51896062e-06, 6.45668752e-06, 6.45668752e-06,
          6.45668752e-06, 6.64091885e-06, 1.16253595e-05, 1.69524319e-05,
          1.98783018e-05, 1.66143109e-05, 8.15613294e-06, 1.59865874e-06,
          0., 4.89859318e-08, 0., -6.38956362e-06, -1.39870263e-05,
          -1.99405749e-05, -1.99405749e-05, -1.99405749e-05,
          -1.54118170e-05, -8.77849016e-06, -1.91655295e-06,
          7.70918086e-06, 1.17567624e-05, 1.34838865e-05, 1.22592382e-05,
          6.45295495e-06, 5.74761953e-06, 6.51896062e-06, 6.45668752e-06,
          6.45668752e-06, 6.45668752e-06, 6.64091885e-06, 1.16253595e-05,
          1.69524319e-05, 1.98783018e-05, 1.66143109e-05, 8.15613294e-06,
          1.59865874e-06, 0., 0., 0., -4.38501502e-06, -1.28325682e-05,
          -1.99366823e-05, -1.99405749e-05, -1.99405749e-05,
          -1.52648590e-05, -7.84452823e-06, 1.61043420e-06,
          9.81557514e-06, 1.23445943e-05, 1.34349011e-05, 1.22592382e-05,
          6.45295495e-06, 5.74761953e-06, 6.51896062e-06, 6.45668752e-06,
          6.45668752e-06, 6.45668752e-06, 6.64091885e-06, 1.16253595e-05,
          1.69524319e-05, 1.98783018e-05, 1.66182035e-05, 8.15613294e-06,
          1.54967279e-06, 0., 0., 0., -4.84770226e-07, -1.06260459e-05,
          -1.99405749e-05, -1.99405749e-05, -1.99405749e-05,
          -1.50689157e-05, -6.91702417e-06, 5.13742134e-06,
          1.19219703e-05, 1.29814107e-05, 1.34838865e-05, 1.22592382e-05,
          6.45295495e-06, 5.74761953e-06, 6.51896062e-06, 6.45668752e-06,
          6.45668752e-06, 6.45668752e-06, 1.05597937e-05, 1.41726277e-05,
          1.78831651e-05, 1.98783018e-05, 1.66182035e-05, 8.20511832e-06,
          1.54967279e-06, 0., 0., 0., -4.84770226e-07, -1.06260459e-05,
          -1.99405749e-05, -1.99405749e-05, -1.99405749e-05,
          -1.59124047e-05, -7.59894237e-06, 6.99593511e-06,
          1.30324088e-05, 1.33476651e-05, 1.34838865e-05, 1.22592382e-05,
          6.45295495e-06, 5.74761953e-06, 6.51896062e-06, 6.45668752e-06,
          6.45668752e-06, 6.45668752e-06, 1.83485572e-05, 1.93161504e-05,
          1.97446316e-05, 1.98783018e-05, 1.66182035e-05, 8.20511832e-06,
          1.59865874e-06, 4.89859318e-08, 0., 0., -4.84770226e-07,
          -1.06260459e-05, -1.99405749e-05, -1.99405749e-05,
          -1.99405749e-05, -1.92826865e-05, -1.19768747e-05,
          7.31782075e-06, 1.32347950e-05, 1.34099373e-05, 1.34838865e-05,
          1.22592382e-05, 6.45295495e-06, 5.74761953e-06, 6.51896062e-06,
          6.45668752e-06, 6.45668752e-06, 6.45668752e-06, 1.91323325e-05,
          1.98549951e-05, 1.99366823e-05, 1.98744092e-05, 1.66143109e-05,
          8.20511832e-06, 1.68106783e-06, 8.24090733e-08, 0., 0.,
          -4.61503419e-07, -1.05614627e-05, -1.99405749e-05,
          -1.99405749e-05, -1.99405749e-05, -1.92204134e-05,
          -1.22643096e-05, 7.58714214e-06, 1.34349011e-05,
          1.34349011e-05, 1.34838865e-05, 1.22592382e-05, 6.45295495e-06,
          5.74761953e-06, 6.51896062e-06, 6.45668752e-06, 6.45668752e-06,
          6.45668752e-06, 1.91323325e-05, 1.98518264e-05, 1.99366823e-05,
          1.98744092e-05, 1.66143109e-05, 8.15613294e-06, 1.98390512e-06,
          4.34232419e-07, 0., 0., -2.78106171e-07, -9.94792936e-06,
          -1.99405749e-05, -1.99405749e-05, -1.99405749e-05,
          -1.90666669e-05, -1.21105622e-05, 7.58714214e-06,
          1.34349011e-05, 1.34349011e-05, 1.34838865e-05, 1.22592382e-05,
          6.45295495e-06, 5.74761953e-06, 6.51896062e-06, 6.45668752e-06,
          6.45668752e-06, 6.45668752e-06, 1.91323325e-05, 1.98028411e-05,
          1.99405749e-05, 1.98783018e-05, 1.66182035e-05, 8.15613294e-06,
          1.98390512e-06, 4.34232419e-07, 0., 0., -2.78106171e-07,
          -9.89894306e-06, -1.99405749e-05, -1.99405749e-05,
          -1.99405749e-05, -1.49884690e-05, -6.69096789e-06,
          7.58714214e-06, 1.34349011e-05, 1.34349011e-05, 1.34349011e-05,
          1.22592382e-05, 6.45295495e-06, 5.74761953e-06, 6.51896062e-06,
          6.45668752e-06, 6.45668752e-06, 6.45668752e-06, 1.36459075e-05,
          1.62300366e-05, 1.86179550e-05, 1.98783018e-05, 1.66182035e-05,
          8.15613294e-06, 2.03289119e-06, 4.31062830e-07, 0., 0.,
          -2.78106171e-07, -9.90217177e-06, -1.99405749e-05,
          -1.99405749e-05, -1.99405749e-05, -1.48386134e-05,
          -6.49878393e-06, 7.58714214e-06, 1.34838865e-05,
          1.30919998e-05, 1.11053178e-05, 7.27891211e-06, 4.09840868e-06,
          5.27171733e-06, 6.51117625e-06, 6.45668752e-06, 6.45668752e-06,
          6.45668752e-06, 6.64091885e-06, 1.11277350e-05, 1.68510069e-05,
          1.98744092e-05, 1.66594054e-05, 8.30309091e-06, 2.37579275e-06,
          5.78020661e-07, 4.89859318e-08, 0., -2.78106171e-07,
          -9.94792936e-06, -1.99405749e-05, -1.99405749e-05,
          -1.98426023e-05, -1.82346339e-05, -1.10863466e-05,
          7.63612843e-06, 1.34838865e-05, 1.26021396e-05, 8.03933472e-06,
          6.65541450e-07, 3.95367942e-06, 6.00502608e-06, 6.49171625e-06,
          6.45668752e-06, 6.45668752e-06, 6.45668752e-06, 6.68990469e-06,
          1.09026951e-05, 1.68066326e-05, 1.98783018e-05, 1.80907937e-05,
          1.24226626e-05, 5.90277978e-06, 2.29569787e-06, 2.93915605e-07,
          0., -4.39562484e-07, -1.03612574e-05, -1.92979787e-05,
          -1.93166907e-05, -1.85953504e-05, -1.59873416e-05,
          -9.03123873e-06, 8.02412342e-06, 1.34838865e-05,
          1.26021396e-05, 7.94203333e-06, 3.61961128e-07, 4.94560572e-06,
          6.52285280e-06, 6.46836361e-06, 6.45668752e-06, 6.45668752e-06,
          6.45668752e-06, 6.68990469e-06, 1.09026951e-05, 1.68066326e-05,
          1.98899779e-05, 1.93369051e-05, 1.61609169e-05, 9.58544933e-06,
          4.01181615e-06, 5.87831209e-07, 0., -4.84770226e-07,
          -1.05840672e-05, -1.97080772e-05, -1.96593846e-05,
          -1.73414774e-05, -1.29259215e-05, -6.01813326e-06,
          7.90189279e-06, 1.32579253e-05, 1.26021396e-05, 7.89143633e-06,
          2.10170981e-07, 4.75100296e-06, 6.46057970e-06, 6.45668752e-06,
          6.45668752e-06, 6.45668752e-06, 6.45668752e-06, 6.64091885e-06,
          1.09026951e-05, 1.68066326e-05, 1.98643447e-05, 1.97553672e-05,
          1.85354384e-05, 1.50512806e-05, 5.97266308e-06, 9.84900680e-07,
          0., -8.22027800e-07, -1.11049576e-05, -1.99405749e-05,
          -1.97693244e-05, -1.59069496e-05, -9.65594063e-06,
          -2.87820126e-06, 8.00906219e-06, 1.31275629e-05,
          1.26021396e-05, 7.89143633e-06, 2.10170981e-07, 4.75100296e-06,
          6.45668752e-06, 6.45668752e-06, 6.45668752e-06, 6.45668752e-06,
          6.50567381e-06, 6.64091885e-06, 1.09026951e-05, 1.68066326e-05,
          1.98838043e-05, 1.98565594e-05, 1.98354883e-05, 1.92538482e-05,
          1.07890091e-05, 6.76148420e-06, 3.28205738e-06,
          -4.36547498e-06, -1.52791399e-05, -1.85199824e-05,
          -1.47773217e-05, -1.06395519e-05, -7.66898938e-06,
          -2.45974002e-06, 8.22525180e-06, 1.31927445e-05,
          1.26511259e-05, 7.95788856e-06, 1.94033851e-06, 9.25038330e-06,
          1.29228310e-05, 1.34616757e-05, 1.17961545e-05, 8.85699865e-06,
          6.46057970e-06, 6.64091885e-06, 1.09026951e-05, 1.68066326e-05,
          1.99405749e-05, 1.98915877e-05, 1.99366823e-05, 1.94200056e-05,
          1.45210297e-05, 1.15748362e-05, 6.76727905e-06, 9.95078267e-07,
          -8.20382593e-06, -1.61473163e-05, -1.03605335e-05,
          -6.65518246e-06, -4.15047725e-06, 6.54127803e-07,
          8.86791895e-06, 1.29276596e-05, 1.18848175e-05, 8.50398010e-06,
          8.13405040e-06, 1.42983290e-05, 1.82804160e-05, 1.92438965e-05,
          1.64406920e-05, 1.15216990e-05, 7.63624212e-06, 6.64091885e-06,
          1.09026951e-05, 1.68066326e-05, 1.99405749e-05, 1.99405749e-05,
          1.99405749e-05, 1.98639354e-05, 1.93608321e-05, 1.39096010e-05,
          9.76094634e-06, 5.81845916e-06, -3.22127926e-06,
          -1.26525374e-05, -8.90075080e-06, -6.53842062e-06,
          -4.15047725e-06, 6.05141850e-07, 8.31605212e-06,
          1.08271970e-05, 1.01558562e-05, 1.28785368e-05, 1.23965219e-05,
          1.59148640e-05, 1.88467766e-05, 1.94254299e-05, 1.69565756e-05,
          1.40923194e-05, 1.15512248e-05, 2.05571087e-06, 9.92806144e-06,
          1.62678025e-05, 1.97757563e-05, 1.99405749e-05, 1.99405749e-05,
          1.99327897e-05, 1.98643447e-05, 1.48654108e-05, 1.52419880e-05,
          1.23951040e-05, 9.57291945e-07, -8.69754240e-06,
          -7.55773044e-06, -6.46836361e-06, -6.45668752e-06,
          -1.17653792e-06, 9.91957131e-06, 1.30730459e-05,
          1.09458615e-05, 1.24125972e-05, 1.54310092e-05, 1.69392388e-05,
          1.80997722e-05, 1.51675049e-05, 1.39971362e-05, 1.48505032e-05,
          9.95689970e-06, -4.17386809e-06, 1.00934176e-06,
          8.80054631e-06, 1.35623914e-05, 1.61143889e-05, 1.85461922e-05,
          1.22274450e-05, 1.12388907e-05, 9.84339295e-06, 1.28748416e-05,
          1.07692113e-05, 3.12892757e-06, -2.62016556e-06,
          -5.92102879e-06, -6.43766998e-06, -3.44886826e-06,
          -1.19013919e-06, 3.25243400e-06, 3.60271611e-06,
          2.27039521e-07, 2.83203372e-06, 9.95284336e-06, 9.93727463e-06,
          9.24310825e-06, 3.96362793e-06, 2.81956250e-06, 4.81760071e-06,
          6.53223788e-06, -8.00689759e-06, -7.62443415e-06,
          -7.25995687e-06, -2.52625659e-06, 5.79128073e-06,
          1.08041922e-05, 1.92725975e-06, -6.35274710e-21,
          -6.35274710e-21, 4.65085759e-06, 2.71026624e-06,
          2.32497086e-07, -3.73940196e-07, -2.49356390e-06,
          -2.82320025e-06, -1.27849876e-06, -2.16978674e-06,
          -7.73977717e-06, -1.07742235e-05, -1.17262971e-05,
          -7.81748713e-06, -2.99688253e-07, -2.04668140e-07,
          -1.48568589e-07, -1.74766967e-07, -2.59463400e-06,
          -6.06257800e-06, 3.19291644e-06, -8.15868771e-06,
          -1.11282125e-05, -1.85280387e-05, -1.52936154e-05,
          -6.69246356e-06, -2.09889890e-06, -1.95943721e-06,
          -8.32760861e-07, -1.46957802e-07, -6.35274710e-21,
          1.61456313e-07, 6.42596092e-07, 5.25798498e-07,
          -6.35274710e-21, -5.87831209e-07, -2.06130130e-06,
          -4.51838196e-06, -1.14821687e-05, -1.29623513e-05,
          -1.25934157e-05, -8.72419787e-06, -1.97366444e-06,
          -8.40544942e-07, -1.95943727e-07, -1.49228185e-06,
          -4.91646097e-06, -7.32697708e-06, -7.86654027e-07,
          -8.15868771e-06, -1.84422461e-05, -1.95857556e-05,
          -1.72490309e-05, -1.10942001e-05, -6.30159320e-06,
          -6.13187831e-06, -2.63457446e-06, -3.91887454e-07,
          -6.35274710e-21, -6.35274710e-21, -3.89205512e-09,
          -3.89205512e-09, -3.89205512e-09, -1.76738558e-06,
          -5.08219046e-06, -7.88016132e-06, -1.24656481e-05,
          -1.32970681e-05, -1.29846330e-05, -1.03897191e-05,
          -5.50065170e-06, -2.50245967e-06, -1.87311468e-06,
          -4.09220547e-06, -8.14193936e-06, -1.08400545e-05,
          -1.12654561e-05, -8.20767400e-06, -1.72689161e-05,
          -1.95453613e-05, -1.88208269e-05, -1.53393103e-05,
          -1.16235724e-05, -1.16196798e-05, -5.00362057e-06,
          -5.94673217e-08, 2.32853921e-07, -8.55917719e-08,
          6.11722726e-07, 9.96091103e-07, 9.96091103e-07,
          -1.93917276e-06, -7.01129784e-06, -9.99447639e-06,
          -1.20810100e-05, -1.24488752e-05, -1.22762840e-05,
          -1.12223779e-05, -9.17657962e-06, -4.49286790e-06,
          -4.60132287e-06, -5.36110565e-06, -7.82759525e-06,
          -1.22076035e-05, -6.51026812e-06, -8.20767400e-06,
          -8.20767400e-06, -1.80332117e-05, -1.96716373e-05,
          -1.96175333e-05, -1.89030070e-05, -1.89480998e-05,
          -4.22742824e-06, 7.71653959e-06, 3.35918935e-06,
          1.69051518e-07, 6.58506133e-06, 1.06209291e-05, 1.06209291e-05,
          6.85290479e-06, 5.44455247e-07, -2.46985974e-06,
          -2.80846871e-06, -2.85517331e-06, -2.85517331e-06,
          -3.43513580e-06, -6.95518156e-06, -9.79281140e-07,
          3.13942928e-06, 4.39725409e-06, 1.68386202e-06,
          -4.99559610e-06, -9.31575323e-06 ]
      - [ 0., 0., 0., 1.89135285e-08, 0., 0., 0., -1.17818036e-06,
          1.91639424e-06, -6.49797403e-06, -3.26400527e-06,
          -9.31736242e-21, -9.31736242e-21, 2.15260775e-06,
          3.89301385e-06, -2.25166946e-06, -6.83001417e-06,
          -1.17618392e-05, -1.78310456e-05, -1.68805195e-06, 0., 0., 0.,
          2.93561015e-08, 0., 0., 0., 0., 1.89135285e-08, 0., 0., 0., 0.,
          1.69570194e-06, 1.96747033e-06, -1.17180962e-05,
          -1.03237116e-05, -5.33942921e-06, -6.61484933e-07,
          -9.31736242e-21, -9.31736242e-21, 1.98467376e-07,
          3.66401309e-07, -8.64750120e-07, -2.38149573e-06,
          -6.19778893e-06, -1.02413906e-05, -1.30432300e-05,
          1.34037066e-07, -4.33849721e-07, 0., 0., 0., 0., 0., 0.,
          1.89135285e-08, 0., 0., 3.39140388e-06, 4.49617346e-06,
          -3.97121028e-07, -6.79758386e-06, -9.83498285e-06,
          -6.80119820e-06, -3.10028327e-06, -9.31736242e-21,
          -9.31736242e-21, -9.31736242e-21, -9.31736242e-21,
          -9.31736242e-21, -1.76136609e-07, -8.80683046e-07,
          -3.14110298e-06, -6.79915229e-06, -1.04806541e-05,
          -1.03273997e-05, -4.59523199e-06, -1.68668566e-06, 0., 0., 0.,
          0., 2.93561015e-08, 0., 0., 0., 2.64134587e-06, 5.29245824e-07,
          -7.57679527e-06, -1.07109363e-05, -5.18003890e-06,
          -1.48474703e-06, -5.95593008e-07, -9.31736242e-21,
          -1.89135285e-08, -9.31736242e-21, -9.31736242e-21,
          -9.31736242e-21, -5.87122031e-08, -2.93561015e-07,
          -1.08617576e-06, -4.14768147e-06, -6.56335260e-06,
          -1.00546504e-05, -1.14914574e-05, -1.37534107e-05,
          -7.73803731e-06, 0., 0., 2.93561015e-08, 2.93561015e-08, 0.,
          3.39140388e-06, 2.25758095e-06, -2.88184197e-06,
          -7.30866941e-06, -9.94226048e-06, -8.60638011e-06,
          -3.24195162e-06, -3.52273219e-07, -9.31736242e-21,
          -9.31736242e-21, -9.31736242e-21, -9.24928315e-07,
          -4.00802264e-06, -3.08309438e-07, -9.31736242e-21,
          -9.31736242e-21, -2.93561015e-08, -2.40720033e-06,
          -4.49148365e-06, -7.19528543e-06, -1.20729719e-05,
          -1.44493251e-05, -1.25996548e-05, -6.21431991e-06, 0.,
          2.93561015e-08, 2.93561015e-08, 2.93561015e-08, 7.70773568e-06,
          3.33982962e-06, -5.68502992e-06, -1.02775921e-05,
          -6.85961777e-06, -2.94167307e-06, -7.91812056e-07,
          1.46390960e-07, 1.95832445e-06, 4.66990599e-07,
          -1.34961192e-06, 2.00070144e-06, 2.81397888e-07,
          6.10073857e-06, 4.82155610e-06, -1.55158432e-06,
          -1.54154725e-06, -2.34848812e-07, -8.51326945e-07,
          -4.05033961e-06, -9.28259124e-06, -9.76855517e-06,
          -1.10627225e-05, -1.27182220e-05, -6.74028934e-06, 0.,
          2.93561015e-08, 0., 2.18260567e-07, -4.82716587e-06,
          -8.67231483e-06, -8.19933757e-06, -3.17045897e-06,
          -5.28409828e-07, 2.51067235e-07, 1.92573850e-07,
          4.45193064e-06, 9.15588862e-06, 4.90266530e-06, 7.55998735e-06,
          1.06789521e-05, 1.07162223e-05, 1.12345324e-05, 4.44544639e-06,
          3.94969175e-06, -6.88754199e-07, -1.74567231e-06,
          -2.28977592e-06, -5.57765952e-06, -6.63447918e-06,
          -1.19196720e-05, -1.74667366e-05, -1.29794525e-05, 0., 0.,
          2.14911324e-07, -1.30877588e-05, -1.18902326e-05,
          -9.22088657e-06, -5.41722557e-06, -1.79072219e-06,
          -2.06566085e-07, 2.13409089e-06, 4.81578672e-06,
          4.69758743e-06, 1.43123643e-05, 1.17844074e-05, 1.11791751e-05,
          1.10148376e-05, 1.11645722e-05, 1.13595925e-05, 1.19269980e-05,
          1.43339903e-05, 4.43858244e-06, -6.82398922e-06,
          -1.86974864e-06, -3.50255868e-06, -5.66572771e-06,
          -1.03697075e-05, -1.10497003e-05, -9.79822562e-06,
          -1.74040622e-06, 0., 3.32662535e-06, -9.62822014e-06,
          -1.04385163e-05, -6.56430348e-06, -2.06770756e-06,
          -4.10985422e-07, 2.62448225e-06, 2.99248381e-06,
          1.09112616e-05, 1.26429186e-05, 1.24122198e-05, 1.10037217e-05,
          9.47172612e-06, 9.01976364e-06, 9.08510083e-06, 9.52207392e-06,
          1.10540695e-05, 1.24057296e-05, 1.23962955e-05,
          -3.01839941e-06, -7.48171351e-06, -2.00553836e-06,
          -4.69697625e-06, -1.01916094e-05, -1.31547413e-05,
          -1.57138675e-05, -7.40468158e-06, 0., 8.78897572e-06,
          -8.36490199e-06, -9.47172612e-06, -4.87311308e-06,
          -4.10985422e-07, -1.69570194e-06, -6.09196547e-07,
          1.32847990e-05, 1.16753354e-05, 1.02825998e-05, 8.33151444e-06,
          6.82690279e-06, 4.78424181e-06, 4.19792241e-06, 4.19792241e-06,
          4.93102243e-06, 7.61951787e-06, 1.12671241e-05, 1.21319781e-05,
          1.43403959e-05, 1.32587232e-07, 1.28704869e-07,
          -4.40341546e-06, -1.01328969e-05, -1.22660940e-05,
          -1.30100689e-05, -1.12666785e-05, 0., 3.46488468e-06,
          -9.20071398e-06, -9.47172612e-06, -4.87311308e-06,
          -4.10985422e-07, -3.11943381e-07, -3.61488645e-07,
          1.30067874e-05, 1.05781328e-05, 7.09147434e-06, 2.69616362e-06,
          1.70221745e-06, 3.78270556e-07, 0., 0., 7.30543775e-07,
          3.52229586e-06, 9.38935500e-06, 1.13261485e-05, 1.30865456e-05,
          1.31341012e-05, 4.43716681e-06, -4.40341546e-06,
          -1.01328969e-05, -1.20061395e-05, -1.27153453e-05,
          -1.37451698e-05, -1.34347147e-06, -1.09812972e-05,
          -1.16693418e-05, -9.47172612e-06, -4.87311308e-06,
          -4.10985422e-07, 8.50256129e-07, 6.56983843e-07,
          1.08115946e-05, 8.48479431e-06, 5.00288115e-06, 9.07849312e-07,
          5.86319345e-07, 1.32394689e-07, 0., 0., 4.84667908e-07,
          2.40639770e-06, 7.63039679e-06, 1.02413451e-05, 1.17931504e-05,
          1.27838002e-05, -4.23206700e-07, -5.26443682e-06,
          -1.01328969e-05, -1.20061395e-05, -1.32425866e-05,
          -1.46448219e-05, 1.61801734e-06, 7.64160450e-06,
          -6.47301340e-06, -6.65977359e-06, -1.52682469e-06,
          1.71435670e-06, 4.98815734e-06, 1.09049761e-05, 8.77185539e-06,
          5.74839532e-06, 3.00038528e-06, 0., 0., 0., 0., 0.,
          3.52273219e-07, 1.82007830e-06, 6.72254737e-06, 9.71760255e-06,
          1.15725325e-05, 1.24277585e-05, 6.44666306e-06, 1.50510886e-07,
          -1.01328969e-05, -1.20061395e-05, -1.32425866e-05,
          -1.37198940e-05, 5.93434970e-06, 1.50040341e-05,
          1.07226015e-05, 1.54528891e-06, 4.18551099e-06, 1.41185456e-05,
          1.31186280e-05, 1.17734371e-05, 6.04078741e-06, 2.38785037e-06,
          1.06310074e-06, 0., 0., 0., 0., 0., 3.52273219e-07,
          1.82007830e-06, 6.72254737e-06, 9.71760255e-06, 1.15333005e-05,
          1.23976806e-05, 7.32601302e-06, 7.43722865e-07,
          -1.01328969e-05, -1.20061395e-05, -1.29675309e-05,
          -1.23249702e-05, 5.93434970e-06, 1.50040341e-05,
          1.67261860e-05, 1.84381934e-05, 2.16328117e-05, 2.18945097e-05,
          1.43199095e-05, 1.14009063e-05, 4.78855145e-06, 9.15151361e-07,
          2.26962328e-07, 0., 0., 0., 0., 0., 1.46780508e-07,
          7.92614742e-07, 2.93561015e-06, 7.45718262e-06, 1.08581107e-05,
          1.23976806e-05, -7.83301886e-08, -3.60452236e-06,
          -1.01328969e-05, -1.20061395e-05, -1.23388336e-05,
          -9.24042160e-06, 5.93434970e-06, 1.50040341e-05,
          1.78606315e-05, 2.35550615e-05, 2.73127898e-05, 2.38057692e-05,
          1.43199095e-05, 1.12874250e-05, 4.42919463e-06, 5.28409828e-07,
          0., 0., 0., 0., 0., 0., 0., 0., 0., 5.69581653e-06,
          1.03297007e-05, 1.23983345e-05, -5.10264135e-06,
          -6.71951057e-06, -1.01328969e-05, -1.20061395e-05,
          -1.23388336e-05, -9.26006851e-06, 5.93434970e-06,
          1.50229480e-05, 1.78606315e-05, 2.35550615e-05, 2.73127898e-05,
          2.38057692e-05, 1.43199095e-05, 1.12874250e-05, 4.42919463e-06,
          5.28409828e-07, 0., 0., 0., 0., 0., 0., 0., 0., 0.,
          5.69581653e-06, 1.03297007e-05, 1.23983345e-05,
          -7.07917388e-06, -9.37182995e-06, -1.01328969e-05,
          -1.20061395e-05, -1.23388336e-05, -9.26006851e-06,
          5.93434970e-06, 1.50229480e-05, 1.78606315e-05, 2.35550615e-05,
          2.73127898e-05, 2.38057692e-05, 1.67954076e-05, 1.31735187e-05,
          4.42919463e-06, 4.99053726e-07, 1.89135285e-08, 0., 0., 0., 0.,
          0., 0., 0., 0., 5.69581653e-06, 1.03297007e-05,
          -2.04174262e-06, -1.26852547e-05, -9.56829808e-06,
          -1.01328969e-05, -1.20061395e-05, -1.09328566e-05,
          -4.30698310e-06, 9.46096225e-06, 1.38354662e-05,
          1.95763005e-05, 2.44818239e-05, 2.73127898e-05, 2.37764143e-05,
          1.71596712e-05, 1.31947627e-05, 4.22370158e-06, 4.99053726e-07,
          0., 2.93561015e-08, 0., 0., 0., 0., 0., 0., 0., 5.69581653e-06,
          1.03297007e-05, -9.55965970e-06, -1.39798103e-05,
          -7.46608930e-06, -1.01328969e-05, -1.20061395e-05,
          -8.56277438e-06, 3.29843510e-06, 9.82736310e-06,
          1.41087767e-05, 2.11507013e-05, 2.52194513e-05, 2.73127898e-05,
          2.33947849e-05, 1.52515249e-05, 8.93812830e-06, 2.22748668e-06,
          1.76136609e-07, 0., 0., 0., 0., 0., 0., 0., 0., 0.,
          5.42595808e-06, -1.52854818e-06, -1.21901039e-05,
          -1.33169569e-05, -6.52304288e-06, -1.01328969e-05,
          -1.20061395e-05, -5.17100352e-06, 1.36965327e-05,
          9.82736310e-06, 1.47718638e-05, 2.18720106e-05, 2.55220675e-05,
          2.72938760e-05, 2.31808208e-05, 1.41882056e-05, 6.74883449e-06,
          1.19155220e-06, 0., 0., 0., 0., 0., 0., 0., 0.,
          -6.52774816e-07, -3.41257282e-06, -2.44805551e-06,
          -1.52377988e-05, -1.50040341e-05, -1.33424583e-05,
          -9.87590829e-06, -1.16744441e-05, -9.08306174e-06,
          7.19127513e-07, 1.44559162e-05, 9.82736310e-06, 1.46796692e-05,
          2.18328460e-05, 2.55220675e-05, 2.70942983e-05, 2.21490482e-05,
          1.11620411e-05, 4.39508631e-06, 4.64367247e-07, 0., 0., 0., 0.,
          0., 0., 0., 0., -2.87752528e-06, -1.41277724e-05,
          -2.02746796e-05, -1.68609549e-05, -1.50040341e-05,
          -1.33424583e-05, -1.42307790e-05, -1.09507373e-05,
          1.20502330e-06, 1.40269640e-05, 1.44559162e-05, 9.82736310e-06,
          1.46503135e-05, 2.18328460e-05, 2.55220675e-05, 2.70290875e-05,
          2.16951230e-05, 9.78135358e-06, 3.27918815e-06, 7.56541141e-08,
          0., 0., 0., 0., 0., 0., 0., -1.13579847e-06, -8.85003101e-06,
          -2.72834332e-05, -2.15876171e-05, -1.69830892e-05,
          -1.50040341e-05, -1.37746874e-05, -1.48005365e-05,
          -1.22884865e-06, 1.43143143e-05, 1.50040341e-05,
          1.45541499e-05, 1.07704100e-05, 1.46503135e-05, 2.18131991e-05,
          2.55220675e-05, 2.70101737e-05, 2.16299122e-05, 9.54281586e-06,
          3.07190953e-06, 0., 0., 0., 0., 0., 0., 0., -1.75747061e-07,
          -8.87687747e-06, -2.59082517e-05, -2.72834332e-05,
          -2.16169738e-05, -1.69830892e-05, -1.50040341e-05,
          -1.56607803e-05, -1.66496611e-05, 6.90189097e-08,
          1.53066503e-05, 1.50040341e-05, 1.49863799e-05, 1.48372992e-05,
          1.46503135e-05, 2.18131991e-05, 2.55220675e-05, 2.70101737e-05,
          2.16109984e-05, 9.58008604e-06, 3.10002542e-06, 2.93561015e-08,
          2.93561015e-08, 2.93561015e-08, 0., 0., 0., 0.,
          -3.49555557e-06, -1.43843054e-05, -2.73127898e-05,
          -2.73127898e-05, -2.16169738e-05, -1.69830892e-05,
          -1.50040341e-05, -1.56607803e-05, -3.04213154e-06,
          1.20696704e-05, 1.53066503e-05, 1.50040341e-05, 1.49863799e-05,
          1.48372992e-05, 1.46503135e-05, 2.18328460e-05, 2.55220675e-05,
          2.70101737e-05, 2.16109984e-05, 9.58008604e-06, 3.12938164e-06,
          0., 2.93561015e-08, 0., 0., 0., 0., -3.75747618e-06,
          -1.50084961e-05, -2.58232758e-05, -2.69018037e-05,
          -2.58449854e-05, -2.07362900e-05, -1.67188846e-05,
          -1.50040341e-05, -6.02201055e-07, 7.72052317e-06,
          1.36728731e-05, 1.53066503e-05, 1.50040341e-05, 1.49863799e-05,
          1.48372992e-05, 1.46503135e-05, 2.18328460e-05, 2.55220675e-05,
          2.70101737e-05, 2.16109984e-05, 9.58008604e-06, 3.12938164e-06,
          0., 0., 0., 0., 0., -3.77893616e-06, -1.57207614e-05,
          -2.53107246e-05, -2.71366534e-05, -2.63440379e-05,
          -2.37313452e-05, -1.94739787e-05, -1.63666118e-05,
          -6.82185714e-07, 8.80614152e-06, 1.00367561e-05,
          1.36728731e-05, 1.53066503e-05, 1.50040341e-05, 1.49863799e-05,
          1.48372992e-05, 1.46503135e-05, 2.18328460e-05, 2.55220675e-05,
          2.70101737e-05, 2.16299122e-05, 9.58008604e-06, 3.10002542e-06,
          0., 0., 0., 0., -3.60140916e-06, -1.63361656e-05,
          -2.51105175e-05, -2.73127898e-05, -2.70192286e-05,
          -2.57862721e-05, -2.16177068e-05, -1.81363448e-05,
          -1.26960012e-05, 5.41208692e-06, 1.07970727e-05,
          1.00367561e-05, 1.36728731e-05, 1.53066503e-05, 1.50040341e-05,
          1.49863799e-05, 1.48372992e-05, 1.69988016e-05, 2.33593637e-05,
          2.60798333e-05, 2.70101737e-05, 2.16299122e-05, 9.60944271e-06,
          3.10002542e-06, 0., 0., 0., -2.46045875e-06, -1.67077051e-05,
          -2.51105175e-05, -2.73127898e-05, -2.73127898e-05,
          -2.68659496e-05, -2.50387875e-05, -1.95389475e-05,
          -1.41203636e-05, 8.65074583e-07, 1.04453784e-05,
          1.16520087e-05, 1.00367561e-05, 1.36728731e-05, 1.53066503e-05,
          1.50040341e-05, 1.49863799e-05, 1.48372992e-05, 2.16664212e-05,
          2.64417540e-05, 2.71953650e-05, 2.70101737e-05, 2.16299122e-05,
          9.60944271e-06, 3.12938164e-06, 2.93561015e-08, 0., 0.,
          -1.42081344e-05, -2.47475946e-05, -2.73127898e-05,
          -2.73127898e-05, -2.73127898e-05, -2.66200732e-05,
          -2.34647741e-05, -1.43975876e-05, 2.02424943e-07,
          1.09919756e-05, 1.23087557e-05, 1.16513547e-05, 1.00354482e-05,
          1.36728731e-05, 1.53066503e-05, 1.50040341e-05, 1.49863799e-05,
          1.48372992e-05, 2.21361188e-05, 2.67646719e-05, 2.72938760e-05,
          2.69912598e-05, 2.16109984e-05, 9.60944271e-06, 3.64019866e-06,
          2.84856498e-07, -1.90301148e-06, -9.23084372e-06,
          -2.50638623e-05, -2.73127898e-05, -2.73127898e-05,
          -2.73127898e-05, -2.73127898e-05, -2.59157496e-05,
          -1.82574095e-05, 1.40743481e-07, 1.22793999e-05,
          1.22793999e-05, 1.23087557e-05, 1.15951225e-05, 9.96156177e-06,
          1.36728731e-05, 1.53066503e-05, 1.50040341e-05, 1.49863799e-05,
          1.48372992e-05, 2.21361188e-05, 2.67443720e-05, 2.72938760e-05,
          2.69912598e-05, 2.16109984e-05, 9.58008604e-06, 5.79163816e-06,
          1.37767884e-07, -1.42011249e-05, -2.70362489e-05,
          -2.73127898e-05, -2.73127898e-05, -2.73127898e-05,
          -2.73127898e-05, -2.73127898e-05, -2.18850982e-05,
          -6.29073747e-06, 1.12996213e-05, 1.22793999e-05,
          1.22793999e-05, 1.23087557e-05, 1.15748535e-05, 9.93540743e-06,
          1.36728731e-05, 1.53066503e-05, 1.50040341e-05, 1.49942261e-05,
          1.49157631e-05, 2.21361188e-05, 2.67156684e-05, 2.73127898e-05,
          2.70101737e-05, 2.16299122e-05, 9.58008604e-06, 4.27437499e-06,
          -6.61978083e-06, -2.72059224e-05, -2.73127898e-05,
          -2.73127898e-05, -2.72834332e-05, -2.73127898e-05,
          -2.73127898e-05, -2.51105175e-05, -1.37558209e-05,
          4.66007486e-06, 1.12996213e-05, 1.22793999e-05, 1.22793999e-05,
          1.22793999e-05, 1.15748535e-05, 9.93540743e-06, 1.36728731e-05,
          1.53066503e-05, 1.50040341e-05, 1.50040341e-05, 1.50040341e-05,
          1.88482354e-05, 2.45923202e-05, 2.65201743e-05, 2.70101737e-05,
          2.16299122e-05, 9.58008604e-06, -1.88499553e-06,
          -2.32885541e-05, -2.73127898e-05, -2.73127898e-05,
          -2.73127898e-05, -2.72834332e-05, -2.73127898e-05,
          -2.44255170e-05, -1.29353748e-05, -5.23495025e-08,
          4.75167508e-06, 1.12996213e-05, 1.23087557e-05, 1.20739069e-05,
          1.07672677e-05, 8.24205836e-06, 8.09327503e-06, 1.32384457e-05,
          1.52688244e-05, 1.50040341e-05, 1.50040341e-05, 1.50040341e-05,
          1.46503135e-05, 1.87482983e-05, 2.48933702e-05, 2.69912598e-05,
          2.16214412e-05, 6.99290831e-06, -6.72926262e-06,
          -2.44638304e-05, -2.72834332e-05, -2.73127898e-05,
          -2.73127898e-05, -2.73127898e-05, -2.73127898e-05,
          -2.25715030e-05, -1.03691018e-05, 1.17146976e-06,
          4.92781191e-06, 1.13289771e-05, 1.23087557e-05, 1.17803456e-05,
          8.59827560e-06, 3.23421318e-06, 1.01665210e-05, 1.48131758e-05,
          1.51742561e-05, 1.50040341e-05, 1.50040341e-05, 1.50040341e-05,
          1.46796692e-05, 1.73527205e-05, 2.46183154e-05, 2.70101737e-05,
          2.16093013e-05, 1.58709054e-06, -1.84876826e-05,
          -2.34167201e-05, -2.71366534e-05, -2.73127898e-05,
          -2.73127898e-05, -2.73127898e-05, -2.44605017e-05,
          -1.07242704e-05, 3.19346384e-07, 2.93283597e-06,
          6.68917801e-06, 1.15449120e-05, 1.23087557e-05, 1.17803456e-05,
          8.12543658e-06, 1.78903576e-06, 1.07416245e-05, 1.53255642e-05,
          1.50607748e-05, 1.50040341e-05, 1.50040341e-05, 1.50040341e-05,
          1.46796692e-05, 1.73533754e-05, 2.46183154e-05, 2.70669134e-05,
          1.26002515e-05, -6.01210468e-06, -1.62129036e-05,
          -2.21727369e-05, -2.69605171e-05, -2.73127898e-05,
          -2.73127898e-05, -2.51536112e-05, -9.48237539e-06,
          -5.38509823e-07, 2.14869215e-06, 5.49704100e-06,
          8.80990137e-06, 1.18365015e-05, 1.23087557e-05, 1.17803456e-05,
          7.87956105e-06, 1.09848622e-06, 9.85806491e-06, 1.50229480e-05,
          1.50040341e-05, 1.50040341e-05, 1.50040341e-05, 1.50040341e-05,
          1.46503135e-05, 1.73533754e-05, 2.46183154e-05, 1.50164578e-05,
          3.08497715e-06, -3.57628551e-06, -9.79106062e-06,
          -1.97926292e-05, -2.58706896e-05, -2.73127898e-05,
          -2.55259638e-05, -8.47311821e-06, -1.19209255e-06,
          8.32195212e-07, 4.15827208e-06, 8.86605721e-06, 1.13382512e-05,
          1.21659186e-05, 1.23087557e-05, 1.17803456e-05, 7.87956105e-06,
          1.09848622e-06, 9.85806491e-06, 1.50040341e-05, 1.50040341e-05,
          1.50040341e-05, 1.50040341e-05, 1.50333908e-05, 1.46503135e-05,
          1.72677192e-05, 1.21511139e-05, 3.82125427e-06,
          -1.99577855e-07, -5.10665245e-07, -2.09329733e-06,
          -1.48162326e-05, -2.05099532e-05, -2.53459311e-05,
          -7.87132740e-06, -1.16722777e-06, 8.51326945e-07,
          4.22173025e-06, 8.26002179e-06, 1.12174675e-05, 1.21196199e-05,
          1.22898418e-05, 1.23087557e-05, 1.18097023e-05, 7.99517693e-06,
          3.63740332e-06, 1.33470166e-05, 1.88790400e-05, 1.92019561e-05,
          1.82038493e-05, 1.64424837e-05, 1.50229480e-05, 1.46503135e-05,
          6.73410523e-06, 1.27039175e-06, -9.31736242e-21,
          -2.93561015e-08, -1.89135285e-08, -1.35495804e-06,
          -1.10497031e-05, -1.47766905e-05, -7.47465856e-06,
          6.53719894e-07, 2.23654229e-06, 3.61627895e-06, 7.94637799e-06,
          1.13441656e-05, 1.23087557e-05, 1.23087557e-05, 1.23087557e-05,
          1.19858387e-05, 1.14262639e-05, 9.26689881e-06, 1.41247665e-05,
          1.97199242e-05, 2.30016740e-05, 2.39272686e-05, 2.17831039e-05,
          1.81222804e-05, 1.57274935e-05, 1.46503135e-05,
          -3.65023425e-06, -2.07452422e-06, -9.31736242e-21,
          -9.31736242e-21, -9.31736242e-21, -3.03328079e-07,
          -1.20562493e-06, -5.97965982e-06, 1.10123201e-05,
          6.52073732e-06, 6.57095097e-06, 7.45163379e-06, 1.00316120e-05,
          1.19115712e-05, 1.23087557e-05, 1.22793999e-05, 1.23087557e-05,
          1.08703061e-05, 1.16028232e-05, 1.92928728e-05, 1.92740245e-05,
          2.06886762e-05, 2.45017582e-05, 2.57807933e-05, 2.35135085e-05,
          1.97622794e-05, 1.80570696e-05, -1.12024402e-07,
          -8.50078595e-06, -6.06451022e-06, -1.02163403e-06,
          -9.31736242e-21, -9.31736242e-21, -3.78270570e-08,
          2.96250846e-07, -4.51497453e-06, 1.14272516e-05,
          1.14705144e-05, 8.44954138e-06, 3.30265243e-06, 7.52197195e-07,
          1.45477202e-06, 1.51151255e-06, 6.60780097e-06, 9.48901925e-06,
          6.99375050e-06, 8.03455714e-06, 1.07836986e-05, 1.08057811e-05,
          1.08308277e-05, 1.54005284e-05, 1.76493613e-05, 1.50962760e-05,
          9.16039608e-06, 3.18919024e-06, -7.74190175e-06,
          -1.70557742e-05, -1.05750469e-05, -4.14495844e-06,
          -1.14922409e-06, -9.31736242e-21, -9.31736242e-21,
          -2.93561015e-08, -2.05254514e-06, 3.31698266e-06,
          2.21478081e-06, 8.05913942e-07, -2.76231117e-06,
          -9.59672252e-06, -1.28749998e-05, -7.70651513e-06,
          -1.57403895e-06, -1.40927185e-07, -4.51732421e-06,
          -6.46968510e-06, -4.66261599e-06, -4.88047874e-07,
          -5.63701974e-07, 2.36467736e-06, 4.35850234e-06,
          9.69481789e-07, -6.43372050e-06, -6.97821315e-06,
          -9.52824485e-06, -2.27711589e-05, -1.96076380e-05,
          -1.39094100e-05, -5.45015791e-06, -9.31736242e-21,
          -9.31736242e-21, -9.31736242e-21, -9.31736242e-21,
          -9.31736242e-21, -9.31736242e-21, -9.31736242e-21,
          -9.54284474e-07, -4.39949645e-06, -6.56372913e-06,
          -3.49033826e-06, -1.78536720e-06, -4.76838295e-06,
          -8.24496510e-06, -1.00794723e-05, -7.52020424e-06,
          -1.45634158e-06, -7.85897214e-07, -3.04588070e-07,
          -7.93381787e-07, -6.26540304e-06, -1.21980402e-05,
          -9.33944739e-06, -1.52043021e-05, -2.50644007e-05,
          -2.45325009e-05, -2.02578121e-05, -1.10077972e-05,
          -2.03870354e-06, -1.17424406e-06, -4.99053726e-07,
          -8.80683046e-08, -9.31736242e-21, -9.31736242e-21,
          -9.31736242e-21, -2.93561015e-08, -6.53862575e-10,
          -3.60773441e-07, -1.26037003e-06, -2.76600213e-06,
          -6.97239557e-06, -9.78284334e-06, -1.11151421e-05,
          -8.37861535e-06, -2.07815015e-06, -5.36880805e-07,
          -1.17424406e-07, -3.44491787e-06, -1.16512447e-05,
          -1.52765606e-05, -1.26825844e-05, -2.37464501e-05,
          -2.66176030e-05, -2.63103739e-05, -2.40011614e-05,
          -1.72710243e-05, -6.46521312e-06, -5.09447682e-06,
          -2.34197387e-06, -2.34848812e-07, -9.31736242e-21,
          -9.31736242e-21, -1.89135285e-08, -1.89135285e-08,
          -1.89135285e-08, -1.07573317e-06, -3.41042005e-06,
          -6.36392269e-06, -1.00736006e-05, -1.14009063e-05,
          -1.17608479e-05, -9.37672212e-06, -4.19178969e-06,
          -2.06641357e-06, -3.83077850e-06, -8.87216356e-06,
          -1.70048243e-05, -2.02547635e-05, -2.16370554e-05,
          -8.72370401e-06, -2.11843362e-05, -2.45548636e-05,
          -2.40038116e-05, -1.89916445e-05, -1.06916132e-05,
          -1.04906385e-05, -4.96702933e-06, 7.31986006e-07,
          1.20775712e-06, -4.69699046e-07, 1.92427592e-06,
          2.48302490e-06, 2.28455747e-06, 3.74171037e-07,
          -2.79432061e-06, -5.63573803e-06, -8.41302062e-06,
          -1.00029965e-05, -9.99905387e-06, -8.88535124e-06,
          -6.84717907e-06, -4.67487143e-06, -1.03195980e-05,
          -1.27187623e-05, -1.60206801e-05, -2.07077701e-05,
          -2.16591707e-05, 0., 0., -7.52472715e-06, -9.99261192e-06,
          -8.72540568e-06, -5.46183628e-06, -4.19254911e-06,
          2.87346120e-06, 1.29014679e-05, 1.20839595e-05,
          -1.64635924e-06, 1.60535292e-05, 2.08916626e-05,
          1.87390542e-05, 1.47571418e-05, 1.25805846e-05, 1.30023727e-05,
          1.05534809e-05, 4.72771944e-06, 4.72771944e-06, 2.57178999e-06,
          -4.90971797e-06, -9.21041988e-07, 1.56378417e-06,
          2.10905887e-06, -1.76311528e-06, -5.80223332e-06, 0. ]
      - [ 0., 0., 0., 3.60016039e-09, 0., 0., 0., 4.33636217e-07,
          -2.33708238e-06, -5.69698523e-06, -7.16800332e-06,
          -1.25717743e-05, -1.25717743e-05, -1.22752917e-05,
          -9.39946801e-07, 6.69510973e-06, -5.49365404e-06,
          -1.31872539e-05, -1.06467569e-05, 3.24026996e-06, 0., 0., 0.,
          3.57976866e-08, 0., 0., 0., 0., 3.60016039e-09, 0., 0., 0., 0.,
          1.59425781e-06, 8.89318926e-06, -2.53667076e-06,
          -4.40331814e-06, -3.17544414e-06, -7.32456783e-07,
          -1.44496198e-06, -1.44496198e-06, -1.41201940e-06,
          -1.30237225e-07, 5.73382408e-07, -2.10514054e-06,
          -7.52377900e-06, -1.60416985e-05, -1.74939360e-05,
          -8.78890842e-06, -5.83267536e-07, 0., 0., 0., 0., 0., 0.,
          3.60016039e-09, 0., 0., 3.18851562e-06, 2.38741609e-06,
          -3.65988308e-06, -6.99318616e-06, -7.07877007e-06,
          -4.50664629e-06, -2.28188264e-06, 1.69406589e-21,
          1.69406589e-21, 1.69406589e-21, 1.69406589e-21, 1.69406589e-21,
          -2.14786112e-07, -1.07393055e-06, -4.23931488e-06,
          -8.76150170e-06, -1.17584732e-05, -1.41323617e-05,
          -9.83232803e-06, -6.60885325e-06, -2.29028160e-06, 0., 0., 0.,
          3.57976866e-08, 0., 0., 0., 2.00279237e-06, 1.85911256e-06,
          -9.44529711e-06, -1.14589557e-05, -5.42697762e-06,
          -1.73268950e-06, -6.87356362e-07, 1.69406589e-21,
          -3.60016039e-09, 1.69406589e-21, 1.69406589e-21,
          1.69406589e-21, -7.15953732e-08, -3.57976859e-07,
          -1.32451441e-06, -5.01887644e-06, -8.38372762e-06,
          -1.27470294e-05, -1.27935728e-05, -1.36558037e-05,
          -7.90343074e-06, -2.86285194e-06, 0., 3.57976866e-08,
          3.57976866e-08, 0., 3.18851562e-06, 5.41283862e-06,
          -5.82359462e-07, -7.62138643e-06, -9.15581859e-06,
          -7.16660406e-06, -2.88283513e-06, -4.29572225e-07,
          1.69406589e-21, 1.69406589e-21, 1.69406589e-21, 1.07254186e-06,
          4.68576218e-06, 3.38473370e-07, 1.69406589e-21, 1.69406589e-21,
          -3.57976866e-08, -2.93541029e-06, -5.47704576e-06,
          -8.31344369e-06, -1.35849095e-05, -1.72789260e-05,
          -1.67271246e-05, -8.14682699e-06, 0., 3.57976866e-08,
          3.57976866e-08, 3.57976866e-08, 7.24662641e-06, 2.67193150e-06,
          -6.19587809e-06, -9.64258561e-06, -6.04865591e-06,
          -1.73812498e-06, -3.62188786e-07, -3.57976866e-08,
          5.08382936e-06, 8.32720707e-06, 5.27939801e-06, 1.33702861e-06,
          6.51125993e-06, 6.21317395e-06, 6.27348390e-06, 1.75799153e-06,
          -1.44932528e-06, -2.86381493e-07, -1.03813284e-06,
          -4.33573177e-06, -1.00266143e-05, -1.36217586e-05,
          -1.87349378e-05, -1.73779936e-05, -6.45814271e-06, 0.,
          3.57976866e-08, 0., 4.95437098e-06, -6.21546678e-06,
          -9.55629912e-06, -6.78702600e-06, -3.86615011e-06,
          -6.44358352e-07, 4.95151710e-07, 6.41598763e-06,
          1.54689569e-05, 1.57385730e-05, 9.63393177e-06, 6.98427903e-06,
          9.69144094e-06, 6.30599516e-06, 6.87504280e-06, 2.70116038e-06,
          4.50900734e-06, 5.83183510e-06, -3.15447505e-06,
          -4.25693042e-06, -6.91569358e-06, -8.64646609e-06,
          -1.39683207e-05, -2.02370175e-05, -1.59104075e-05,
          -1.57482259e-06, 0., 1.64497442e-06, -1.27049589e-06,
          -7.27065162e-06, -7.90187005e-06, -4.17297952e-06,
          -9.84103622e-07, 5.77964511e-06, 1.00049956e-05,
          1.59999399e-05, 1.56217393e-05, 1.21761486e-05, 9.97504503e-06,
          9.85984025e-06, 9.56030726e-06, 8.27974600e-06, 9.73354236e-06,
          9.84154758e-06, 1.31007400e-05, 1.00987909e-05,
          -7.61021556e-06, -6.67670929e-06, -4.60275987e-06,
          -6.90895331e-06, -9.99618806e-06, -1.54801401e-05,
          -1.34578268e-05, -2.30488649e-06, 0., 1.21494268e-05,
          -3.84923123e-06, -9.47059107e-06, -6.50600941e-06,
          -1.45092781e-06, 3.03079150e-06, 1.61263379e-05,
          1.49482094e-05, 1.59170158e-05, 1.16076098e-05, 1.02411341e-05,
          9.79803917e-06, 9.50642698e-06, 9.43104715e-06, 9.69556459e-06,
          9.78939261e-06, 1.00810057e-05, 1.03073562e-05, 1.03387511e-05,
          -1.11837232e-06, -1.21875573e-05, -2.37084305e-06,
          -5.72762974e-06, -9.77037780e-06, -1.44698142e-05,
          -1.01985079e-05, -2.81383814e-06, -2.35390053e-06,
          -3.29498846e-07, -9.94543598e-07, -7.34013793e-06,
          -5.91146863e-06, 5.84144232e-07, 3.47709579e-06,
          1.08864706e-05, 1.47631026e-05, 1.07466421e-05, 7.84818712e-06,
          5.93610139e-06, 5.61949128e-06, 5.23067411e-06, 5.11906910e-06,
          5.11906910e-06, 5.40966221e-06, 6.58602903e-06, 9.51587026e-06,
          9.36680681e-06, 6.95944482e-06, -2.71012686e-06,
          7.02171860e-07, -5.35772824e-06, -9.69878238e-06,
          -1.42774625e-05, -7.45209309e-06, 2.54070278e-06,
          -7.99563804e-06, 2.15493424e-06, 1.77543677e-06,
          7.04751869e-07, -4.04231685e-07, 6.91436298e-06,
          1.21249923e-05, 8.41002293e-06, 1.09862713e-05, 8.38146843e-06,
          4.79376786e-06, 5.43420299e-07, 3.24014451e-07, 7.20032105e-08,
          0., 0., 5.01575414e-07, 2.54347083e-06, 8.70529220e-06,
          9.99829354e-06, 9.69512075e-06, 1.11623394e-05, 2.71035242e-06,
          -3.40184738e-06, -9.09351729e-06, -1.08558488e-05,
          -9.57314569e-06, 2.59809354e-07, -3.43480974e-06,
          2.35936986e-05, 2.55872201e-05, 2.56856583e-05, 2.82593664e-05,
          3.31435695e-05, 2.67789856e-05, 1.23510226e-05, 8.44978786e-06,
          6.02569753e-06, 3.27844509e-06, 1.72807702e-07, 1.11604976e-07,
          2.52011230e-08, 0., 0., 4.54773357e-07, 2.33106152e-06,
          8.37047810e-06, 9.72393082e-06, 9.13192434e-06, 6.99523753e-06,
          -7.49439914e-06, -6.99729480e-06, -9.02808370e-06,
          -1.00869993e-05, -9.88367719e-06, -7.47721879e-06,
          2.20306151e-06, 2.37238182e-05, 2.79727828e-05, 2.87177336e-05,
          3.22817432e-05, 3.50562441e-05, 2.18643781e-05, 1.09434895e-05,
          6.47306661e-06, 3.66203085e-06, 1.80972040e-06, 0., 0., 0., 0.,
          0., 4.29572225e-07, 2.21945652e-06, 8.19766956e-06,
          9.55322867e-06, 9.12865926e-06, 5.93435152e-06,
          -8.49430580e-06, -6.92630329e-06, -9.02808370e-06,
          -9.98884843e-06, -1.06451826e-05, -1.02790191e-05,
          6.26117253e-06, 2.37238182e-05, 2.79727828e-05, 2.87177336e-05,
          3.22817432e-05, 3.26947556e-05, 1.52960074e-05, 1.03521988e-05,
          4.56356156e-06, 1.17955869e-06, 3.23198776e-07, 0., 0., 0., 0.,
          0., 4.29572225e-07, 2.21945652e-06, 8.19766956e-06,
          9.55322867e-06, 9.89884393e-06, 1.00900534e-05,
          -7.84598524e-06, -9.09451865e-06, -1.00552834e-05,
          -9.98884843e-06, -1.06304969e-05, -9.04319950e-06,
          6.26117253e-06, 2.57686315e-05, 2.98402720e-05, 3.26196823e-05,
          3.56109267e-05, 3.29811373e-05, 1.65570218e-05, 1.04787523e-05,
          4.20436118e-06, 6.87764157e-07, 4.32019256e-08, 0., 0., 0., 0.,
          0., 1.78988429e-07, 9.66537527e-07, 3.57976865e-06,
          6.79680716e-06, 9.07549747e-06, 9.64472110e-06,
          -1.37943553e-05, -1.20349350e-05, -1.07591059e-05,
          -9.98884843e-06, -1.17460841e-05, -1.48211502e-05,
          6.26117253e-06, 2.78952375e-05, 3.13197997e-05, 3.56660858e-05,
          3.82241597e-05, 3.31959236e-05, 1.69823415e-05, 1.05716608e-05,
          4.13595808e-06, 6.44358352e-07, 0., 0., 0., 0., 0., 0., 0., 0.,
          0., 4.64894583e-06, 7.17027660e-06, 1.15726652e-06,
          -1.79685467e-05, -1.23964574e-05, -1.07591059e-05,
          -9.98884843e-06, -9.78711978e-06, -6.23707456e-06,
          1.20186860e-05, 2.78988373e-05, 3.13197997e-05, 3.56660858e-05,
          3.82241597e-05, 3.31959236e-05, 1.49211701e-05, 9.98275391e-06,
          4.13595808e-06, 6.44358352e-07, 0., 0., 0., 0., 0., 0., 0., 0.,
          0., 4.61799891e-06, 2.85633905e-06, -1.39374852e-05,
          -2.23026254e-05, -1.25532970e-05, -1.07591059e-05,
          -9.98884843e-06, -3.66941617e-06, 8.85938789e-06,
          1.43725865e-05, 2.78988373e-05, 3.13197997e-05, 3.56660858e-05,
          3.82241597e-05, 3.31959236e-05, 1.56564602e-05, 1.02578697e-05,
          4.13595808e-06, 6.08560640e-07, 3.60016039e-09, 0., 0., 0., 0.,
          0., 0., 0., 0., 7.34591538e-07, -1.27962658e-05,
          -2.42070182e-05, -2.30287042e-05, -1.25649149e-05,
          -1.07591059e-05, -6.04745264e-06, 6.08508844e-06,
          1.92219049e-05, 1.43725865e-05, 2.81239463e-05, 3.16651494e-05,
          3.58424913e-05, 3.82241597e-05, 3.31601259e-05, 1.82041549e-05,
          1.05838280e-05, 3.88537455e-06, 6.08560640e-07, 0.,
          3.57976866e-08, 0., 0., 0., 0., 0., -8.44280862e-07,
          -5.01180966e-06, -1.03333923e-05, -2.56759013e-05,
          -2.76779247e-05, -2.31890772e-05, -1.24406051e-05,
          -1.07591059e-05, -1.89025445e-06, 1.28589627e-05,
          2.21483770e-05, 1.43725865e-05, 2.84124162e-05, 3.20156651e-05,
          3.59828991e-05, 3.82241597e-05, 3.26947556e-05, 1.58773055e-05,
          5.45076591e-06, 1.50762605e-06, 2.14786112e-07, 0., 0., 0., 0.,
          0., 0., 0., -1.18119406e-05, -2.78688149e-05, -2.97510578e-05,
          -2.97620736e-05, -2.80380627e-05, -2.35062289e-05,
          -1.23848395e-05, -7.21756169e-06, 8.01483384e-06,
          2.40232366e-05, 2.27510573e-05, 1.43725865e-05, 2.81338871e-05,
          3.21405714e-05, 3.60404993e-05, 3.82205581e-05, 3.24727698e-05,
          1.46779821e-05, 2.90877983e-06, 3.34260079e-07,
          -6.18939680e-07, -1.45866552e-05, -1.90040082e-05,
          -1.90040082e-05, -1.90040082e-05, -1.49119205e-05,
          -8.22332913e-06, -1.35718019e-05, -3.08575545e-05,
          -3.82241597e-05, -3.35752120e-05, -2.97930201e-05,
          -2.81777084e-05, -2.36495507e-05, -1.55371217e-05,
          4.70851234e-07, 1.97020672e-05, 2.81286339e-05, 2.64051778e-05,
          1.43725865e-05, 2.44421772e-05, 3.18685998e-05, 3.60404993e-05,
          3.81523605e-05, 3.22461638e-05, 1.41019564e-05, 2.38350731e-06,
          1.18601378e-07, -3.83391671e-06, -2.86557861e-05,
          -3.82241597e-05, -3.82241597e-05, -3.82241597e-05,
          -3.63151375e-05, -2.55975192e-05, -3.44991022e-05,
          -3.82241597e-05, -3.81883619e-05, -3.35394143e-05,
          -2.97930201e-05, -2.81777084e-05, -2.36495507e-05,
          -1.37043999e-05, 6.96141160e-06, 2.31913018e-05,
          2.81777084e-05, 2.69286502e-05, 1.43725865e-05, 2.34085110e-05,
          3.18206294e-05, 3.60404993e-05, 3.81701575e-05, 3.21597581e-05,
          1.38391442e-05, 2.17109778e-06, 1.44006416e-08,
          -6.71588850e-06, -2.99766907e-05, -3.82241597e-05,
          -3.82241597e-05, -3.82241597e-05, -3.82241597e-05,
          -3.82241597e-05, -3.82241597e-05, -3.82241597e-05,
          -3.81883619e-05, -3.35394143e-05, -2.97930201e-05,
          -2.81777084e-05, -2.00543127e-05, 4.27860869e-07,
          1.93818832e-05, 2.82353121e-05, 2.81777084e-05, 2.69344600e-05,
          1.44283513e-05, 2.34085110e-05, 3.18194689e-05, 3.60404993e-05,
          3.81665559e-05, 3.21775551e-05, 1.41416804e-05, 2.36771439e-06,
          0., -6.71588850e-06, -2.95768386e-05, -3.79385529e-05,
          -3.82241597e-05, -3.82241597e-05, -3.81670361e-05,
          -3.76529424e-05, -3.81099162e-05, -3.82241597e-05,
          -3.81883619e-05, -3.35752120e-05, -2.97930201e-05,
          -2.81777084e-05, -2.13108815e-05, 3.54098029e-06,
          2.11719289e-05, 2.82353121e-05, 2.81777084e-05, 2.69270768e-05,
          1.46688390e-05, 2.34085110e-05, 3.18194689e-05, 3.60404993e-05,
          3.81665559e-05, 3.29538670e-05, 1.60631480e-05, 2.52573432e-06,
          3.57976866e-08, -6.37062067e-06, -1.75067271e-05,
          -2.77273593e-05, -3.73885923e-05, -3.82241597e-05,
          -3.71959686e-05, -2.52575392e-05, -3.52538336e-05,
          -3.82241597e-05, -3.82241597e-05, -3.35752120e-05,
          -2.97930201e-05, -2.81777084e-05, -2.37866388e-05,
          -4.64442201e-06, 1.72451437e-05, 2.82353121e-05,
          2.81777084e-05, 2.69270768e-05, 1.46688390e-05, 2.34085110e-05,
          3.18206294e-05, 3.60404993e-05, 3.81665559e-05, 3.39049766e-05,
          1.81555934e-05, 2.56153203e-06, 0., -5.96831023e-06,
          -1.28719903e-05, -1.66805985e-05, -2.15867058e-05,
          -2.27626915e-05, -2.26484481e-05, -2.10490416e-05,
          -2.22554463e-05, -3.10798096e-05, -3.64342741e-05,
          -3.25012843e-05, -2.94708407e-05, -2.81777084e-05,
          -2.37866388e-05, -1.71250103e-05, 9.80540335e-07,
          2.01355997e-05, 2.81777084e-05, 2.69600187e-05, 1.46688390e-05,
          2.34085110e-05, 3.18195234e-05, 3.60404993e-05, 3.81665559e-05,
          3.39049766e-05, 1.81555934e-05, 2.56153203e-06, 0.,
          -3.12213615e-06, -5.07425375e-06, -5.67863344e-06,
          -5.67863344e-06, -5.67503321e-06, -5.91879780e-06,
          -9.07095455e-06, -9.12635278e-06, -1.56297974e-05,
          -2.06471268e-05, -2.35361640e-05, -2.90412700e-05,
          -2.82135061e-05, -2.37866388e-05, -1.98115413e-05,
          -1.03930324e-05, 3.41573696e-06, 1.83802676e-05,
          2.69600187e-05, 1.46688390e-05, 2.34085110e-05, 3.18206294e-05,
          3.60404993e-05, 3.81665559e-05, 3.39085782e-05, 1.81555934e-05,
          2.52573432e-06, 0., 0., 0., 0., 0., 0., -3.90267019e-07,
          -5.19355308e-06, -5.22584332e-06, -5.24919506e-06,
          -2.88018373e-06, -1.16568444e-05, -2.03717809e-05,
          -2.81777084e-05, -2.37866388e-05, -1.98901907e-05,
          -1.41925711e-05, -6.24329823e-06, 5.33877210e-06,
          1.67404160e-05, 1.46688390e-05, 2.62723261e-05, 3.36821104e-05,
          3.67206558e-05, 3.81665559e-05, 3.38515092e-05, 1.80772568e-05,
          2.52573432e-06, 0., 0., 0., 0., 0., 0., 0., 0., 4.47573029e-07,
          2.30586033e-06, 4.72841111e-06, -5.64526147e-07,
          -1.35614437e-05, -1.96618075e-05, -2.31583017e-05,
          -1.97383943e-05, -1.40712564e-05, -9.98884843e-06,
          -5.85601992e-06, 1.49956145e-06, 5.58649253e-06,
          3.19641586e-05, 3.74408664e-05, 3.80809688e-05, 3.81665559e-05,
          3.23107124e-05, 1.46722796e-05, 2.56153203e-06, 3.57976866e-08,
          0., 0., 0., 0., 0., 0., 0., 4.94375115e-07, 2.51466963e-06,
          8.08810000e-06, 7.36928268e-06, 2.28604154e-06,
          -1.26450932e-05, -1.54505506e-05, -1.45671074e-05,
          -1.24584540e-05, -9.98884843e-06, -1.07862088e-05,
          -1.25081742e-05, -4.28689509e-06, 3.25369219e-05,
          3.78346413e-05, 3.82205581e-05, 3.81629579e-05, 3.21739535e-05,
          1.43869465e-05, 2.59173817e-06, 3.02061345e-08, 0., 0.,
          3.60016039e-09, 0., 0., 0., 0., 5.51977678e-07, 2.77748131e-06,
          9.06890909e-06, 1.00106527e-05, 7.40523956e-06,
          -3.36706034e-06, -7.30524425e-06, -8.03282273e-06,
          -9.92618789e-06, -9.98884843e-06, -1.00464504e-05,
          -8.34418552e-06, -8.00860289e-06, 3.25369219e-05,
          3.78298064e-05, 3.82205581e-05, 3.81629579e-05, 3.21739535e-05,
          1.43511488e-05, 2.68489748e-06, 1.59163093e-07, 0., 0., 0., 0.,
          0., 0., 0., 5.51977678e-07, 2.77748131e-06, 9.06890909e-06,
          1.00106527e-05, 9.08001675e-06, 4.94077904e-06,
          -6.42764917e-06, -2.01067655e-06, -7.12722613e-06,
          -9.98884843e-06, -1.00464504e-05, -9.02057945e-06,
          -1.06663765e-05, 3.25369219e-05, 3.77976830e-05,
          3.82241597e-05, 3.81665559e-05, 3.21775551e-05, 1.43511488e-05,
          2.78411926e-06, 2.58384944e-07, 0., 0., 0., 3.57976866e-08, 0.,
          0., 0., 5.55577856e-07, 2.77748131e-06, 9.06890909e-06,
          1.00106527e-05, 1.00106527e-05, 9.05676006e-06,
          -3.93259052e-06, -1.50172514e-06, -7.12722613e-06,
          -9.98884843e-06, -1.00464504e-05, -9.81326048e-06,
          -1.14486065e-05, 2.85862898e-05, 3.51911513e-05,
          3.72576214e-05, 3.81665559e-05, 3.21775551e-05, 1.43511488e-05,
          3.18740535e-06, 6.24711504e-07, 0., 0., 0., 3.57976866e-08, 0.,
          0., 0., 5.51977678e-07, 2.77748131e-06, 9.06890909e-06,
          1.00464504e-05, 9.76006959e-06, 7.76259094e-06, 5.41256497e-07,
          -3.30316539e-07, -7.48180673e-06, -9.99604799e-06,
          -1.00464504e-05, -1.09845241e-05, -1.97009977e-05,
          2.36909818e-05, 2.89757536e-05, 3.27848393e-05, 3.49444708e-05,
          2.89876662e-05, 1.68862516e-05, 6.76899481e-06, 7.65178527e-07,
          3.57976866e-08, 0., 0., 0., 0., 0., 7.15953732e-08,
          7.66763776e-07, 2.99226758e-06, 9.10470681e-06, 1.00464504e-05,
          9.40209247e-06, 5.50692903e-06, -1.64686514e-06,
          3.84807572e-06, -5.72273120e-06, -1.00140496e-05,
          -1.00464504e-05, -1.09358998e-05, -1.84468063e-05,
          1.87415280e-05, 1.99851511e-05, 2.27226592e-05, 2.46736709e-05,
          2.15252294e-05, 1.34856036e-05, 7.87383033e-06, 2.36278788e-06,
          2.14786112e-07, 0., 0., 0., 0., 3.60016039e-09, 9.66537527e-07,
          2.91462493e-06, 5.14012845e-06, 9.38748781e-06, 1.00464504e-05,
          9.40209247e-06, 5.38511540e-06, -3.74786487e-06,
          4.41950169e-06, -5.01566228e-06, -1.00356501e-05,
          -1.00464504e-05, -1.05990230e-05, -1.73234930e-05,
          6.49239701e-06, 9.26987650e-06, 3.71072792e-06, 9.31440468e-07,
          5.45603370e-06, 1.06488078e-05, 1.08967342e-05, 4.39556106e-06,
          4.29572225e-07, 0., 0., 0., 0., 5.40024061e-08, 1.91949016e-06,
          5.18509523e-06, 7.35639287e-06, 9.68466975e-06, 1.00464504e-05,
          9.40209247e-06, 4.82936184e-06, -1.43328125e-05,
          -9.77138370e-06, -9.81436369e-06, -1.00464504e-05,
          -1.00464504e-05, -9.89609271e-06, -1.47267447e-05,
          4.93106313e-07, -1.97489135e-06, -1.55164037e-06,
          -6.09988078e-08, 5.23656809e-07, 3.31781649e-07,
          1.88107879e-06, 4.96014763e-06, 6.64325853e-07, 0.,
          3.57976866e-08, 3.60016039e-09, 0., 1.58407062e-07,
          3.02704552e-06, 7.63897060e-06, 9.68045788e-06, 9.98905216e-06,
          1.00464504e-05, 9.10188737e-06, 5.95966230e-06,
          -1.13107717e-05, -1.01968653e-05, -1.00464504e-05,
          -1.00464504e-05, -1.00464504e-05, -9.59588760e-06,
          -1.32499608e-05, 2.57469060e-06, -3.26749341e-06,
          -2.33264745e-06, -4.29980069e-08, -6.81991281e-08,
          1.66331461e-06, 6.38061010e-06, 8.50025390e-06, 4.76217883e-06,
          2.39844485e-06, 0., 0., 1.03813284e-06, 3.82457938e-06,
          6.91941614e-06, 9.14390057e-06, 1.00104489e-05, 1.00428506e-05,
          1.00464504e-05, 7.81678136e-06, -2.40578288e-06,
          -3.18118100e-06, -5.65346591e-06, -5.32115610e-06,
          -4.92738172e-06, -6.14450300e-06, -5.15309011e-06,
          -7.92497588e-07, -7.58495673e-07, -4.01816033e-06,
          -2.40614509e-06, 1.69406589e-21, -3.57976866e-08,
          5.05351295e-07, 9.76386559e-07, 5.23129256e-06, 8.38163123e-06,
          4.99388943e-06, 1.15075750e-06, 1.15075750e-06, 2.83324857e-06,
          7.10139329e-06, 9.86284249e-06, 1.00464504e-05, 1.00464504e-05,
          1.00464504e-05, 7.55123847e-06, 6.16626130e-06, 1.20557729e-06,
          -4.38390362e-06, -3.40127394e-06, -1.36439041e-06,
          -6.44428724e-07, -2.71410590e-06, -5.95477331e-07,
          1.22416750e-05, -2.50980378e-07, 8.24447125e-06,
          2.45785645e-06, 1.69406589e-21, 1.69406589e-21, 1.69406589e-21,
          3.76195203e-07, 1.59362150e-06, -1.91360823e-06,
          2.01493958e-06, 2.23111033e-06, 4.39258929e-06, 5.46651972e-06,
          8.22334914e-06, 9.97084771e-06, 1.00464504e-05, 1.00106527e-05,
          7.11129724e-06, -4.16794279e-08, 3.29888508e-06,
          7.89233763e-06, -4.70290843e-06, -3.13389728e-06,
          -8.97593111e-07, -2.91612992e-07, 3.41307953e-07,
          3.34672927e-06, 1.55434718e-05, -1.06447635e-06,
          7.60750572e-06, 9.86213581e-06, 5.49387960e-06, 1.69406589e-21,
          1.69406589e-21, -7.20032078e-09, -2.36697861e-06,
          -9.63331149e-06, 5.09716607e-08, 6.29408214e-06,
          1.18758662e-05, 1.01722935e-05, 9.96147901e-06, 1.07598289e-05,
          8.94475761e-06, 1.23114769e-05, 8.33378363e-06,
          -7.50948232e-07, -1.23226891e-06, 6.01079421e-07,
          -2.59350850e-06, -1.98837142e-06, -5.38800577e-07,
          2.41956741e-06, 6.37008543e-06, 6.09795279e-06, 9.65311938e-06,
          4.86021690e-07, 2.29389798e-06, 1.36689323e-05, 1.23762393e-05,
          2.09521704e-06, 1.69406589e-21, 1.69406589e-21,
          -3.57976866e-08, -2.31848503e-06, 1.57608872e-06,
          3.72330692e-06, 7.36498578e-06, 7.12076326e-06,
          -7.86140049e-07, 9.95003916e-07, 4.98289228e-06,
          7.33468278e-06, 3.33979847e-06, -5.93081904e-06,
          -8.24099243e-06, -5.89704996e-06, -4.75221185e-07,
          -4.89621812e-07, -1.12019677e-06, 7.44823319e-06,
          1.30277522e-05, 8.45720206e-06, 1.00953084e-05, 1.76203940e-07,
          1.18954358e-06, 8.47456067e-06, 7.33587467e-06, 6.31935154e-06,
          6.48136165e-06, 1.69406589e-21, 1.69406589e-21, 1.69406589e-21,
          1.69406589e-21, 1.69406589e-21, 1.69406589e-21,
          -1.45703723e-06, -6.48528203e-06, -5.07938239e-06,
          -2.01739726e-06, -2.29383772e-06, -6.38733627e-06,
          -8.68042753e-06, -8.99274892e-06, -5.84208965e-06,
          -2.77212365e-07, -1.10219605e-06, 2.56397038e-06,
          1.27851135e-05, 1.87383575e-05, 1.05673744e-05, 9.90604440e-06,
          3.57976866e-08, 8.98000891e-08, 5.29223598e-07, 1.91399818e-06,
          1.17736954e-05, 1.42333538e-05, 4.52104223e-06,
          -3.22952275e-07, -1.07393056e-07, 1.69406589e-21,
          1.69406589e-21, 1.69406589e-21, -3.57976866e-08,
          -3.67488329e-09, -4.77345679e-07, -1.55487646e-06,
          -3.35196091e-06, -8.44243277e-06, -9.61180285e-06,
          -9.38385347e-06, -6.51905339e-06, -2.33963215e-06,
          2.63732295e-06, 1.46611901e-05, 1.90196661e-05, 1.37937968e-05,
          9.14180873e-06, 8.59654210e-06, 3.57976866e-08, 1.80008026e-08,
          1.90808507e-07, 2.27035002e-06, 4.48351693e-06, 1.17604086e-05,
          1.52876819e-05, -1.18089042e-06, -5.52692541e-07,
          1.69406589e-21, 1.69406589e-21, -3.60016039e-09,
          -3.60016039e-09, -3.60016039e-09, -1.29231682e-06,
          -3.73056741e-06, -5.83346173e-06, -9.22826530e-06,
          -9.87364274e-06, -9.83255268e-06, -3.95879488e-06,
          1.38921268e-06, 9.22747404e-06, 1.55339258e-05, 1.43242542e-05,
          9.53155723e-06, 6.66040887e-06, 5.18889965e-06, 0.,
          3.60016039e-09, 3.60016053e-08, 8.27558665e-07, 2.37218683e-06,
          3.66394784e-06, 2.75234720e-06, -4.30422688e-06,
          1.44623220e-06, 2.59465151e-06, 1.28358295e-06,
          -3.83928693e-07, -3.60016039e-09, -3.65427297e-08,
          -2.90554021e-06, -6.66925416e-06, -8.65542916e-06,
          -7.54927851e-06, -5.94544917e-06, -7.48311049e-06,
          6.48722880e-06, 1.82476597e-05, 1.65662004e-05, 1.30920344e-05,
          1.08879985e-05, 8.46682906e-06, 4.54691781e-06, 2.06227287e-06,
          0., 0., 0., 5.76025663e-08, 2.98813319e-07, 9.50238473e-07,
          8.45254647e-07, -4.57245420e-07, 9.58517285e-06,
          1.33385574e-05, 6.54500354e-06, -5.09566735e-06,
          -3.60016039e-09, -3.00083286e-07, -1.08602935e-05,
          -1.57932900e-05, -1.62609176e-05, -1.78916355e-06,
          8.29034525e-06, 1.07588685e-05, 1.00297602e-05, 3.17566855e-06,
          7.22118875e-06, 1.02317945e-05, 1.07125561e-05, 7.48477487e-06,
          3.16840101e-06, 0. ]
      - [ 0., 0., 0., 1.07175149e-08, 0., 0., 0., 0., 1.85096690e-06,
          6.92255344e-06, 1.22871716e-05, 1.29141972e-05, 1.29141972e-05,
          1.30293020e-05, 1.60604013e-05, 1.45087406e-05, 5.94772337e-06,
          -1.37177030e-05, -1.58537878e-05, -1.68719507e-05,
          -1.73113694e-05, -1.73113694e-05, -1.73113694e-05,
          -8.92675143e-06, 0., 0., 0., 0., 1.07175149e-08, 0., 0., 0.,
          0., 0., 1.61804451e-06, 4.18467016e-06, 7.53858558e-06,
          1.22866895e-05, 1.66951213e-05, 1.68262486e-05, 1.68262486e-05,
          1.68390379e-05, 1.71204065e-05, 1.23778736e-05, 1.34896629e-06,
          -7.27246197e-06, -1.26506238e-05, -1.59774027e-05,
          -1.71827596e-05, -1.72792170e-05, -1.73113694e-05,
          -8.96117945e-06, 0., 0., 0., 0., 1.07175149e-08, 0., 0., 0.,
          0., 2.25824601e-06, 4.18415948e-06, 8.24168728e-06,
          1.16815436e-05, 1.45581516e-05, 1.73113694e-05, 1.73113694e-05,
          1.73113694e-05, 1.73113694e-05, 1.73113694e-05, 1.12664575e-05,
          -1.03284060e-06, -3.79515700e-06, -7.73045122e-06,
          -1.08393042e-05, -1.48345543e-05, -1.71077372e-05,
          -1.73113694e-05, -8.96117945e-06, 0., 0., 0., 3.44280195e-08,
          0., 0., 0., 0., 2.25991857e-06, 4.72988449e-06, 5.95303118e-06,
          1.19160040e-05, 1.56159549e-05, 1.66358022e-05, 1.73113694e-05,
          1.73006520e-05, 1.73113694e-05, 1.73113694e-05, 1.46637485e-05,
          7.46668138e-06, -3.44280181e-07, -1.27383669e-06,
          -4.84135762e-06, -7.77618425e-06, -1.08380327e-05,
          -1.49514954e-05, -1.73006520e-05, -8.96117945e-06, 0., 0.,
          3.44280195e-08, 3.44280195e-08, 0., 0., 0., 2.23545362e-06,
          4.95928907e-06, 7.25717928e-06, 9.17834768e-06, 1.41398050e-05,
          1.68982333e-05, 1.73113694e-05, 1.73113694e-05, 1.73113694e-05,
          1.73113694e-05, 1.58178391e-05, 8.07863944e-06, 3.38813179e-21,
          3.38813179e-21, -3.44280195e-08, -2.82309747e-06,
          -5.26748681e-06, -7.92745868e-06, -1.20748919e-05,
          -1.48472218e-05, -8.40397479e-06, 3.21525455e-08, 0.,
          3.44280195e-08, 3.44280195e-08, 3.44280195e-08, 0.,
          1.75215484e-06, 4.53903658e-06, 6.81805705e-06, 1.06307862e-05,
          1.49505131e-05, 1.67381313e-05, 1.72769414e-05, 1.73113694e-05,
          1.73113694e-05, 1.68507086e-05, 1.49530815e-05, 7.57088128e-06,
          -1.68319303e-07, -4.94853971e-08, 3.38813179e-21,
          3.38813179e-21, -2.75424156e-07, -9.98412474e-07,
          -4.39474888e-06, -9.94875700e-06, -1.12460384e-05,
          -6.08039227e-06, 8.57401190e-08, 0., 0., 3.44280195e-08, 0.,
          1.73729336e-06, 3.62041192e-06, 6.53326788e-06, 9.58693272e-06,
          1.35931432e-05, 1.66916652e-05, 1.73113694e-05, 1.73113694e-05,
          1.66846858e-05, 1.50718379e-05, 1.42616727e-05, 1.23376594e-05,
          3.94419158e-06, -3.62128867e-06, -2.40183363e-06,
          -2.24871678e-06, -5.73414695e-07, -1.07175149e-08,
          -4.47564247e-07, -2.68538543e-06, -6.54132327e-06,
          -7.93218078e-06, -3.68475366e-06, 1.81670168e-06, 0., 0., 0.,
          0., 3.25913402e-06, 5.92206788e-06, 8.49206208e-06,
          1.23911668e-05, 1.52112607e-05, 1.69670893e-05, 1.72728815e-05,
          1.65455549e-05, 1.48332192e-05, 1.27875273e-05, 1.12120206e-05,
          4.08028745e-06, -3.41593181e-06, -6.11114865e-06,
          -5.54517419e-06, -5.22364871e-06, -2.83116810e-06,
          -8.15521275e-07, -2.73986387e-07, -1.51483277e-06,
          -4.06250592e-06, -6.64460731e-06, -2.03114223e-06,
          4.09929680e-06, 1.41962903e-06, 0., 0., 1.53473411e-06,
          5.42129919e-06, 6.87595002e-06, 1.04956462e-05, 1.55169255e-05,
          1.68293773e-05, 1.63895602e-05, 1.51663153e-05, 1.36911403e-05,
          1.19430706e-05, 1.14816339e-05, 1.07726028e-05,
          -1.50065398e-06, -7.66410631e-06, -7.65338882e-06,
          -7.40688574e-06, -6.53876714e-06, -5.84045347e-06,
          -4.15158001e-06, -1.18680771e-06, -3.44280181e-07,
          -1.58368880e-06, -5.50848290e-06, -1.82457416e-06,
          4.48298033e-06, 2.67299538e-06, 0., 0., 3.26130998e-06,
          5.74920432e-06, 7.40688574e-06, 1.15963185e-05, 1.68293773e-05,
          1.65056335e-05, 1.49453208e-05, 1.33868443e-05, 1.11580948e-05,
          9.29638463e-06, 7.28333544e-06, 3.49376910e-06,
          -7.43955479e-06, -1.23881628e-05, -1.23881628e-05,
          -1.18837797e-05, -9.96887229e-06, -6.58523231e-06,
          -5.56622854e-06, -2.68629697e-06, -6.13893633e-07,
          -8.60700482e-07, -5.16420278e-06, -1.75571813e-06,
          4.77780486e-06, 3.85071917e-06, 1.18941898e-06, 0.,
          3.26130998e-06, 5.74920432e-06, 7.40688574e-06, 1.15963185e-05,
          1.68293773e-05, 1.53290039e-05, 1.35332120e-05, 1.19594761e-05,
          9.70854853e-06, 6.04686193e-06, 1.07038352e-06,
          -1.24093049e-05, -1.70970197e-05, -1.73113694e-05,
          -1.73113694e-05, -1.64802204e-05, -1.38049299e-05,
          -7.91618368e-06, -6.37452194e-06, -5.29882436e-06,
          -2.48416086e-06, -1.37754796e-06, -5.16420278e-06,
          -1.59090666e-06, 5.73465786e-06, 4.41047086e-06,
          2.91599486e-06, 0., 4.04757793e-06, 5.83168003e-06,
          7.40688574e-06, 1.15963185e-05, 1.68293773e-05, 1.53290039e-05,
          1.25974466e-05, 9.81864287e-06, 7.40577889e-06, 4.20499691e-06,
          -1.22484516e-05, -1.63681379e-05, -1.72363470e-05,
          -1.73113694e-05, -1.73113694e-05, -1.18674070e-05,
          -3.64311518e-06, -8.91291256e-06, -6.97818541e-06,
          -6.08612118e-06, -4.07818425e-06, -2.09997734e-06,
          -5.16420278e-06, -1.57308921e-06, 5.94401263e-06,
          5.23898234e-06, 2.91599486e-06, 0., 4.66339634e-06,
          5.89766023e-06, 7.40688574e-06, 1.15963185e-05, 1.68293773e-05,
          1.43181414e-05, 1.18427879e-05, 7.79975562e-06, 4.76979403e-06,
          2.42971259e-06, -1.51389622e-05, -1.73113694e-05,
          -1.73113694e-05, -1.73113694e-05, -1.73113694e-05,
          -1.09920011e-05, 7.76782656e-07, 5.52141955e-07,
          -7.26755843e-06, -6.23867663e-06, -5.49636206e-06,
          -3.36613289e-06, -5.16420278e-06, -1.57308921e-06,
          5.97073904e-06, 5.44388286e-06, 2.91599486e-06, 0.,
          4.66339634e-06, 5.89766023e-06, 7.40688574e-06, 1.15963185e-05,
          1.68293773e-05, 1.35528944e-05, 1.11798681e-05, 5.43368833e-06,
          1.03336629e-06, -7.26927601e-06, -1.61572789e-05,
          -1.73113694e-05, -1.73113694e-05, -1.73113694e-05,
          -1.36454328e-05, -5.62887135e-06, 2.13453723e-06,
          5.71160899e-06, -7.26755843e-06, -6.23867663e-06,
          -5.49636206e-06, -3.36613289e-06, -5.16420278e-06,
          -1.57308921e-06, 5.97073904e-06, 5.49369543e-06,
          3.48293315e-06, 0., 5.22019172e-06, 7.61581396e-06,
          1.11595400e-05, 1.47981245e-05, 1.71048014e-05, 1.39983304e-05,
          1.11268464e-05, 3.70249700e-06, -5.15305828e-06,
          -1.69112081e-05, -1.73113694e-05, -1.73113694e-05,
          -1.73113694e-05, -1.73113694e-05, -9.57216889e-06,
          1.72140091e-07, 9.29556506e-07, 1.27039470e-06,
          -9.91851539e-06, -7.03052137e-06, -5.49636206e-06,
          -3.36613289e-06, -5.16420278e-06, -1.57308921e-06,
          5.97073904e-06, 5.22589335e-06, 2.07009521e-06, 0.,
          5.79925882e-06, 8.96597612e-06, 1.40966386e-05, 1.73113694e-05,
          1.73113694e-05, 1.41141436e-05, 1.10937217e-05, 1.05490619e-06,
          -1.66916652e-05, -1.73113694e-05, -1.73113694e-05,
          -1.73113694e-05, -1.73113694e-05, -1.64288285e-05,
          -8.68962888e-06, 0., -4.07326354e-07, -3.59804926e-06,
          -1.19841970e-05, -7.65022560e-06, -5.61217530e-06,
          -3.73869875e-06, -5.21918628e-06, -1.57308921e-06,
          5.97073904e-06, 5.69680833e-06, 4.16412649e-06, 0.,
          5.80997630e-06, 8.96597612e-06, 1.40966386e-05, 1.73113694e-05,
          1.73113694e-05, 1.35528944e-05, 1.09333650e-05, 1.05490619e-06,
          -1.66916652e-05, -1.73113694e-05, -1.73113694e-05,
          -1.73113694e-05, -1.73113694e-05, -8.62174056e-06,
          -8.82540405e-07, 0., -3.66593713e-06, -1.58857274e-05,
          -1.19841970e-05, -7.65022560e-06, -5.79925882e-06,
          -4.84950806e-06, -5.96146765e-06, -1.57308921e-06,
          5.97073904e-06, 5.69680833e-06, 4.16412649e-06, 0.,
          5.80997630e-06, 8.96597612e-06, 1.40966386e-05, 1.73113694e-05,
          1.73113694e-05, 1.44060468e-05, 7.70404040e-06,
          -8.92458957e-06, -1.67260932e-05, -1.73006520e-05,
          -1.73113694e-05, -1.73113694e-05, -1.73113694e-05,
          -7.73920056e-06, 0., 0., -1.15409125e-06, -6.38144593e-06,
          -1.19841970e-05, -7.65022560e-06, -5.79925882e-06,
          -4.88799651e-06, -6.01645115e-06, -1.57308921e-06,
          5.97073904e-06, 5.69680833e-06, 4.16962484e-06, 0.,
          6.12314443e-06, 1.00274410e-05, 1.46217972e-05, 1.73113694e-05,
          1.72769414e-05, 1.50772912e-05, 6.13563407e-06,
          -1.31030729e-05, -1.67260932e-05, -1.73113694e-05,
          -1.72769414e-05, -1.73113694e-05, -1.12014741e-05,
          -3.59804926e-06, 0., 0., 0., -2.17240722e-06, -1.19841970e-05,
          -7.65022560e-06, -5.79925882e-06, -4.44262787e-06,
          -5.42812495e-06, -1.57308921e-06, 5.97073904e-06,
          5.69680833e-06, 4.16962484e-06, 0., 6.74658349e-06,
          1.09824587e-05, 1.50397800e-05, 1.73113694e-05, 1.68293773e-05,
          1.03955117e-05, -2.99757971e-06, -1.54441786e-05,
          -1.71048014e-05, -1.73113694e-05, -1.73113694e-05,
          -1.73113694e-05, -5.83834435e-06, 0., 0., 0., 0.,
          -2.17240722e-06, -1.19841970e-05, -7.65022560e-06,
          -5.79925882e-06, -4.23918800e-06, -5.16420278e-06,
          -1.57308921e-06, 5.97073904e-06, 5.69680833e-06,
          4.16962484e-06, 0., 7.16456680e-06, 1.14134345e-05,
          1.52112607e-05, 1.73006520e-05, 1.66013742e-05, 4.52154654e-06,
          -1.34621305e-05, -1.66361660e-05, -1.73113694e-05,
          -1.73113694e-05, -1.73113694e-05, -1.52068505e-05,
          -4.95580389e-06, 0., 0., 0., -6.10989503e-07, -4.54847759e-06,
          -1.19841970e-05, -7.65022560e-06, -5.79925882e-06,
          -4.23918800e-06, -5.16420278e-06, -1.57308921e-06,
          5.97073904e-06, 5.78589561e-06, 5.10058680e-06, 0.,
          6.30042041e-06, 1.13300084e-05, 1.52112607e-05, 1.71697666e-05,
          1.59989177e-05, 2.80674431e-06, -1.47781093e-05,
          -1.70304393e-05, -1.73113694e-05, -1.73113694e-05,
          -1.73113694e-05, -4.41270186e-06, -2.03663177e-07, 0., 0., 0.,
          -3.86960028e-06, -1.68017268e-05, -1.19497690e-05,
          -7.65022560e-06, -5.79925882e-06, -4.23918800e-06,
          -5.16420278e-06, -1.57308921e-06, 5.97073904e-06,
          5.79925882e-06, 5.24312645e-06, 0., 5.99427631e-06,
          1.13166452e-05, 1.52112607e-05, 1.71506072e-05, 8.74926172e-06,
          -5.91849812e-06, -1.54104437e-05, -1.72684995e-05,
          -1.73113694e-05, -1.73113694e-05, -1.73113694e-05,
          -4.00537556e-06, 0., 0., 0., 0., -4.00537556e-06,
          -1.72769414e-05, -1.19497690e-05, -7.65022560e-06,
          -5.79925882e-06, -4.36015216e-06, -5.32365584e-06,
          -1.57308921e-06, 5.97073904e-06, 5.79925882e-06,
          5.27061820e-06, 2.63922118e-07, 5.99427631e-06, 1.13111473e-05,
          1.52112607e-05, 1.06905554e-05, 1.80555458e-06,
          -8.33027298e-06, -1.55734815e-05, -1.73113694e-05,
          -1.73113694e-05, -1.73113694e-05, -8.28230259e-06,
          -1.62930542e-06, 0., 0., 0., 0., -1.62930542e-06,
          -8.24787458e-06, -1.19841970e-05, -7.65022560e-06,
          -5.79925882e-06, -4.88799651e-06, -6.01645115e-06,
          -1.57308921e-06, 5.97073904e-06, 5.79925882e-06,
          5.37879305e-06, 1.40208624e-06, 5.99427631e-06, 1.13111473e-05,
          1.00517937e-05, 3.69812005e-06, -1.59954914e-06,
          -8.33027298e-06, -1.55734815e-05, -1.72769414e-05,
          -1.66659520e-05, -1.03523935e-05, -1.28986676e-06, 0., 0., 0.,
          0., 0., 0., -2.17240722e-06, -1.19841970e-05, -7.65022560e-06,
          -5.79925882e-06, -4.88799651e-06, -6.01645115e-06,
          -1.57308921e-06, 5.97073904e-06, 5.79925882e-06,
          5.37879305e-06, 1.40208624e-06, 5.99427631e-06, 1.13166452e-05,
          2.51625602e-06, -1.71480238e-07, -1.59954914e-06,
          -8.33027298e-06, -1.55390535e-05, -1.73113694e-05,
          -1.57155246e-05, -3.39438628e-07, 0., 0., 0., 0., 0.,
          1.03284052e-07, 4.81992231e-07, -4.51006258e-07,
          -1.09513558e-05, -7.34037349e-06, -5.79925882e-06,
          -4.88799651e-06, -6.01645115e-06, -1.57308921e-06,
          5.97073904e-06, 5.79925882e-06, 5.39158236e-06, 1.40208624e-06,
          5.99427631e-06, 1.08414315e-05, 2.38048074e-06,
          -1.71480238e-07, -1.59954914e-06, -8.33027298e-06,
          -1.55390535e-05, -1.73113694e-05, -1.57499526e-05,
          -2.71550903e-07, 0., 0., 1.07175149e-08, 0., 0.,
          2.06568103e-07, 1.13612464e-06, 2.02781098e-06,
          -9.47095123e-06, -6.92723734e-06, -5.83368683e-06,
          -4.88799651e-06, -6.01645115e-06, -1.57308921e-06,
          5.97073904e-06, 5.79925882e-06, 5.39158236e-06, 1.40208624e-06,
          5.99427631e-06, -9.71032705e-07, -1.35334415e-06,
          -1.71480238e-07, -1.58883165e-06, -8.33027298e-06,
          -1.55734815e-05, -1.73113694e-05, -1.57499526e-05,
          -2.71550903e-07, 0., 0., 0., 0., 0., 3.44280181e-07,
          1.79025699e-06, 4.50662856e-06, -7.99054669e-06,
          -6.47967272e-06, -5.79925882e-06, -4.88799651e-06,
          -6.01645115e-06, -1.57308921e-06, 5.97073904e-06,
          5.63299591e-06, 4.57305759e-06, 1.40208624e-06, 8.74851776e-06,
          -1.42107069e-06, -1.44597675e-06, -1.71480238e-07,
          -1.58883165e-06, -8.29584496e-06, -1.55734815e-05,
          -1.50710748e-05, -5.43101805e-06, -1.35775451e-07, 0., 0., 0.,
          0., 0., 4.66723804e-07, -2.55863739e-07, -3.80345068e-06,
          -7.04249032e-06, -6.17437172e-06, -5.79925882e-06,
          -4.88799651e-06, -6.01645115e-06, -1.57308921e-06,
          5.97073904e-06, 5.21094398e-06, 2.47558751e-06, 1.40208624e-06,
          6.07604579e-06, 9.04004480e-07, -1.37712078e-07,
          -1.71480238e-07, -1.58883165e-06, -8.29584496e-06,
          -1.55390535e-05, -1.38825553e-05, 0., 0., 0., 0., 0., 0., 0.,
          6.06051458e-07, 9.08853906e-07, -9.27300562e-07,
          -6.48517971e-06, -6.00289150e-06, -5.79925882e-06,
          -4.88799651e-06, -6.01645115e-06, -1.57308921e-06,
          5.97073904e-06, 5.30047009e-06, 2.93600783e-06, 1.40208624e-06,
          -2.53794860e-06, -2.10817262e-07, -1.07175149e-08,
          -1.82197752e-07, -1.59954914e-06, -8.29584496e-06,
          -1.53960955e-05, -1.47244536e-05, -4.88791602e-06,
          -4.88791602e-06, -4.87719853e-06, -4.88791602e-06,
          -4.88791602e-06, -4.88791602e-06, -2.71550903e-06,
          7.77531739e-07, 2.64166056e-06, 4.09620861e-06,
          -5.83368683e-06, -5.83368683e-06, -5.79925882e-06,
          -4.88799651e-06, -6.01645115e-06, -3.88127182e-06,
          2.91579136e-06, 5.79925882e-06, 5.39158236e-06, 1.40208624e-06,
          -2.53794860e-06, -2.16315641e-07, -1.07175149e-08,
          -1.82197752e-07, -1.59954914e-06, -8.33027298e-06,
          -1.48202034e-05, -1.65580914e-05, -1.73113694e-05,
          -1.73113694e-05, -1.73113694e-05, -1.73113694e-05,
          -1.73113694e-05, -1.73113694e-05, -1.03189341e-05,
          -8.51773677e-07, -1.43160287e-06, -6.83371491e-06,
          -5.83368683e-06, -5.83368683e-06, -5.79925882e-06,
          -4.88799651e-06, -6.01645115e-06, -9.92327932e-06,
          -5.43439864e-06, 4.16995317e-06, 3.76227717e-06,
          -1.24903494e-07, -2.53794860e-06, -2.50743653e-07,
          3.38813179e-21, -1.71480238e-07, -1.58883165e-06,
          -8.33027298e-06, -1.48202034e-05, -1.65580914e-05,
          -1.73113694e-05, -1.73113694e-05, -1.73113694e-05,
          -1.72769414e-05, -1.73113694e-05, -1.73113694e-05,
          -1.65646052e-05, -1.48938152e-05, -1.22936390e-05,
          -6.83371491e-06, -5.83368683e-06, -5.83368683e-06,
          -5.83368683e-06, -4.88799651e-06, -6.01645115e-06,
          -9.92327932e-06, -1.07296410e-05, -9.88280590e-06,
          -9.95795563e-06, -1.11209838e-05, -6.39388691e-06,
          -2.75849061e-06, -9.29556506e-07, -1.71480238e-07,
          -1.58883165e-06, -8.33027298e-06, -1.47857754e-05,
          -1.65635902e-05, -1.73113694e-05, -1.73113694e-05,
          -1.73113694e-05, -1.72769414e-05, -1.73113694e-05,
          -1.73113694e-05, -1.73113694e-05, -1.65338370e-05,
          -1.35156179e-05, -6.83371491e-06, -5.79925882e-06,
          -6.07468291e-06, -7.52682627e-06, -8.55586586e-06,
          -7.87879526e-06, -1.03295888e-05, -1.13620654e-05,
          -1.15121111e-05, -1.18630278e-05, -1.50232690e-05,
          -1.13170936e-05, -6.85796977e-06, -2.27605710e-06,
          -1.82197752e-07, -1.57583861e-06, -6.55157100e-06,
          -1.32658342e-05, -1.64603061e-05, -1.72769414e-05,
          -1.73113694e-05, -1.73113694e-05, -1.73113694e-05,
          -1.73113694e-05, -1.73113694e-05, -1.72425134e-05,
          -1.63272689e-05, -1.33090498e-05, -6.79928689e-06,
          -5.79925882e-06, -6.41896304e-06, -9.84128565e-06,
          -1.37067118e-05, -1.07674496e-05, -1.09869525e-05,
          -1.14156528e-05, -1.15121111e-05, -1.18574262e-05,
          -1.47734208e-05, -1.12826656e-05, -7.24835445e-06,
          -2.35303446e-06, -1.71480238e-07, -1.34783545e-06,
          -6.65602329e-06, -1.14706290e-05, -1.51562854e-05,
          -1.71048014e-05, -1.73113694e-05, -1.73113694e-05,
          -1.73113694e-05, -1.73113694e-05, -1.73006520e-05,
          -1.63818131e-05, -1.42615891e-05, -1.12433681e-05,
          -6.53458028e-06, -5.79925882e-06, -6.41896304e-06,
          -1.01092237e-05, -1.45426784e-05, -1.18177659e-05,
          -1.13299129e-05, -1.14799586e-05, -1.15121111e-05,
          -1.09248158e-05, -9.14228713e-06, -8.56715633e-06,
          -4.53284565e-06, 3.62474481e-07, 2.57618126e-06,
          1.75643936e-06, -2.70335522e-06, -5.56988016e-06,
          -1.09215416e-05, -1.41827240e-05, -1.45958602e-05,
          -1.45958602e-05, -1.45958602e-05, -1.45958602e-05,
          -1.44350979e-05, -1.24886292e-05, -9.04325589e-06,
          -6.86953535e-06, -6.22700372e-06, -5.79925882e-06,
          -6.41896304e-06, -1.02485510e-05, -1.49606612e-05,
          -1.23536420e-05, -1.02115264e-05, -8.79660183e-06,
          -8.79660183e-06, -6.89609578e-06, 1.40208624e-06,
          5.45117427e-06, 9.51991296e-06, 1.44152336e-05, 1.66588179e-05,
          1.63587265e-05, 1.48403687e-05, 1.27845215e-05, 4.73322143e-06,
          3.06096638e-07, -5.43101805e-07, -5.08673793e-07,
          -5.32384263e-07, -5.43101805e-07, -7.15311401e-08,
          3.12991051e-06, 7.98617293e-06, 6.44270494e-06,
          -5.89799174e-06, -5.79925882e-06, -6.41896304e-06,
          -9.07077447e-06, -1.37294319e-05, -1.23536420e-05,
          -3.43347165e-06, 5.25615678e-06, 5.25615678e-06,
          4.91636820e-06, 1.43651425e-06, 4.06306935e-06, 9.85838415e-06,
          1.49583348e-05, 1.72555065e-05, 1.71804841e-05, 1.70219973e-05,
          1.47661185e-05, 8.90235060e-06, 5.25903488e-06, 2.30667729e-06,
          0., 0., 9.98412474e-07, 4.17159299e-06, 7.82999632e-06,
          1.04844812e-05, 1.05223953e-05, 6.00248768e-06,
          -5.79925882e-06, -6.38453503e-06, -8.20628884e-06,
          -1.17414038e-05, -9.26780740e-06, 1.38257758e-06,
          1.07224650e-05, 9.55191263e-06, 7.07855543e-06, 1.41280384e-06,
          2.73296632e-06, 9.70491055e-06, 1.49583348e-05, 1.73113694e-05,
          1.72769414e-05, 1.73006520e-05, 1.60962973e-05, 1.35031341e-05,
          9.57673365e-06, 5.43867145e-06, 1.69439113e-06, 1.69439113e-06,
          3.31250794e-06, 7.79461243e-06, 1.09655175e-05, 1.15121111e-05,
          1.15121111e-05, 9.33970387e-06, -6.17796695e-06,
          -5.61372553e-06, -6.71938278e-06, -1.00641864e-05,
          -5.99291025e-06, 5.58698275e-06, 1.53929341e-05,
          1.31993029e-05, 8.97846621e-06, 2.23907614e-06, 2.73296632e-06,
          9.70491055e-06, 1.49583348e-05, 1.73113694e-05, 1.73113694e-05,
          1.73113694e-05, 1.71613246e-05, 1.52211933e-05, 1.22431402e-05,
          9.17756643e-06, 5.57397152e-06, 5.57397152e-06, 6.60681235e-06,
          9.40326390e-06, 1.12870430e-05, 1.15121111e-05, 9.84837789e-06,
          3.22980850e-06, -6.14738929e-06, -5.38659697e-06,
          -5.66400649e-06, -6.92034428e-06, -4.85678584e-06,
          6.54377709e-06, 1.64432513e-05, 1.41563751e-05, 8.63992682e-06,
          4.98260033e-06, 2.73296632e-06, 7.80222035e-06, 1.30100070e-05,
          1.69274572e-05, 1.73113694e-05, 1.73113694e-05, 1.72899345e-05,
          1.63066579e-05, 1.48705685e-05, 1.36080480e-05, 1.21757075e-05,
          1.22101355e-05, 1.21435451e-05, 1.20204922e-05, 1.28100610e-05,
          1.28422134e-05, 8.80240987e-06, -4.17962247e-06,
          -5.20014100e-06, -5.77020955e-06, -5.49981314e-06,
          -4.39204177e-06, -3.75508921e-06, 7.17904550e-06,
          1.67216240e-05, 1.37692987e-05, 8.72387682e-06, 7.70241331e-06,
          1.44686453e-06, 4.34498452e-06, 1.11811305e-05, 1.57523664e-05,
          1.69635332e-05, 1.73113694e-05, 1.73113694e-05, 1.72769414e-05,
          1.72769414e-05, 1.73113694e-05, 1.72769414e-05, 1.73113694e-05,
          1.69946215e-05, 1.63529839e-05, 1.54567479e-05, 1.53893307e-05,
          1.20724362e-05, -1.22475910e-06, -5.41240934e-06,
          -8.10409438e-06, -6.35546257e-06, -1.41471196e-06,
          -1.45758202e-06, 7.47536933e-06, 1.54504669e-05,
          1.25897677e-05, 1.05908566e-05, 1.04706887e-05, 4.52411086e-07,
          1.52129530e-06, 5.81042377e-06, 1.04578558e-05, 1.61374319e-05,
          1.73113694e-05, 1.73113694e-05, 1.73113694e-05, 1.73113694e-05,
          1.73113694e-05, 1.73113694e-05, 1.73113694e-05, 1.72769414e-05,
          1.72893760e-05, 1.67175440e-05, 1.64201265e-05, 1.17156214e-05,
          -5.43962688e-06, -8.37049174e-06, -9.68617405e-06,
          -6.85918576e-06, -8.25248605e-07, -8.21233243e-07,
          6.38195525e-06, 1.31797442e-05, 1.18464814e-05, 1.11155632e-05,
          1.10941282e-05, 3.44280195e-08, 1.95190736e-07, 1.57547470e-06,
          5.26148006e-06, 1.25554134e-05, 1.53307737e-05, 1.59342489e-05,
          1.67260932e-05, 1.72080854e-05, 1.73113694e-05, 1.73113694e-05,
          1.73113694e-05, 1.72769414e-05, 1.73113694e-05, 1.68982333e-05,
          1.58546754e-05, 1.01064634e-05, -8.10974416e-06,
          -1.00759635e-05, -1.05669897e-05, -7.64809465e-06,
          -2.15068007e-06, -2.40067629e-06, 4.42109877e-06,
          1.25278730e-05, 1.11463960e-05, 1.05633944e-05, 1.00814023e-05,
          3.44280195e-08, 5.35875735e-08, 5.68028270e-07, 2.68986832e-06,
          5.95010852e-06, 1.03504863e-05, 1.19345714e-05, 1.49703537e-05,
          1.70359453e-05, 1.73113694e-05, 1.73113694e-05, 1.73006520e-05,
          1.73006520e-05, 1.73006520e-05, 1.60612435e-05, 1.35639266e-05,
          8.87832903e-06, -2.88601927e-06, -1.09976700e-05,
          -1.13484430e-05, -9.33022511e-06, -6.15876479e-06,
          -5.58824968e-06, 3.16886712e-06, 1.22323981e-05,
          9.78490698e-06, 7.13108284e-06, 5.63606909e-06, 0.,
          1.07175149e-08, 1.07175147e-07, 1.02080332e-06, 2.83213126e-06,
          4.65021776e-06, 4.66093525e-06, 1.11813797e-05, 1.60803338e-05,
          1.66781392e-05, 1.67720536e-05, 1.70448639e-05, 1.73006520e-05,
          1.72878626e-05, 1.49515308e-05, 1.11185518e-05, 8.12793314e-06,
          4.43755289e-06, -7.03282058e-06, -1.32105642e-05,
          -1.35609253e-05, -1.07019141e-05, -7.94027801e-06,
          2.00008299e-06, 1.15121111e-05, 8.84367728e-06, 4.59059947e-06,
          2.09944915e-06, 0., 0., 0., 1.71480238e-07, 8.89553746e-07,
          2.75667685e-06, 2.73296632e-06, 7.75945682e-06, 1.08924069e-05,
          1.22604433e-05, 1.29654418e-05, 1.46148677e-05, 1.73006520e-05,
          1.71855463e-05, 1.15142075e-05, 6.68605890e-06, 3.60970012e-06,
          2.67727637e-06, 1.88958575e-06, -1.43371481e-05,
          -1.59552055e-05, -1.43201596e-05, -9.42491806e-06,
          1.82794292e-06, 1.14776831e-05, 8.28666271e-06, 3.15600028e-06,
          0. ]
      - [ -1.28325737e-05, -1.61033931e-05, -1.76537251e-05,
          -1.76515205e-05, -1.76537251e-05, -1.74021061e-05,
          -6.88442833e-06, -5.12720590e-06, -1.04544943e-05,
          -2.20315223e-06, 3.63591698e-06, 5.74062688e-06,
          5.74062688e-06, 5.25805262e-06, 2.06093389e-07,
          -3.47567425e-06, -7.48650291e-06, -1.56690021e-05,
          -1.70489893e-05, -1.90930677e-05, -2.46044074e-05,
          -2.46044074e-05, -2.46044074e-05, -2.45574229e-05,
          -2.41973466e-05, -1.76537251e-05, -1.26310506e-05, 0.,
          -2.84365524e-05, -2.89492327e-05, -2.91950164e-05,
          -2.91950164e-05, -2.91950164e-05, -2.91446922e-05,
          -2.35433126e-05, -1.49738562e-05, -1.24362050e-05,
          -2.50620997e-06, 8.43646319e-07, 1.24349617e-06,
          1.24349617e-06, 1.15985381e-06, 7.02956058e-08,
          -9.63249931e-07, -3.02893113e-06, -9.25037875e-06,
          -1.22690517e-05, -1.70565709e-05, -2.48416000e-05,
          -3.34004799e-05, -3.38136633e-05, -3.38136633e-05,
          -3.27895286e-05, -2.55465675e-05, -1.39355971e-05,
          -4.06489244e-06, -3.74347765e-05, -3.74369811e-05,
          -3.74369811e-05, -3.74369811e-05, -3.46376983e-05,
          -2.88073188e-05, -2.41368252e-05, -1.39591575e-05,
          -7.13566578e-06, -2.80084419e-06, 5.08219768e-21,
          5.08219768e-21, 5.08219768e-21, 5.08219768e-21, 5.08219768e-21,
          -2.81903965e-07, -1.40951977e-06, -5.05439311e-06,
          -8.96589972e-06, -1.40436177e-05, -2.05606484e-05,
          -2.53179078e-05, -3.22180967e-05, -3.74369811e-05,
          -3.47949644e-05, -2.80307722e-05, -1.41813816e-05,
