%YAML:1.0
---
opencv_ml_svm:
   format: 3
   svmType: C_SVC
   kernel:
      type: LINEAR
   C: 2.6699999999999999e+00
   term_criteria: { epsilon:1.1920928955078125e-07, iterations:1000 }
   var_count: 3780
   class_count: 2
   class_labels: !!opencv-matrix
      rows: 2
      cols: 1
      dt: i
      data: [ -1, 1 ]
   sv_total: 1
   support_vectors:
      - [ 0., 0., 0., 0., 0., 0., 0., 0., 0., 0., 0., 0., 0., 0., 0., 0.,
          0., 0., 0., 0., 0., 0., 0., 0., 0., 0., 0., 0., 0., 0., 0., 0.,
          0., 0., 0., 0., 2.37919958e-04, 6.75396368e-05, 1.35267095e-04,
          9.56038348e-05, -1.82905036e-03, -2.07155772e-05,
          1.34684233e-04, 1.70142477e-04, 6.01673273e-05, 3.73715675e-03,
          1.47238025e-03, 4.65903105e-03, 8.24845210e-03,
          -6.50108699e-03, 1.37120401e-02, 1.64465327e-02,
          5.90155413e-03, 1.71813578e-03, 8.61242188e-06, 1.35367067e-04,
          2.77508894e-04, 1.37521056e-04, -2.91672954e-03,
          1.59681033e-04, 5.06275916e-04, 5.39047687e-05, 0.,
          3.54353082e-03, 3.67491134e-03, 7.25956121e-03, 6.92685694e-03,
          -6.50108699e-03, 1.40480287e-02, 1.88070275e-02,
          8.05568788e-03, 4.16256208e-03, 7.68054102e-04,
          -3.37825273e-04, 3.27454438e-03, 4.56737820e-03,
          -9.95731074e-03, 8.26460216e-03, 1.19536258e-02,
          4.10314091e-03, 8.14491301e-04, -1.53351631e-02,
          -1.37143151e-03, 1.68862182e-03, 1.23412833e-02,
          3.77162471e-02, 2.01904643e-02, 1.83342285e-02, 1.07710268e-02,
          -2.85507936e-04, 1.31288683e-03, 7.57301284e-04,
          6.11331454e-03, 2.30499194e-03, -1.01900427e-02,
          8.16707220e-03, 1.13137402e-02, 5.31335967e-03, 2.40058987e-03,
          1.21692172e-03, 3.20007582e-03, -1.42642274e-03,
          7.41608255e-03, 3.54629494e-02, 1.63564198e-02, 9.52950027e-03,
          1.11681903e-02, 9.59321018e-03, -2.32682517e-03,
          8.01348221e-03, 4.66993032e-03, 6.63629500e-04,
          -2.25567538e-02, 9.68758948e-03, 1.34414826e-02,
          3.06143495e-03, -2.71970965e-03, -1.57752391e-02,
          1.96441892e-03, 5.53929713e-03, -2.12780642e-03,
          1.30551541e-03, 4.29749675e-03, 8.34207237e-03, 4.32137819e-03,
          -9.46722180e-03, 2.92753452e-03, 2.79647624e-03,
          2.55742087e-03, -2.74592801e-03, -1.81090795e-02,
          6.61620451e-03, 5.43543138e-03, 4.50529391e-03,
          -6.17966847e-03, 4.71258815e-03, -1.87038991e-03,
          1.61401257e-02, -4.09731548e-03, 4.67023347e-03,
          -4.02404228e-04, 5.97506389e-03, 3.38402926e-03,
          -7.06588291e-03, -1.29489154e-02, 1.85107533e-03,
          1.05280755e-02, 1.29802786e-02, 6.60826825e-03, 1.53965000e-02,
          8.31006747e-03, 6.40704669e-03, 9.46988631e-03,
          -8.26290809e-03, -1.72118042e-02, -1.98648069e-02,
          4.48021060e-03, 2.52723675e-02, 2.80411467e-02, 1.49064716e-02,
          -6.45074761e-04, 1.38896238e-03, 8.27042758e-03,
          -8.68210942e-03, 2.72357953e-03, 7.88441300e-03,
          7.09496858e-03, -1.17383221e-04, 6.56425161e-03,
          -2.37645232e-03, 2.46404763e-03, 7.37274904e-03,
          -3.24589759e-02, -1.91637930e-02, -6.00566017e-03,
          8.59955885e-03, 8.92819744e-03, 1.42633161e-02,
          -2.05410435e-03, 9.80603416e-03, -2.61135050e-03,
          -2.68560648e-02, -2.87034437e-02, 3.53297777e-03,
          1.47579489e-02, 2.82979105e-02, 1.60449129e-02, 2.91445991e-03,
          1.12442104e-02, -3.16107227e-03, -3.98299433e-02,
          -2.85179298e-02, -7.35171745e-03, 1.61410701e-02,
          1.81907695e-02, 1.89379267e-02, 5.08815097e-03, 1.43208895e-02,
          1.18960403e-02, -2.29050368e-02, -1.81207843e-02,
          -2.18514423e-03, 1.98398028e-02, 2.41660252e-02,
          2.13276017e-02, 6.05675112e-03, 2.06669252e-02, 1.03149572e-02,
          -2.05048975e-02, -2.61287168e-02, -4.92348103e-03,
          1.46198068e-02, 1.84330195e-02, 2.56282259e-02, 4.40188823e-03,
          5.93980495e-03, -1.31105892e-02, -2.75284909e-02,
          -1.95806436e-02, -1.27070816e-02, 2.27831155e-02,
          1.37519157e-02, 1.44738918e-02, 6.19441690e-03, 3.08765005e-03,
          -1.37234805e-02, -2.90934090e-02, -2.37742290e-02,
          2.77778041e-03, 3.05124093e-02, 2.24810597e-02, 2.52304431e-02,
          -9.02976084e-04, -1.37560796e-02, 5.43256477e-03,
          -1.87765202e-03, -1.34832291e-02, 1.15814162e-02,
          1.18151177e-02, 9.71615314e-03, 1.55798849e-02, 1.36987241e-02,
          -5.91229589e-04, -9.98411793e-03, -1.30398963e-02,
          -9.92344972e-03, 1.65614728e-02, 9.51579306e-03,
          2.23030914e-02, 3.04761678e-02, 1.85766406e-02,
          -2.75203376e-04, -2.08829474e-02, -2.50805598e-02,
          -3.82943684e-03, 1.23451725e-02, 2.44702529e-02,
          2.54623462e-02, 2.06574667e-02, -1.33762127e-02,
          -2.09270138e-02, -3.60248284e-03, -2.26296708e-02,
          -4.36697854e-03, 6.05261652e-03, 1.42806517e-02,
          1.19563192e-02, -1.19888140e-02, -1.97106432e-02,
          -2.19890606e-02, -2.06965450e-02, -1.67067926e-02,
          -3.80629045e-03, 1.13640008e-02, 6.51966967e-03,
          2.74469797e-02, 2.89427359e-02, 9.03300289e-03,
          -1.24990903e-02, -9.49647091e-03, -8.32367875e-03,
          -4.14343318e-03, 9.01357736e-03, 3.99652708e-05,
          2.14077868e-02, 7.19908997e-03, 5.76602621e-03,
          -4.20754915e-03, -6.47834828e-03, -1.29114576e-02,
          -1.70506127e-02, -1.09449960e-02, 4.66152653e-03,
          -5.54058352e-04, -1.74281448e-02, -8.82512331e-03,
          -1.95481498e-02, -1.52733817e-03, 9.38965997e-04,
          -1.78853865e-03, 9.65480693e-03, 2.42826878e-03,
          6.72218809e-03, -1.95459425e-02, -7.47930864e-03,
          -1.46185579e-02, 7.62007339e-03, 9.15236957e-03,
          -7.54167791e-03, -3.12958099e-03, 1.18999034e-02,
          1.47335446e-02, -4.89556463e-03, -1.03495666e-03,
          -3.00617306e-03, 1.05548911e-02, 1.95286553e-02,
          1.09022036e-02, 1.28145786e-02, 1.79364551e-02, 2.12153164e-03,
          -2.65823323e-02, -1.93717182e-02, 6.11074036e-03,
          -6.37338823e-03, 3.79482377e-03, 9.13359318e-03,
          1.78273600e-02, 9.74229909e-03, -1.39013515e-04,
          -3.46870422e-02, -1.50207458e-02, 7.51308445e-03,
          4.61100927e-03, -5.48294745e-03, 1.79598331e-02,
          1.99336298e-02, 2.49099899e-02, 5.25062531e-03,
          -1.89633314e-02, -3.97388684e-03, 1.75220314e-02,
          5.36495680e-03, 1.64041370e-02, 1.04292203e-02, 1.56748872e-02,
          7.74137443e-03, -1.72704384e-02, -3.40020619e-02,
          -3.55981402e-02, 2.29193270e-03, 2.04179268e-02,
          2.78986804e-03, 1.23769660e-02, -5.31782222e-04,
          1.60243381e-02, -1.26763787e-02, -3.80816199e-02,
          -2.98924260e-02, 1.32415518e-02, 1.00684296e-02,
          9.47371940e-04, 2.27128305e-02, 2.02967506e-02, 2.75385194e-02,
          -1.31179090e-03, -2.53252983e-02, -1.79715510e-02,
          -5.57278981e-03, -5.02741663e-03, 3.92149575e-03,
          2.42054220e-02, 7.43197836e-03, 2.36445051e-02, 3.45555274e-03,
          -5.01159625e-03, -1.13115767e-02, -1.90830156e-02,
          2.21828278e-02, 7.74004357e-03, 9.88029502e-03, 6.42177090e-03,
          1.64829288e-02, -2.16183402e-02, -4.94174622e-02,
          -3.14361788e-02, 1.83980912e-03, 1.60821769e-02,
          1.68471336e-02, 1.56711452e-02, 1.77385169e-03, 1.82774737e-02,
          -1.60881132e-02, -3.83289270e-02, -2.63525154e-02,
          -6.81673482e-05, -6.62340131e-03, 7.29143666e-03,
          1.24585927e-02, -2.00946294e-02, 2.29664650e-02,
          -1.41015034e-02, 4.40338533e-03, -1.01803606e-02,
          -2.06258260e-02, 6.12214301e-03, 7.25336606e-03,
          5.95051143e-03, -6.78971782e-03, -2.22120211e-02,
          -7.85041042e-03, 5.24765579e-04, -2.91521125e-03,
          6.48949342e-03, 6.81724725e-03, 1.26857841e-02, 1.53564056e-02,
          -2.21338756e-02, 9.45971720e-03, -2.05294415e-02,
          -2.65599545e-02, -2.23265551e-02, -7.03524286e-03,
          3.34722130e-03, 1.12610646e-02, 2.49670492e-03,
          -1.72178133e-03, -1.51694668e-02, -1.22581972e-02,
          -8.96796155e-06, -5.16438205e-03, 6.57594996e-04,
          1.42758049e-03, 9.56530217e-03, 3.83645715e-03, 1.04927551e-03,
          1.90744568e-02, 3.38756354e-06, 9.02636629e-03, 8.73423368e-03,
          6.71167858e-03, 2.05987552e-03, 8.04628304e-04, 5.50984638e-03,
          5.93267614e-03, -7.98161794e-03, 2.25601136e-03,
          2.69146170e-03, 2.58292188e-03, 2.82698986e-03, 1.11511159e-04,
          2.19888892e-02, 4.12710477e-03, 1.52331265e-02, 2.33338010e-02,
          1.49320741e-03, 1.54861119e-02, 9.52450931e-03, 1.56950939e-03,
          2.43993389e-04, 4.08802787e-03, 8.30229465e-03, 1.04428455e-02,
          -7.92150479e-03, 7.13739218e-03, 5.33617567e-03,
          2.88312440e-03, 2.24946765e-03, 3.31694819e-03, 8.74168589e-04,
          5.97553793e-03, 8.54123011e-03, 8.52856901e-04, 7.97994900e-03,
          1.50515081e-03, 3.75302113e-03, 2.42362567e-03, 0., 0., 0.,
          -3.36947414e-05, -3.21192550e-03, -4.52510649e-05, 0., 0., 0.,
          2.07573874e-03, 3.74768791e-03, 1.06780147e-02, 1.92003772e-02,
          6.67840708e-04, 5.16946521e-03, 3.22483853e-03, 4.26978013e-03,
          3.00911907e-03, 0., 0., 0., -4.82540017e-05, -4.93979501e-03,
          -2.61904588e-05, 0., 0., 0., 0., 0., 0., 0., 0., 0., 0., 0.,
          0., 0., 0., 0., 0., 0., 0., 0., 0., 0., 0., 0., 0., 0., 0., 0.,
          0., 0., 0., 0., 0., 0., 0., 0., 0., 0., 0., 0., 0., 0., 0., 0.,
          0., 0., 0., 0., 0., 0., 0., 0., 0., 0., 0., 0., 0., 0., 0., 0.,
          0., 0., 0., 0., 0., 0., 0., 0., 0., 0., 0., 0., 0., 0., 0., 0.,
          0., 3.04580084e-04, 5.01116505e-04, 2.56835483e-04,
          -8.74844496e-04, 4.06377891e-04, 5.83607296e-04, 0., 0.,
          6.05506031e-03, 6.02146052e-03, 8.70995037e-03, 4.68310202e-03,
          -7.39136478e-03, 1.38348201e-02, 1.60105657e-02,
          9.27545317e-03, 6.07259246e-03, 0., 9.58020610e-05,
          2.02732248e-04, 5.48231299e-04, -1.03442895e-03,
          6.56834221e-04, 5.57703373e-04, 0., 0., 5.20292576e-03,
          2.33931630e-03, 4.55863122e-03, 8.17440450e-03,
          -7.39136478e-03, 1.45815378e-02, 1.54750561e-02,
          5.26209921e-03, 6.45391690e-03, 5.89958113e-03, 3.70383868e-03,
          5.29158069e-03, 2.51889555e-03, -9.55606438e-03,
          1.00656254e-02, 1.05770249e-02, 7.75366928e-03, 4.97389818e-03,
          5.04214643e-03, 5.57366665e-03, 6.15316210e-03, 1.18464762e-02,
          2.04690639e-02, 1.12809064e-02, 1.60117284e-03, 9.15401150e-03,
          6.84856204e-03, 4.26628208e-03, 1.37418637e-03, 8.85322166e-04,
          2.59409775e-03, -1.11094350e-02, 8.24309140e-03,
          1.00662215e-02, 3.45910108e-03, 4.42911591e-03, 5.48343780e-03,
          2.82383035e-03, 1.64213460e-02, 1.47289289e-02, 4.69364673e-02,
          1.14722252e-02, 4.54544276e-03, -3.07987258e-03,
          8.07636511e-03, -1.97990146e-03, 1.08931202e-03,
          4.13868297e-03, 1.77473540e-03, -1.34366341e-02,
          4.82638180e-03, 1.27699110e-03, 6.17370522e-03,
          -7.59023800e-03, -1.02847880e-02, -1.29621802e-02,
          2.87948200e-03, -3.99721181e-03, 1.43053709e-02,
          -1.53257092e-03, 7.99510442e-03, -1.76763406e-03,
          -3.27758044e-02, 7.06939911e-03, 3.76435928e-03,
          7.44418893e-03, 1.07001355e-02, 2.53410777e-03, 6.05782215e-03,
          5.75817423e-03, -2.41148053e-03, 2.35683704e-03,
          3.01084219e-04, -2.42797751e-02, -2.34419387e-02,
          -2.22923029e-02, 1.65982600e-02, -1.21176234e-02,
          6.98193442e-03, -1.77372643e-03, 7.90830702e-03,
          2.62469100e-03, -1.46980565e-02, -2.53873109e-03,
          6.44216733e-03, 1.97037607e-02, 1.47250458e-03, 8.85365065e-03,
          -1.28888467e-04, 3.69579182e-03, 1.70485675e-02,
          -1.90574042e-02, -1.02898749e-02, 4.77971742e-03,
          2.32551005e-02, 3.19085130e-03, 7.18930410e-03, 1.48134842e-03,
          1.13886073e-02, 1.84532180e-02, -2.44948268e-02,
          -2.25160364e-02, -2.33824104e-02, 9.13152657e-03,
          5.38574182e-04, 4.73494036e-03, 1.05451923e-02, 2.80103963e-02,
          2.47848704e-02, -3.50549445e-02, -4.65321466e-02,
          -2.93761324e-02, -8.68870411e-03, 6.92163128e-03,
          6.78364467e-03, 2.22897027e-02, 2.97848973e-02, 1.56995095e-02,
          -1.31433383e-02, -1.47225913e-02, -2.53408519e-03,
          1.93832349e-02, 6.59784209e-03, 8.47679470e-03, 7.21087540e-03,
          1.58606358e-02, 1.27800582e-02, -9.25446581e-03,
          -2.34618597e-02, 5.54942340e-03, 8.63783713e-03,
          7.73838162e-03, 1.69285815e-02, 9.41366795e-03, 1.30839145e-03,
          1.46499565e-02, -2.59762201e-02, -4.03949469e-02,
          -8.80063418e-03, 6.02432992e-03, 1.02941655e-02,
          1.38267810e-02, 1.68325379e-02, 1.81981381e-02,
          -8.00357293e-03, -2.54971161e-02, -1.62870307e-02,
          -9.48036276e-03, -5.93385007e-03, 8.66479985e-03,
          1.99431665e-02, 1.84770823e-02, -5.28492033e-03,
          1.94801949e-02, 3.57512431e-03, -4.43803612e-03,
          9.92075354e-03, -1.06589887e-02, -8.42359499e-04,
          1.50593352e-02, 1.47606805e-02, -7.07375631e-03,
          -1.23264920e-02, 1.47478888e-03, -1.32862746e-03,
          9.33757890e-03, -1.21436194e-02, 5.44024259e-03,
          1.76045764e-02, 8.81664734e-03, -1.89500116e-02,
          -1.87928102e-03, -2.81199045e-03, 4.82924609e-03,
          1.51096061e-02, -7.34472508e-03, 8.81760474e-03,
          1.18181352e-02, 9.01494455e-03, -2.12926287e-02,
          -3.86136174e-02, -2.94375559e-03, 2.36208574e-03,
          2.59749144e-02, -1.36714671e-02, 7.06525426e-03,
          -5.22337807e-03, -1.04482332e-02, -3.77927609e-02,
          -1.84045900e-02, -3.91827547e-04, 5.62283257e-03,
          3.13425856e-03, 1.30975293e-03, 1.21432673e-02, 1.76185723e-02,
          4.80942708e-03, -1.52521282e-02, -8.05016793e-03,
          7.91204628e-03, 9.49674752e-03, 4.14305134e-03,
          -5.85806929e-03, 9.99967754e-03, 1.09898215e-02,
          9.16423462e-03, -1.02892993e-02, -3.61306593e-02,
          -1.63416273e-03, 6.48747524e-03, 5.34871360e-03,
          5.17224614e-03, 6.18859706e-03, -6.27657026e-03,
          2.26281583e-03, -2.71117650e-02, -2.04202421e-02,
          2.10279273e-03, 7.27253547e-03, -6.95612095e-03,
          -6.13859389e-03, -7.90177146e-04, -1.20830219e-02,
          -2.90504214e-03, -2.16155406e-02, 6.65168976e-03,
          1.55996354e-02, 1.92127582e-02, 8.08029156e-03, 1.09956888e-02,
          3.24220746e-03, -6.17864635e-03, 6.65264018e-03,
          -6.75496692e-03, 2.99289692e-02, 2.34981328e-02,
          1.59797557e-02, 1.63831245e-02, 1.77656747e-02,
          -7.02052377e-03, -2.70365626e-02, -2.04973575e-02,
          1.34368902e-02, -2.09728237e-02, 8.97734240e-03,
          2.17201859e-02, 1.62514357e-03, -4.65729367e-03,
          -1.76345147e-02, -3.59288380e-02, -2.77699400e-02,
          -3.30999009e-02, 3.06172832e-03, 2.02116370e-02,
          1.67191606e-02, 1.72764082e-02, -7.94175733e-03,
          -3.04236375e-02, -4.21108678e-02, -3.65787260e-02,
          -7.82109890e-03, 3.54071558e-02, 1.23633388e-02,
          2.04343311e-02, 1.99983846e-02, 1.28340730e-02,
          -1.21118156e-02, -3.74619775e-02, -3.31133455e-02,
          2.12687310e-02, 3.20241079e-02, -3.96474352e-05,
          1.39464056e-02, 8.42884823e-04, 9.40270722e-03,
          -2.06073467e-02, -3.31089310e-02, -1.86540484e-02,
          2.93666329e-02, 9.67359170e-03, 4.66263108e-03, 7.97871966e-03,
          1.82335172e-02, -5.62815322e-03, -6.56303763e-03,
          -2.73338053e-02, -1.51227927e-02, 9.00236983e-03,
          1.84594747e-02, 1.15965959e-03, 8.52537900e-03, 4.16736444e-03,
          -6.51605369e-04, -1.07365157e-02, -1.10397814e-02,
          -1.29155349e-02, 1.44511545e-02, 1.08671924e-02,
          8.55574571e-03, 4.35763458e-03, 5.19144954e-03, 4.44654329e-03,
          -2.64709573e-02, -4.02633511e-02, -1.82411335e-02,
          2.55166534e-02, 9.00351349e-03, 2.15134006e-02, 1.11284954e-02,
          1.51914069e-02, 4.38253097e-02, -2.40991767e-02,
          -3.66639122e-02, -9.78126097e-03, 2.42841858e-02,
          1.35203190e-02, -2.55220383e-03, -1.51357579e-03,
          -4.02671192e-03, -1.47825396e-02, -3.06948572e-02,
          -2.49722507e-02, -1.78262498e-02, 2.18844134e-02,
          1.73371006e-02, 8.49718414e-03, 4.24915645e-03, 2.11230759e-03,
          2.43728515e-02, -3.71187143e-02, -3.60215679e-02,
          -1.63983610e-02, 1.96758434e-02, -4.69400128e-03,
          8.22101999e-03, 8.53911787e-03, -4.48404532e-03,
          3.04106399e-02, -3.98356169e-02, -5.88174015e-02,
          -2.74775848e-02, 2.51197489e-03, 2.17404263e-03,
          6.07146695e-03, 3.35694989e-03, 1.39038905e-03, 4.23937663e-03,
          -3.73243960e-03, 2.74751452e-03, 7.67076155e-03,
          4.44455887e-04, 8.88189021e-03, 9.46944859e-03,
          -5.74770784e-05, -1.28629422e-02, 3.93505543e-02,
          -5.80901392e-02, -6.42681792e-02, -3.95735055e-02,
          3.33224051e-03, 5.75847412e-03, 5.38111990e-03, 2.55202595e-03,
          -6.28158264e-03, 1.27553856e-02, -8.94369371e-03,
          -9.09362454e-03, 1.51524355e-03, 5.22065582e-03,
          2.92438245e-03, 1.50807183e-02, 6.97594509e-03, 1.05273379e-02,
          1.48624545e-02, -9.96178831e-04, 8.51864368e-03,
          1.52296349e-02, 3.66809452e-03, 2.85556656e-03, 8.98384023e-03,
          7.57759530e-03, 6.41463604e-03, -1.35475453e-02,
          2.46985932e-03, 2.96196062e-03, 6.50491449e-04, 1.68488163e-03,
          1.31038297e-02, 1.52311204e-02, 1.46561740e-02, 2.20935745e-03,
          2.09867116e-02, -1.07153701e-02, -3.63874855e-03,
          8.00658390e-03, 8.47214740e-03, 8.37017223e-03, 9.72312689e-03,
          6.80528814e-03, 1.18866237e-03, -8.46713688e-03,
          4.57333197e-04, 1.27040583e-03, 1.34572783e-03, 4.21367446e-03,
          3.84720461e-03, 1.24861887e-02, 1.13702603e-02, 1.07357698e-02,
          -1.64268166e-03, 2.18740548e-03, 2.89240922e-03,
          1.47378014e-03, 2.33860943e-03, 0., 0., 0., -5.75271515e-05,
          -4.47641546e-03, -6.31624061e-05, 0., 0., 0., 6.66763680e-03,
          1.41281197e-02, 7.79441651e-03, 3.25868349e-03, 3.80333804e-04,
          6.76810509e-03, 5.34721650e-03, 1.74984650e-03, 4.71124332e-03,
          0., 0., 0., -8.40308930e-05, -4.05126438e-03, -9.84609724e-05,
          0., 0., 0., 0., 0., 0., 0., 0., 0., 0., 0., 0., 0., 0., 0., 0.,
          0., 0., 0., 0., 0., 0., 0., 0., 0., 0., 0., 0., 0., 0., 0., 0.,
          0., 0., 0., 0., 0., 0., 0., 0., 0., 0., 0., 0., 0., 0., 0., 0.,
          0., 0., 0., 0., 0., 0., 0., 0., 0., 0., 0., 0., 0., 0., 0., 0.,
          0., 0., 0., 0., 0., 0., 0., 0., 0., 0., 0., 0., 0.,
          1.21952202e-04, 7.93494924e-04, 3.49804104e-05, 2.44311464e-04,
          1.62455806e-04, 2.19996600e-05, 0., 2.62022810e-03,
          3.94810410e-03, 4.69579501e-03, 1.44941984e-02,
          -4.01258050e-03, 8.47259630e-03, 6.94614090e-03,
          3.03505268e-03, 3.36618046e-03, 2.60030356e-05, 1.19472817e-04,
          2.75926373e-04, 4.06225125e-04, 2.86800496e-04,
          -1.88359718e-05, 2.65991141e-04, 3.41873558e-04,
          2.11317209e-04, 2.16338388e-03, 6.58123475e-03, 7.44862948e-03,
          7.27414247e-03, -4.01258050e-03, 2.01294757e-03,
          7.45580206e-03, 1.35661531e-02, 1.50764668e-02, 1.64405676e-03,
          2.59833666e-03, 3.79248150e-03, 5.45260170e-03,
          -8.30006879e-03, 4.47994750e-03, 5.24656195e-03,
          1.94056774e-03, 2.63449270e-03, 6.26860792e-03,
          -5.03486721e-03, 2.02553961e-02, 1.07940007e-02,
          6.08833879e-02, 1.08863795e-02, 5.86209899e-05,
          -3.98461148e-03, 1.12956483e-02, 9.61589511e-04,
          4.32196585e-03, 5.61715942e-03, 2.53920164e-03,
          -7.56389461e-03, 1.50088104e-03, 4.81785275e-03,
          8.85607954e-03, 1.05816638e-02, -5.91445714e-03,
          -9.11241956e-03, 4.24958253e-03, 2.70938058e-03,
          1.87458899e-02, 1.09305810e-02, -1.43351397e-02,
          -5.88961877e-03, 7.17058126e-03, 1.22655658e-02,
          6.79908367e-03, 1.03609366e-02, 1.23062013e-02, 1.25120962e-02,
          5.92073472e-03, 7.44569907e-03, 3.37175303e-03, 1.48419188e-02,
          3.83035326e-03, -8.40513315e-03, -6.11646939e-03,
          -1.57746199e-05, 1.91780720e-02, -8.41544662e-03,
          1.10822869e-02, 7.46732345e-03, 1.88052077e-02,
          -7.51854340e-03, -4.38956451e-03, -3.35861114e-04,
          1.98066072e-03, -6.40805624e-03, 4.28324053e-03,
          -4.86865873e-03, -2.36215559e-03, 2.07695528e-03,
          -4.08592038e-02, -2.92493999e-02, -2.07952186e-02,
          -2.27609687e-02, 1.64685715e-02, -3.63384672e-02,
          -9.14858095e-03, -1.52121289e-02, -2.14395113e-02,
          1.11145126e-02, -9.75998491e-03, -5.60315931e-03,
          -2.01964611e-03, 4.34171334e-02, 4.05166578e-03,
          1.23673584e-02, 1.87810659e-02, 2.01855097e-02, 1.89925395e-02,
          -2.05603130e-02, -1.59428734e-02, -1.19307842e-02,
          3.45382397e-03, 1.38069019e-02, 2.07324494e-02, 3.14015076e-02,
          2.53147241e-02, -1.74050760e-02, -2.21152063e-02,
          -6.87231170e-03, -1.14428038e-02, 2.69628521e-02,
          -1.31583400e-02, 3.85611015e-03, 4.38403571e-03,
          -6.89819315e-03, -1.18068829e-02, -4.73331958e-02,
          -2.86973435e-02, -2.23436896e-02, -8.67659412e-03,
          -1.40144909e-02, -5.22738462e-03, 5.41460561e-03,
          -7.46416859e-03, 1.77916829e-02, -2.42186636e-02,
          -2.28713937e-02, -1.61478184e-02, -8.44931975e-03,
          1.14135193e-02, 3.07529178e-02, 2.18429379e-02, 1.90309472e-02,
          1.57485101e-02, -1.18792532e-02, -1.36197191e-02,
          -7.93158449e-03, -4.87440545e-03, 1.39232995e-02,
          3.95122692e-02, 2.22265106e-02, 1.57637205e-02,
          -5.53347543e-03, -3.66682485e-02, -2.40933448e-02,
          -1.31554389e-02, -2.11481359e-02, -4.37190523e-03,
          8.26240331e-03, -3.83891887e-03, 8.46112671e-04,
          9.85135604e-03, -6.83595380e-03, -5.43592125e-03,
          -1.20067941e-02, -1.69058237e-02, -5.46411471e-03,
          1.85833853e-02, -2.79076211e-03, 7.75958225e-03,
          -1.41639530e-03, 1.17413932e-03, 1.65410136e-04,
          5.96324168e-03, -5.63418632e-03, -4.21081251e-03,
          1.25599345e-02, 1.17860511e-02, -1.06004737e-02,
          -8.74988735e-03, 7.51926657e-03, 7.30408123e-03,
          2.39496548e-02, 1.50530254e-02, 1.21006658e-02,
          -1.07158313e-03, 6.62447931e-03, -1.25741595e-02,
          -9.77963023e-03, 5.47079043e-03, -8.32001562e-04,
          -1.28696905e-02, -1.24359028e-02, -3.23052928e-02,
          2.70872447e-03, -7.69123435e-03, -1.84326656e-02,
          -2.55594589e-02, 9.65394452e-03, 3.00133438e-03,
          9.09144711e-03, 2.62218202e-03, -9.56356712e-03,
          -4.03835578e-03, -5.28131472e-03, -1.88688580e-02,
          2.87806801e-03, -7.18727999e-04, 4.09971224e-03,
          8.92773084e-03, 1.02637438e-02, 1.19279437e-02,
          -8.36492423e-03, 1.33161200e-02, 1.26772914e-02,
          9.09127202e-03, -7.79342931e-03, 5.42361755e-03,
          5.38234226e-03, -4.10351017e-03, -1.12639954e-02,
          -2.87445765e-02, -6.00841874e-03, 3.75962281e-03,
          -1.80897210e-03, -2.65204860e-03, 1.72078446e-03,
          5.49615594e-03, 1.29806204e-02, 5.31279063e-03,
          -5.74208284e-03, 2.26800493e-03, -2.20820308e-03,
          -1.04025733e-02, -2.40314174e-02, 1.22207287e-03,
          -4.30858228e-03, 2.54032877e-03, -2.53317915e-02,
          -2.91865971e-02, -1.02270767e-02, -1.60493199e-02,
          2.05540769e-02, 1.49709238e-02, 2.09455397e-02, 1.03677176e-02,
          1.52040860e-02, -1.20964078e-02, -2.72319224e-02,
          -1.05343154e-02, 7.62978522e-03, 2.35398933e-02,
          2.74054464e-02, 1.62645914e-02, -2.02133297e-03,
          2.50667916e-03, -9.37744323e-03, -1.14414683e-02,
          -8.65118671e-03, 2.17417069e-02, -5.05342614e-03,
          -1.13451639e-02, -2.75200279e-03, -1.77239738e-02,
          5.46549819e-03, -2.85879839e-02, -2.91743297e-02,
          -1.08668497e-02, -1.58249214e-02, 2.73614214e-03,
          6.05693320e-03, 8.57953914e-04, -2.36279238e-02,
          -1.30220503e-02, -2.35957932e-02, -1.75063871e-02,
          -4.22551623e-03, -8.29967030e-04, 1.01621533e-02,
          1.44890626e-03, 8.85528629e-04, 5.73995814e-04,
          -8.33618734e-03, 1.23991503e-03, -3.63064668e-04,
          -3.65851494e-03, 8.53354856e-03, 1.43162282e-02,
          5.79885300e-03, 6.75264513e-03, 3.65309929e-03, 8.90991371e-03,
          9.90668032e-03, 7.71169038e-03, -6.91935886e-03,
          -1.25083898e-03, -2.63128756e-03, -6.85781939e-03,
          -1.76874467e-03, -9.15468670e-03, -2.92759109e-02,
          -1.21113844e-02, -3.79181281e-03, -5.88621246e-03,
          -9.23287240e-04, 1.30701158e-03, -6.75969804e-03,
          1.44773116e-02, 6.65765116e-03, 5.62159112e-03,
          -1.10271461e-02, 5.73657779e-03, -6.12895191e-03,
          -8.25968292e-03, 2.49219965e-03, -3.50389793e-03,
          -2.08933535e-03, -1.78345516e-02, -1.04664136e-02,
          -1.54107092e-02, -1.44179640e-02, -2.33807731e-02,
          9.92973987e-03, 2.71067526e-02, 7.47071346e-03, 8.14564712e-03,
          -1.47029795e-02, 2.88001746e-02, -2.16022562e-02,
          -1.77597292e-02, -1.65547652e-03, 2.74145305e-02,
          3.53132351e-03, 6.61737053e-04, 1.10048233e-02,
          -4.48210118e-03, -6.26294781e-03, -2.85440683e-02,
          -1.89743433e-02, -3.18830349e-02, 4.44569951e-03,
          1.64248161e-02, -5.16302418e-03, -2.03672461e-02,
          -2.59549934e-02, 1.24334432e-02, -1.65612847e-02,
          -1.06254304e-02, -1.07526071e-02, 1.90435145e-02,
          2.58893743e-02, 1.17938593e-02, -3.97460070e-04,
          -3.23524103e-02, 2.81565599e-02, -3.78721729e-02,
          -3.64634991e-02, -1.15696143e-03, 1.81153007e-02,
          1.32751735e-02, 9.24595725e-03, 6.15887856e-03, 9.94947914e-05,
          1.52908498e-02, -3.54362332e-04, -3.76666896e-03,
          1.11840444e-03, 1.25867585e-02, 2.28838390e-03,
          -2.55266912e-02, -3.85824218e-02, -4.36573885e-02,
          2.55070310e-02, -2.34305095e-02, -1.06881205e-02,
          -8.50442145e-03, 2.29686312e-03, -7.93995056e-03,
          3.02967150e-03, 7.78967328e-03, -4.21060994e-03,
          7.28275208e-03, -2.36249855e-03, -9.74942639e-04,
          -9.30081960e-03, -6.84559299e-03, 1.08704641e-02,
          1.09293489e-02, 1.24268057e-02, 8.60181451e-03, 2.46322788e-02,
          -5.46913920e-03, -7.83042610e-03, -4.48637083e-03,
          6.54202700e-03, 5.32978820e-03, 5.30786160e-03, 1.08274007e-02,
          5.47750527e-03, 2.70455115e-04, 5.34980232e-03, 1.13765290e-03,
          4.24725549e-05, 4.16761171e-03, -2.89979693e-03,
          1.06838355e-02, 9.18580219e-03, 2.41945824e-03, 2.13453881e-02,
          -1.22911902e-02, -8.80579185e-03, -1.45982532e-02,
          -1.29190478e-02, -2.09482899e-03, 6.51471084e-03,
          1.12170335e-02, 9.99873318e-03, -3.25994170e-03,
          -1.55048538e-03, -2.56668078e-03, -7.11510191e-04,
          -6.09148992e-03, 2.45543383e-03, 5.67802368e-03,
          9.27156769e-03, 4.93399706e-03, 2.17598025e-03, 1.21546928e-02,
          3.59110720e-03, 4.86030534e-04, 3.38267209e-03, 0., 0., 0.,
          -7.98629917e-05, -3.69729730e-03, -9.14472548e-05, 0., 0., 0.,
          1.16798666e-03, 3.89288412e-03, 1.67471115e-02, 9.81056690e-03,
          -7.14733033e-04, 1.42463483e-03, -1.06090808e-03,
          2.59847520e-03, -1.73645234e-03, 0., 0., 0., -6.54858814e-05,
          -4.28129965e-03, -1.10542038e-04, 0., 0., 0., 0., 0., 0., 0.,
          0., 0., 0., 0., 0., 0., 0., 0., 0., 0., 0., 0., 0., 0., 0., 0.,
          0., 0., 0., 0., 0., 0., 0., 0., 0., 0., 0., 0., 0., 0., 0., 0.,
          0., 0., 0., 0., 0., 0., 0., 0., 0., 0., 0., 0., 0., 0., 0., 0.,
          0., 0., 0., 0., 0., 0., 0., 0., 0., 0., 0., 0., 0., 0., 0., 0.,
          0., 0., 0., 0., 5.86831666e-05, 3.51447961e-04, 3.15399317e-04,
          3.13331315e-04, -1.49814610e-03, -1.44106225e-05,
          1.33941430e-04, 1.76032845e-04, 1.75440495e-04, 6.49794238e-03,
          6.55517122e-03, 6.47959067e-03, 5.47932554e-03,
          -4.20792541e-03, 2.62997160e-03, 4.00136691e-03,
          9.22765955e-03, 1.55258384e-02, 2.66741663e-05, 2.30214879e-04,
          3.00908549e-04, 4.47479193e-04, 1.46684283e-03, 1.00919534e-03,
          1.54120498e-04, 6.57462294e-07, 1.16960337e-05, 7.29093468e-03,
          6.86962111e-03, 8.66370182e-03, 8.97895638e-03,
          -4.20792541e-03, 1.28712170e-02, 2.57578865e-03,
          1.32474909e-03, 5.09478571e-03, 3.75941861e-03, 3.88814788e-03,
          4.32986813e-03, 1.83147192e-03, -2.19804142e-03,
          4.98752762e-03, 3.24872253e-03, 6.99169701e-03, 1.17118899e-02,
          1.02666544e-03, -2.96250265e-03, -6.48845779e-03,
          -1.67660019e-03, 3.63767557e-02, 1.24272099e-02,
          5.39786089e-03, 3.19738244e-03, 4.12785728e-03, 3.73887504e-03,
          5.28185675e-03, 7.37081934e-03, 4.24567470e-03,
          -2.05811998e-03, 7.42148561e-03, 2.25068862e-03,
          1.39267289e-03, 3.52329039e-03, -3.34495748e-03,
          -7.56749976e-03, 5.86078677e-04, -1.19745603e-03,
          3.86549234e-02, 5.86550334e-04, 1.02586420e-02, 3.47022340e-03,
          -2.09602341e-03, -1.00387903e-02, -1.75881642e-03,
          1.97266624e-03, 2.87760724e-03, 9.25184879e-03, 8.51208903e-03,
          -3.68084817e-04, 1.58967415e-03, 1.63375086e-03,
          -2.57869847e-02, -1.31093822e-02, -2.69755698e-03,
          -1.80456080e-02, 2.09345855e-02, -1.83005296e-02,
          -1.19965281e-02, -7.04230135e-03, -2.45780908e-02,
          -7.82730617e-03, 2.14926945e-03, 5.78240165e-03,
          -3.72850499e-03, -1.23323384e-03, 7.82140624e-03,
          4.30033589e-03, 1.78651011e-03, -3.24899360e-04,
          -1.65464263e-02, 5.59896231e-03, 7.61032244e-03,
          -3.25546563e-02, 1.04172193e-02, -9.09821317e-03,
          -3.71657033e-03, -4.59479401e-03, -5.82242792e-05,
          -4.77915211e-03, 4.01219499e-04, -3.25077609e-03,
          -1.36979213e-02, 2.27682460e-02, -1.63823981e-02,
          -4.24619252e-03, 5.30070579e-03, 3.23409244e-04,
          -4.24994947e-03, -1.50251305e-02, -1.53755378e-02,
          -1.50660025e-02, -2.11678445e-02, -1.87432859e-02,
          -1.50746638e-02, 3.56022292e-03, 2.48108455e-03,
          3.96421645e-03, 2.00554878e-02, 1.14875780e-02,
          -2.38233935e-02, 2.13901699e-02, -1.32074663e-02,
          8.40681780e-04, 7.85619579e-03, 2.21156962e-02, 4.17453004e-03,
          6.59750821e-03, 3.10091348e-03, -1.28586618e-02,
          -2.21710932e-02, -1.98446121e-02, -1.40075367e-02,
          9.12529230e-03, 1.41722113e-02, 9.94913862e-04,
          -1.20963231e-02, -6.10643066e-03, -1.19227066e-03,
          -2.54783109e-02, -1.32928519e-02, -1.61396642e-03,
          -4.79935948e-03, 9.11563728e-03, 1.75547320e-02,
          1.26812682e-02, 1.06898686e-02, 2.42173602e-03,
          -1.69102959e-02, -1.25378547e-02, 1.16215255e-02,
          6.48891728e-04, 8.70672707e-03, 2.28775553e-02, 1.17312847e-02,
          6.55089226e-03, -1.17546432e-02, -2.31157057e-02,
          -1.96228381e-02, 1.25955383e-03, 3.78103205e-03,
          2.39604432e-02, 2.84339190e-02, 1.69817936e-02, 1.04757864e-02,
          -1.95203181e-02, -2.82272529e-02, -3.23428474e-02,
          6.36093086e-03, 3.07559199e-03, 2.03301515e-02, 1.16939647e-02,
          1.31994821e-02, 2.15687742e-03, -2.65933131e-03,
          -2.40348373e-02, -1.15903923e-02, 1.17976051e-02,
          4.62335534e-04, -8.00836599e-04, 3.79407320e-05,
          9.37529188e-03, 7.43930694e-04, 3.07513564e-03,
          -7.41818408e-03, 4.81031602e-03, 6.85096206e-03,
          -9.28780879e-04, -5.70755126e-03, 1.45411454e-02,
          -2.26157415e-03, -8.32568109e-03, -2.77234484e-02,
          -3.27634290e-02, -2.68070158e-02, -2.43031373e-03,
          -2.78917520e-04, 5.07528940e-03, 2.07319553e-03,
          -1.16262129e-02, -2.04759222e-02, -2.06468627e-02,
          -1.48740653e-02, -5.63671673e-03, 9.24605876e-03,
          1.51887164e-02, 7.67914439e-03, -2.42696865e-03,
          4.14437242e-03, -3.67280678e-03, -8.56272969e-03,
          -5.68047306e-03, -3.41978332e-04, -1.17695320e-03,
          -7.19726831e-03, -7.45304395e-03, -1.19409664e-02,
          -1.24247270e-02, -6.55096897e-04, -1.98753104e-02,
          -1.23330606e-02, -1.11594629e-02, 4.50423540e-04,
          -5.65818558e-03, -1.41122360e-02, 1.03846239e-02,
          -2.68424395e-03, -1.71467811e-02, -1.60341505e-02,
          -1.39400428e-02, -1.85477659e-02, 1.63421612e-02,
          1.55146597e-02, 1.33654512e-02, 1.46244392e-02, 4.63619735e-03,
          4.01406270e-03, -3.86776123e-03, -2.11771820e-02,
          -2.10231710e-02, 1.72705520e-02, 1.93702430e-03,
          1.41262880e-03, 7.33690104e-04, -4.36352054e-03,
          2.77064671e-03, -1.92819219e-02, -6.24223519e-03,
          -1.49693768e-02, -7.37817632e-03, 7.06577848e-05,
          -2.22865050e-03, 3.28596286e-03, 9.09031648e-03,
          2.38514086e-03, -2.03199871e-02, -1.83274467e-02,
          -3.20364162e-02, -1.69489346e-02, -5.00401482e-03,
          3.11386259e-03, 2.23943274e-02, 1.15490975e-02, 2.18969323e-02,
          3.81636061e-03, -2.35485053e-03, -8.59901775e-03,
          7.41541898e-03, 8.01580679e-03, 2.06489619e-02, 6.31304272e-03,
          6.75643282e-03, 2.32396691e-04, -9.15436912e-03,
          -7.48521509e-03, -2.46816073e-02, -1.15630878e-02,
          1.66869082e-03, 1.34136193e-02, 1.11571245e-03,
          -4.82471613e-03, -1.44719833e-03, -1.47078624e-02,
          -4.83916886e-02, -2.14600414e-02, -5.27122896e-03,
          -4.08362923e-03, -6.35575096e-04, 7.52929319e-03,
          2.57474743e-03, 1.69429258e-02, 3.94874223e-04,
          -8.68718233e-03, 6.16979180e-03, 1.59814917e-02,
          1.62612703e-02, 3.67411366e-03, 4.36404545e-04,
          -3.23975109e-03, -7.75015261e-03, -1.14950631e-02,
          -3.71766388e-02, -1.89458504e-02, -1.44993840e-03,
          -4.16197628e-03, -4.63441527e-03, 1.94411795e-03,
          1.98626500e-02, 2.04641782e-02, -5.08402800e-03,
          -1.08516039e-02, 9.18240286e-03, 1.87182147e-02,
          2.02522501e-02, -6.80139055e-03, 7.87198078e-03,
          3.98657372e-04, 1.10892085e-02, -3.73026356e-03,
          -1.87961087e-02, -4.18844214e-03, 4.03688708e-03,
          -1.87932723e-03, 6.25158893e-03, 5.56257367e-03,
          -1.68408733e-02, -1.74631849e-02, -1.91586837e-02,
          3.88793065e-03, -7.82190729e-03, -8.16277508e-03,
          -1.06128706e-02, -2.58651515e-03, 1.82761496e-03,
          -6.44407840e-03, 6.43113628e-04, -1.11778798e-02,
          -2.78389398e-02, -6.15653070e-03, 1.28444331e-02,
          1.62034091e-02, 5.06491261e-03, 7.94610381e-03,
          -1.06829442e-02, -1.86856389e-02, -1.90593787e-02,
          1.05519388e-02, -8.80015641e-03, 3.70109035e-03,
          -5.25262731e-04, 3.05038784e-03, -5.46059804e-03,
          -3.80408950e-02, -3.25719640e-02, -3.72325443e-02,
          2.52243336e-02, -1.64651033e-02, -1.50997490e-02,
          -2.03944258e-02, -1.44902896e-02, -3.33408965e-03,
          1.80181162e-03, 1.33334631e-02, 8.43521208e-03, 1.51036652e-02,
          3.64163262e-03, 5.09743951e-03, -2.05574953e-03,
          -6.35392731e-03, -5.92391612e-03, -1.78301465e-02,
          -2.06937995e-02, -2.83636954e-02, 2.33826153e-02,
          -9.46538337e-03, -1.69810671e-02, -1.60274189e-02,
          -1.85665302e-02, -4.13761660e-03, -7.23711390e-04,
          1.57618616e-02, 3.86367692e-03, -5.76831726e-03,
          8.70377291e-03, 4.32238588e-03, -6.80047728e-04,
          -9.77262668e-03, -1.95753807e-03, 8.91018938e-03,
          1.39122903e-02, 2.93884514e-04, 1.77632999e-02,
          -4.32656845e-03, 5.41570224e-03, -1.71488116e-03,
          -7.02996086e-03, 3.46400542e-03, 5.22169191e-03,
          1.12315789e-02, 7.99148437e-03, -1.49673130e-03,
          -7.20188138e-04, -7.53866043e-04, 2.84042559e-03,
          -3.73549410e-04, -7.94165675e-03, -3.00485990e-03,
          1.53436363e-02, -2.15132348e-03, 1.85775533e-02,
          1.96330273e-03, 4.94427700e-03, 2.78105377e-03,
          -1.18639311e-02, 6.49737054e-03, 1.64662092e-03,
          1.02009429e-02, 1.72756473e-03, -7.15354166e-04,
          6.90828369e-04, 1.70158572e-03, 3.05547589e-03, 6.51927060e-03,
          9.24672373e-03, 3.42973857e-03, 1.41842477e-02, 8.59145354e-03,
          -1.27166000e-04, -1.51891855e-03, -1.24692544e-03,
          7.97889475e-03, 3.54782073e-03, 0., 0., 0., -4.99089329e-05,
          -3.56145808e-03, -6.96373172e-05, 0., 0., 0., 1.09794438e-02,
          3.18721216e-03, 9.85159352e-03, 1.57880783e-03, 2.29935511e-03,
          -5.83385641e-04, 2.64283805e-03, 3.24777747e-03,
          1.08231083e-02, 0., 0., 0., -4.81525640e-05, -5.09449653e-03,
          -7.22518671e-05, 0., 0., 0., 0., 0., 0., 0., 0., 0., 0., 0.,
          0., 0., 0., 0., 0., 0., 0., 0., 0., 0., 0., 0., 0., 0., 0., 0.,
          0., 0., 0., 0., 0., 0., 0., 0., 0., 0., 0., 0., 0., 0., 0., 0.,
          0., 0., 0., 0., 0., 0., 0., 0., 0., 0., 0., 0., 0., 0., 0., 0.,
          0., 0., 0., 0., 0., 0., 0., 0., 0., 0., 0., 0., 0., 0., 0., 0.,
          0., 0., 5.37863052e-05, 7.59642280e-05, 2.83678179e-03,
          1.26151205e-03, 5.00873954e-04, 0., 0., 6.33578561e-03,
          6.44915784e-03, 5.01115760e-03, 1.04989822e-03,
          -1.16897316e-03, 1.75763480e-02, 8.81298073e-03,
          9.63042723e-04, 2.21915497e-03, 0., 0., 0., -6.45723849e-05,
          -9.99988522e-04, 2.45527888e-04, 4.60765004e-04,
          2.87409002e-05, 8.94907203e-07, 1.06014451e-02, 7.22732348e-03,
          2.84826243e-03, -2.54108501e-03, -1.16897316e-03,
          4.13787132e-03, 7.96833076e-03, 2.58552749e-03, 4.24648076e-03,
          3.97728011e-03, 6.77084317e-03, 5.19947754e-03,
          -2.18664296e-04, -2.88961804e-03, 8.63510929e-03,
          5.35421586e-03, 9.63000522e-04, 1.37966534e-03,
          -9.15492594e-04, 9.19997692e-03, 5.38393017e-03,
          -1.04964329e-02, 2.50034630e-02, 2.67774798e-04,
          8.65332223e-03, 3.68900551e-03, 1.85622484e-03, 7.70925358e-03,
          7.87049159e-03, 2.78594764e-03, -3.76028777e-03,
          -4.60037403e-03, 1.87656283e-03, 3.41305626e-03,
          1.26727647e-03, 5.64386882e-03, 1.66110862e-02, 1.35799656e-02,
          1.20014353e-02, -3.39728408e-02, 3.48763950e-02,
          -6.54387241e-03, 1.44769428e-02, 1.66675150e-02,
          1.48280337e-02, -7.48252356e-03, 8.55974201e-03,
          7.48074707e-03, -7.12693110e-03, -2.92238835e-02,
          6.87323650e-03, 5.20663057e-03, 1.40083721e-03,
          -2.80319643e-03, -1.25403581e-02, 2.00312547e-02,
          4.41069109e-03, -3.37860510e-02, -2.43996200e-03,
          -8.31474178e-03, 8.28486681e-03, -1.18928766e-02,
          9.22344439e-03, 1.21505987e-02, 1.15176411e-02, 1.00469599e-02,
          -1.13182310e-02, -2.12702136e-02, 5.23689575e-03,
          8.58047791e-03, 1.36144133e-02, 4.24850173e-03, 9.01538320e-03,
          1.71550233e-02, 1.65169612e-02, -2.29920931e-02,
          7.61530362e-03, 8.66939139e-04, -3.58702987e-03,
          -6.84170425e-03, 3.40044149e-03, 1.01995319e-02,
          2.73395106e-02, 1.64233707e-02, -4.90886113e-03,
          1.11205950e-02, -5.41940425e-03, 3.75021802e-04,
          -6.30560517e-03, 2.35699993e-02, -2.36127482e-04,
          -9.54943316e-05, -2.41144141e-03, -2.42834911e-02,
          -3.10413875e-02, -2.38329004e-02, -1.91233736e-02,
          -7.31872022e-03, 1.77276961e-03, 2.30495464e-02,
          2.23199576e-02, 1.56532153e-02, 1.98022858e-03, 2.15640794e-02,
          -6.77860016e-03, -5.81234647e-03, -7.89950974e-03,
          1.73727721e-02, 5.24328230e-03, 1.46028278e-02, 1.11239459e-02,
          -2.17421036e-02, -2.84852255e-02, -3.00417785e-02,
          -2.71622129e-02, -2.19423883e-02, -7.09616439e-03,
          2.25484744e-02, 1.16810529e-02, 2.85279867e-03,
          -1.16038490e-02, -2.83501130e-02, -1.38612352e-02,
          2.10237061e-03, 4.20705462e-03, 1.59994662e-02, 2.96247583e-02,
          1.39332954e-02, 1.08117955e-02, -1.45858480e-02,
          -3.41738239e-02, -2.46915855e-02, 9.15358122e-03,
          7.20796734e-03, 2.70401072e-02, 1.73988808e-02, 1.27417408e-02,
          8.93600471e-03, -1.71823017e-02, -1.23277251e-02,
          -2.36980598e-02, -1.49991279e-02, -8.97223502e-03,
          9.78746451e-03, 3.25415023e-02, 2.97140935e-03, 8.56728572e-03,
          -5.36344526e-03, -2.15209965e-02, -3.05052269e-02,
          -1.17081255e-02, -3.62006132e-03, 3.95409390e-02,
          1.27669638e-02, 6.36963814e-04, 6.16319431e-03,
          -2.39729732e-02, -2.99881715e-02, -2.32641436e-02,
          -1.01828678e-02, 3.58485035e-03, 1.83150508e-02,
          1.55863399e-03, -1.31512154e-02, -7.06059299e-03,
          -1.61460377e-02, -9.09499545e-03, -6.31020870e-03,
          1.17840676e-03, 1.49941994e-02, 1.19572440e-02, 1.07078860e-02,
          -9.17175610e-04, 4.59272135e-03, -2.03868491e-03,
          -1.44370180e-02, -3.09632495e-02, -1.44147109e-02,
          -4.29672841e-03, 1.25760846e-02, -1.73105467e-02,
          9.40874568e-04, 4.23606113e-03, 1.61957997e-03, 8.62377230e-03,
          -7.90840201e-03, 1.37230633e-02, 2.55743018e-03,
          -6.39902614e-03, 2.61335378e-03, -2.78747957e-02,
          -3.63121368e-02, -2.05622334e-02, -2.30083112e-02,
          -2.72928514e-02, 1.04840705e-02, 1.33299343e-02,
          1.20290928e-02, 1.75410509e-02, 5.14669530e-03,
          -6.34803576e-03, 3.25893261e-03, -2.00151131e-02,
          -2.37164367e-02, 1.03052743e-02, 6.17261417e-03,
          1.20798415e-02, -1.22654149e-02, -6.80818746e-04,
          -1.67500619e-02, -4.66291839e-03, -2.31327186e-03,
          -9.52259731e-03, 1.82527378e-02, 4.29082382e-03,
          -7.86353834e-03, 5.99839445e-03, 1.06773144e-02,
          -8.28670058e-03, 1.28700994e-02, 8.96614045e-03,
          3.22652119e-03, 1.23659112e-02, 5.47725661e-03, 2.44823508e-02,
          1.52771482e-02, 1.38436435e-02, 3.37011786e-03, 3.44362948e-03,
          -2.07996126e-02, -9.82558075e-03, 5.61445532e-03,
          5.75119397e-03, 1.45147843e-02, -4.46978491e-03,
          1.04074460e-02, -1.14785973e-02, -1.18258838e-02,
          -3.82461958e-02, -2.13832632e-02, 1.73739332e-03,
          -1.65789417e-04, -3.72705166e-03, 1.86784938e-02,
          1.30999815e-02, -1.70467775e-02, 4.30187117e-03,
          -1.86597295e-02, -3.53784650e-03, 1.00611271e-02,
          8.41170177e-03, 3.02349292e-02, 7.13561941e-03, 8.87380447e-03,
          -1.02286991e-02, -1.23344865e-02, -3.21172513e-02,
          -1.02250120e-02, 3.34800184e-02, 1.66680533e-02,
          5.78754256e-03, -8.31183232e-03, 5.72751183e-03,
          -8.61999672e-03, -4.62940801e-03, -3.74785252e-02,
          -1.66011136e-02, 3.03887646e-03, -1.04274033e-02,
          -1.06700510e-02, -7.82773737e-03, 9.00897291e-03,
          1.54798385e-02, 5.34566864e-03, 1.14182185e-03,
          -1.21145286e-02, -7.15620443e-03, -4.77921683e-03,
          -9.38540138e-03, 1.31319994e-02, 3.41198989e-03,
          -6.06767717e-04, -7.24846264e-04, -1.50628658e-02,
          4.15953482e-03, 3.44891697e-02, 1.50810108e-02, 2.17175740e-03,
          6.66258298e-03, -1.41648734e-02, 2.92228098e-04,
          3.85921285e-03, 2.03782674e-02, 3.41182877e-03, 1.32497223e-02,
          1.41516831e-02, 2.79773423e-03, -9.68143065e-03,
          -1.41776297e-02, -8.20200308e-04, -1.14008896e-02,
          -1.06528848e-02, -1.94042064e-02, -3.76477698e-03,
          1.06181083e-02, -9.03698243e-03, -4.24565794e-03,
          -1.44106392e-02, -1.53033705e-02, -1.89499538e-02,
          2.08414756e-02, -4.58726613e-03, 8.96700751e-03,
          1.91612379e-03, -1.77170965e-03, -4.27291309e-03,
          -2.27651056e-02, -2.48594233e-03, 1.02075713e-03,
          1.19429529e-02, 4.69975453e-03, 5.03490912e-03, 1.65719185e-02,
          -8.62360280e-03, -5.64569049e-03, -1.19666643e-02,
          -9.47269239e-03, -1.25376522e-04, 4.81978767e-02,
          1.12026334e-02, 1.31350588e-02, 4.23671678e-03,
          -1.68966465e-02, -1.23415850e-02, -1.14645306e-02,
          -1.21885780e-02, -1.57240126e-02, 2.04231180e-02,
          -2.55134632e-03, -1.51967455e-03, -1.30527774e-02,
          -2.70161107e-02, -6.77782390e-03, -4.68119141e-03,
          3.34452325e-03, -1.19673216e-03, -1.08531183e-02,
          8.83335713e-03, 9.67248809e-03, -5.82798198e-03,
          -1.97255723e-02, -2.16803476e-02, -1.78567786e-02,
          -1.15435747e-02, 3.88784520e-03, 2.77447663e-02,
          7.74020096e-03, 8.92263371e-04, -1.57249384e-02,
          -3.21275257e-02, 2.78032641e-03, 2.19787331e-03,
          -7.73574505e-03, 1.38691021e-02, 1.32230269e-02,
          1.11004198e-02, 8.43172427e-03, -1.11983903e-03,
          -6.88713742e-03, -1.22293746e-02, -4.04807413e-03,
          3.10323061e-03, -8.55359901e-03, 1.62066985e-02,
          1.08284270e-02, 8.42904486e-03, -6.79215044e-03,
          -1.52600715e-02, 3.59133328e-03, 3.86605179e-03,
          4.71238280e-03, 5.43764909e-04, -4.80849156e-03,
          3.38914280e-04, 5.60415862e-03, 3.84582835e-03, 5.98585280e-03,
          4.72622970e-03, 1.99913257e-03, -7.32796965e-03,
          5.41534182e-03, 3.95525806e-02, 1.50701124e-02, 1.22764688e-02,
          5.05816366e-04, 5.47336647e-03, 2.52935244e-03, 2.36849068e-03,
          9.40961821e-04, -9.16959543e-04, -1.53516466e-03,
          5.02520194e-03, 8.73431191e-03, 5.14384732e-03, 1.01541020e-02,
          6.27520867e-03, 8.23350810e-03, 6.07120479e-03, 2.70682649e-05,
          -1.92127074e-03, 7.14426627e-04, 7.58740027e-03,
          1.70353346e-03, 9.38012172e-03, 0., 0., 0., -5.96430436e-05,
          -4.61100787e-03, -6.69182700e-05, 0., 0., 0., 9.69113689e-03,
          5.52837225e-03, 9.36067139e-04, -3.24268243e-03,
          1.76361564e-03, 6.83104992e-03, 1.03806537e-02, 6.55064406e-03,
          1.90625582e-02, 0., 0., 0., -7.23331104e-05, -4.77957958e-03,
          -8.39485219e-05, 0., 0., 0., 0., 0., 0., 0., 0., 0., 0., 0.,
          0., 0., 0., 0., 0., 0., 0., 0., 0., 0., 0., 0., 0., 0., 0., 0.,
          0., 0., 0., 0., 0., 0., 0., 0., 0., 0., 0., 0., 0., 0., 0., 0.,
          0., 0., 0., 0., 0., 0., 0., 0., 0., 0., 0., 0., 0., 0., 0., 0.,
          0., 0., 0., 0., 0., 0., 0., 0., 0., 0., 0., 0., 0., 0., 0., 0.,
          7.35812046e-06, 1.42344270e-05, 0., -1.36868512e-05,
          4.29489184e-04, 4.53636632e-04, 9.01698601e-04, 2.25909505e-04,
          5.23213675e-05, 2.01043263e-02, 1.21696498e-02, 3.91656999e-03,
          -7.87730678e-04, 2.85715191e-03, 8.22420139e-03,
          1.44186839e-02, 8.69944319e-03, 1.15820775e-02, 1.34802773e-04,
          1.46217062e-04, 8.02368413e-06, -4.48310639e-05,
          -5.66144846e-03, 6.52017916e-05, 1.98153255e-04,
          1.35963332e-04, 1.22053352e-04, 7.49140978e-03, 4.95144911e-03,
          1.05118635e-03, -1.89848675e-03, -1.28225191e-02,
          9.63524508e-04, 3.98501800e-03, 4.94710403e-03, 8.87378305e-03,
          1.42766964e-02, 1.15131410e-02, 3.87137476e-03,
          -4.03677626e-03, -1.28663238e-02, 1.50321401e-03,
          4.72094864e-03, 4.70417552e-03, 1.08873602e-02, 1.82488095e-02,
          1.45183085e-02, 1.67060588e-02, -1.02530578e-02,
          5.95588645e-04, -1.73843503e-02, 6.76528364e-03,
          1.83070358e-02, 1.89915691e-02, 4.33753245e-03, 4.11122944e-03,
          1.41811639e-03, -2.84309406e-03, -1.79372728e-02,
          -1.50559540e-03, 9.98897478e-04, 2.11887457e-03,
          2.80274451e-03, 1.02913221e-02, -6.34182012e-04,
          2.95190752e-04, 1.41828721e-02, 4.47190441e-02,
          -8.99673533e-03, 2.77719134e-03, 1.06863631e-02,
          1.04008196e-02, 1.49450228e-02, 4.74849576e-03, 5.69366151e-03,
          -4.72777709e-03, -7.75014050e-03, -1.45544589e-03,
          3.32856318e-03, 1.39612723e-02, 1.13566285e-02, 6.59066113e-03,
          -2.56404467e-03, -7.43720401e-03, -2.12968159e-02,
          -1.06134638e-03, 4.23330814e-03, -9.03757103e-03,
          1.38759501e-02, 1.20871700e-02, 7.60561367e-03,
          -3.51877650e-03, 5.23094554e-04, 3.25924275e-03,
          -1.13352025e-02, -6.23688335e-03, 4.71564592e-04,
          4.79765609e-03, 9.81540512e-03, -1.07851075e-02,
          -2.69511677e-02, -2.86616255e-02, -1.59216579e-02,
          -2.86752591e-03, -7.26365065e-03, -1.65652111e-02,
          5.78069873e-03, -4.93578892e-03, 2.50256527e-02,
          1.30730644e-02, 7.26946583e-03, 4.77413589e-04, 3.29585113e-02,
          4.42953827e-03, -7.60407886e-03, 9.48251504e-03,
          2.00244728e-02, 2.70444956e-02, 3.13433073e-02, 2.74471212e-02,
          -2.61312048e-03, -5.52345242e-04, -2.38095839e-02,
          -3.31585035e-02, -3.20980139e-02, 2.69973953e-03,
          4.39758832e-03, -1.40167037e-02, -1.32251251e-02,
          -8.50674137e-03, 1.13431942e-02, -7.94169307e-03,
          -1.79006588e-02, 3.19938711e-03, -4.37359232e-03,
          1.33657129e-02, 1.07900454e-02, 3.99922719e-03, 3.50875291e-03,
          1.75267626e-02, -1.35139823e-02, -3.46245170e-02,
          -3.60377468e-02, -2.32681353e-03, 3.53979580e-02,
          2.36130189e-02, 2.36000437e-02, 1.42537951e-02, 8.86032078e-03,
          -1.50220422e-02, -3.55389006e-02, -2.81701796e-02,
          1.80999041e-02, 3.04106772e-02, 6.79657422e-03, 1.47980461e-02,
          2.34948788e-02, 9.09765065e-03, -5.59273735e-03,
          -3.00899018e-02, -1.75773315e-02, 2.66789049e-02,
          2.00722478e-02, 1.60049945e-02, 1.88482907e-02, 1.68247651e-02,
          2.84854453e-02, -7.26814196e-03, -3.88691612e-02,
          -3.99950892e-02, 1.36754634e-02, 1.10638384e-02,
          -9.32527706e-04, 7.90359545e-03, 2.72447746e-02,
          2.05451529e-02, -4.08267090e-03, -5.70020527e-02,
          -4.14343886e-02, 3.76586616e-03, 2.11042240e-02,
          -2.65739160e-03, 7.82901142e-03, 2.03506537e-02,
          8.40930967e-04, -9.01010353e-03, -2.00420134e-02,
          4.93982981e-04, 3.76105867e-03, -5.00698667e-03,
          1.82421692e-02, 2.14085151e-02, 1.68538298e-02, 1.22434145e-03,
          5.35597187e-03, 2.29166169e-02, 1.19080208e-02,
          -4.26095590e-04, -1.96659332e-03, -1.00944350e-02,
          1.39919659e-02, 1.50778061e-02, -1.73437335e-02,
          -9.43099894e-03, -3.39640081e-02, -2.38082670e-02,
          -3.32194567e-02, -1.68164968e-02, 7.50673283e-03,
          2.38855667e-02, 3.48155014e-03, -8.10710993e-03,
          -2.26125997e-02, -5.45253977e-03, -1.62359059e-03,
          -1.51260281e-02, -1.26961526e-02, 1.48124825e-02,
          1.15468837e-02, 1.04540000e-02, -1.95075606e-03,
          5.87880844e-03, 1.84292365e-02, 7.51757808e-03,
          -2.39765062e-03, 4.94310167e-03, 1.27777047e-02,
          -4.55806265e-03, 1.62754841e-02, 2.80640759e-02,
          2.17166450e-02, 1.30822994e-02, 1.53890401e-02, 2.36990564e-02,
          -3.39054428e-02, -1.74178998e-03, 1.52899034e-03,
          -1.07479682e-02, -1.53696043e-02, -2.98458859e-02,
          -8.30441713e-03, 5.46715921e-04, -2.29368042e-02,
          -2.01770123e-02, -8.27823021e-03, -7.88422115e-03,
          -2.95469887e-03, 2.98186991e-04, -5.51222870e-03,
          7.92440958e-03, 1.72794592e-02, -1.33672531e-03,
          8.03524454e-04, 8.26063566e-04, -1.10824136e-02,
          -6.30248897e-03, 5.10286118e-05, 1.26869027e-02,
          1.65363792e-02, 1.88865736e-02, 1.41397342e-02, 1.01634010e-03,
          -8.85317940e-03, -1.34652406e-02, -7.16810906e-03,
          -1.08617209e-02, 6.99249143e-03, 3.61760780e-02,
          2.09234599e-02, -2.97518005e-03, -6.57275552e-03,
          -7.43050734e-03, -1.37754215e-03, -4.30374080e-03,
          -1.92930049e-03, 4.15050657e-04, 1.73469037e-02,
          1.66973006e-02, -1.05237076e-02, -6.82746572e-03,
          -1.18860733e-02, -9.79112275e-03, -2.95706675e-03,
          -2.72436207e-03, 4.40035743e-04, 1.46042425e-02,
          6.57662842e-03, -8.00539274e-03, 4.89274645e-03,
          -1.58717223e-02, -1.53976455e-02, -3.49277467e-03,
          -1.73302414e-03, 9.61225480e-03, 3.08619887e-02,
          1.41079817e-02, 2.32112384e-03, 7.53453933e-03,
          -2.70314664e-02, -1.65026281e-02, 2.68836366e-03,
          1.77131817e-02, 1.59193147e-02, 2.60327272e-02, 1.22418078e-02,
          7.83240888e-03, -6.45535067e-03, -2.96069533e-02,
          -2.68127434e-02, -6.41308073e-03, 1.85983386e-02,
          9.94632579e-03, 3.13635007e-03, -1.66049739e-03,
          -3.82307521e-03, 2.62667728e-03, -2.78610718e-02,
          -2.13685837e-02, 1.78700604e-03, 3.24236937e-02,
          2.02321019e-02, 1.92746464e-02, 9.18382965e-03,
          -2.35404470e-03, -4.70728008e-03, -2.35267580e-02,
          -1.25307655e-02, -8.25520954e-04, 9.27444175e-03,
          1.91538446e-02, 2.00637672e-02, 1.78994052e-02,
          -8.90691765e-03, -1.00589385e-02, -1.47356791e-02,
          -1.61790624e-02, 2.37091212e-03, 4.67658751e-02,
          2.10635234e-02, 1.80326793e-02, 1.20709492e-02,
          -8.68089031e-03, -1.86723955e-02, -2.90067866e-02,
          -3.05901933e-02, 7.81519990e-03, 2.70540509e-02,
          1.98671967e-02, 2.28746124e-02, 1.38520496e-02,
          -8.36775173e-03, -3.27717140e-02, -2.68098209e-02,
          -2.17996184e-02, 2.33531487e-03, 4.08913754e-02,
          1.25155235e-02, 1.30316624e-02, 9.25317779e-03,
          -1.71891414e-02, -2.12007407e-02, -1.61803346e-02,
          -2.43190043e-02, -3.33003397e-03, 4.52509709e-02,
          4.96680988e-03, -2.87925801e-03, -1.19124437e-02,
          -2.39255391e-02, 3.00389039e-03, 1.74441433e-03,
          -1.37848696e-02, 1.21779619e-02, 1.71555169e-02,
          3.40265222e-03, -5.76331840e-05, -4.23645761e-05,
          -2.47713481e-03, -3.08626574e-02, -2.28514392e-02,
          -2.51001474e-02, -6.29470032e-03, 2.32594032e-02,
          -2.20334791e-02, -7.25987460e-03, -8.88307299e-03,
          -3.61784920e-02, -1.15233888e-04, -4.88453032e-03,
          -4.85423021e-03, 4.05683927e-03, -2.19965167e-03,
          -1.45394020e-02, -6.10655779e-03, -3.37383756e-03,
          -5.25049679e-03, 1.30705517e-02, -6.26301975e-04,
          -1.29148075e-02, 5.80532569e-03, 6.34814473e-03,
          6.19436381e-03, 1.14164641e-03, 2.92982068e-03, 5.82261616e-03,
          4.90203919e-03, 2.27721245e-03, 1.17646344e-03,
          -9.42681727e-05, -2.94242497e-03, 7.52072316e-03,
          1.13914609e-02, 1.00908754e-02, 1.29908435e-02, 1.26029709e-02,
          -7.87656195e-03, -9.22344811e-03, -1.56936538e-03,
          3.83974202e-02, -8.18574149e-03, -3.91546730e-03,
          -2.11224193e-03, 6.58407516e-04, 4.53904271e-03,
          1.66261347e-03, 2.89197778e-04, -1.70705025e-03,
          -1.28110256e-02, -4.25820064e-04, 2.35260837e-03,
          2.94133998e-03, 3.01693240e-03, 8.92666262e-03, 1.77122722e-03,
          6.50319038e-04, -2.31919717e-03, 6.71051862e-03,
          8.14461522e-03, 1.18737752e-02, 1.28518706e-02, 1.91296358e-02,
          0., 0., 0., -7.21277902e-05, -3.70333041e-03, -6.40138169e-05,
          0., 0., 0., 4.94503509e-03, 1.87770044e-03, 2.07931316e-03,
          -4.20556229e-04, -9.07545164e-03, 3.40762170e-04,
          4.19486500e-03, 4.49337205e-03, 3.73446778e-03, 0., 0., 0.,
          -5.49055512e-05, -5.55628678e-03, -7.52728447e-05, 0., 0., 0.,
          0., 0., 0., 0., 0., 0., 0., 0., 0., 0., 0., 0., 0., 0., 0., 0.,
          0., 0., 0., 0., 0., 0., 0., 0., 0., 0., 0., 0., 0., 0., 0., 0.,
          0., 0., 0., 0., 0., 0., 0., 0., 0., 0., 0., 0., 0., 0., 0., 0.,
          0., 0., 0., 0., 0., 0., 0., 0., 0., 0., 0., 0., 0., 0., 0., 0.,
          0., 0., 0., 0., 0., 0., 0., 0., 1.31318418e-04, 1.39618336e-04,
          1.71879685e-04, 1.36548028e-04, -2.64710817e-03,
          1.77115944e-04, 0., 6.11746100e-06, 6.02908549e-05,
          5.47521561e-03, 4.10910044e-03, 3.96130048e-03, 1.29625422e-03,
          -7.04834412e-04, 2.39233230e-03, 7.50060077e-04,
          3.99055798e-03, 6.46113418e-03, 4.89520608e-06, 7.33811066e-06,
          2.38388311e-04, 1.83470765e-04, -8.14871164e-04,
          3.16113612e-04, 1.04918443e-04, 0., 0., 4.60394053e-03,
          6.27356395e-03, 9.28979553e-03, 4.40292340e-03, 8.88140779e-03,
          5.75406384e-03, 3.82821588e-03, 3.00177466e-03, 3.79829551e-03,
          3.51008261e-03, 4.13136091e-03, 3.11323558e-03,
          -8.56805535e-04, -1.27827907e-02, -1.00810430e-03,
          3.84927494e-04, 5.46495104e-03, 4.22686012e-03, 9.41480510e-03,
          7.54073914e-03, 1.86819036e-03, 1.04328925e-02, 4.56661396e-02,
          -9.32056271e-03, -2.99421349e-03, 1.32697523e-02,
          1.55134276e-02, 4.73057711e-03, 7.23905489e-03, 7.25442683e-03,
          2.13410100e-03, -4.42169001e-03, 1.22420513e-03,
          1.67642150e-03, 4.80011571e-03, 5.44324890e-03, 9.14895069e-03,
          1.40734939e-02, 7.46768434e-03, 2.89640808e-03, 2.80608088e-02,
          -8.79005063e-03, -1.31064681e-02, 1.40745938e-02,
          1.60622355e-02, 8.65945965e-03, 5.37048699e-03, 4.15500067e-03,
          5.55770751e-03, -1.01605686e-03, -6.94142608e-03,
          -3.46854609e-03, 3.69074079e-03, 1.11338338e-02,
          -6.13539526e-03, -9.67194326e-03, -4.44778474e-03,
          -1.76142645e-03, 1.52312582e-02, -9.44340881e-03,
          -1.38307987e-02, -1.82176288e-03, -8.88256636e-03,
          2.35249056e-03, 1.35399876e-02, 6.94724964e-03,
          -3.09263146e-03, 1.62380596e-03, -4.36409051e-03,
          -1.43233053e-02, -3.01248813e-03, 1.18684594e-03,
          -8.65600165e-03, 8.65510385e-03, -2.84416345e-03,
          -1.00601530e-02, 2.07259730e-02, -1.97248086e-02,
          -3.51600312e-02, -2.06136052e-02, -2.22630464e-02,
          -7.78244575e-03, -6.70278305e-03, 3.57726763e-04,
          -8.81594792e-03, 9.48941242e-03, -9.97867435e-03,
          -9.36990883e-03, -4.12357645e-03, -1.28328083e-02,
          2.91124149e-03, 8.85198358e-03, 1.46503393e-02, 6.38122484e-03,
          1.30783571e-02, -1.48198819e-02, -2.01153457e-02,
          -2.85202730e-02, 3.97686352e-04, -1.47782154e-02,
          -5.11316676e-03, -1.04395756e-02, -6.44759228e-03,
          2.76247635e-02, 5.05712675e-03, -4.32873331e-03,
          -1.53711671e-02, -1.84801053e-02, -9.21825040e-03,
          2.79483199e-03, 2.65584444e-03, 5.27895987e-03, 2.94230673e-02,
          2.01252643e-02, -6.10121898e-03, -8.53704195e-03,
          -1.68638665e-03, 1.03538278e-02, 2.06544623e-02,
          1.78296715e-02, 1.44329965e-02, 2.68895365e-02, 3.69011099e-03,
          -2.94184424e-02, -3.13753262e-02, 1.10426135e-02,
          -4.61012498e-03, 5.80718834e-03, 1.41435871e-02,
          1.80716701e-02, 2.65748650e-02, -6.17002882e-03,
          -5.57612889e-02, -4.98567410e-02, -2.68326588e-02,
          1.12139946e-02, 1.44601241e-02, 1.12501197e-02, 1.01433564e-02,
          3.08288839e-02, 1.79839041e-02, -6.21813489e-03,
          -5.50547568e-03, 1.51536148e-02, 1.83838587e-02,
          1.18093705e-02, 1.19344760e-02, 2.26001944e-02, 2.95328870e-02,
          -9.23214946e-03, -2.31800713e-02, -1.75456051e-02,
          -4.45577735e-03, -1.86514179e-03, -3.31886043e-03,
          2.01334469e-02, 2.23961901e-02, 5.31412289e-03,
          -8.86847358e-03, -3.78100909e-02, -2.58141048e-02,
          -2.74590161e-02, -6.15120772e-03, 1.09063899e-02,
          2.80914679e-02, 2.32541319e-02, 1.73764222e-03,
          -1.18629234e-02, -1.23464242e-02, -3.24243424e-03,
          -1.32721150e-02, 1.29667167e-02, 1.43081183e-03,
          1.93035007e-02, 2.54284479e-02, 2.25450639e-02,
          -1.75113585e-02, -2.13923529e-02, -1.23614902e-02,
          -1.17902579e-02, -5.78668108e-03, 1.11501170e-02,
          2.01018751e-02, 1.89836212e-02, 3.02948244e-02,
          -1.15266042e-02, 6.30887575e-04, -4.81506251e-03,
          -5.59979305e-03, -2.19061393e-02, 1.09772692e-02,
          3.16055934e-03, 1.76325184e-03, -9.30812024e-03,
          -1.58763435e-02, -8.01398139e-03, -2.35947943e-03,
          -1.52182793e-02, -4.47872793e-03, 1.00323949e-02,
          5.20743895e-03, 2.72039138e-03, 1.14003308e-02, 8.22082534e-03,
          1.96296554e-02, 1.42364474e-02, -6.95760082e-03,
          -1.81115903e-02, 7.40701705e-03, 6.53179176e-03,
          -5.16449846e-03, 3.14117335e-02, -4.00275690e-03,
          8.69392592e-04, -1.88347660e-02, -1.22423060e-02,
          4.93183406e-03, 2.52812244e-02, 1.29864793e-02,
          -1.35983573e-02, 2.92882770e-02, 1.96135603e-02,
          1.06723774e-02, -1.42061152e-02, -5.36039937e-03,
          -1.25251594e-03, 3.24746338e-03, 6.62717735e-03,
          -5.18584857e-03, -1.01845087e-02, -1.77664787e-03,
          1.18821068e-02, 9.93076339e-03, -1.11472830e-02,
          8.85457359e-03, -1.01921065e-02, -1.36899902e-02,
          -1.03423735e-02, -1.48994336e-02, -8.18743662e-04,
          9.98756476e-03, 1.01177907e-02, 7.20405672e-03, 1.14613790e-02,
          2.38094032e-02, 4.00907453e-03, -2.77688988e-02,
          -5.13961865e-03, 3.22209555e-04, 8.55051167e-03,
          -6.36022771e-04, 2.17397421e-04, 2.41144616e-02,
          1.11573422e-02, -8.83440766e-03, -1.80490576e-02,
          -9.95615404e-03, 6.21419167e-03, 2.41990425e-02,
          1.71221476e-02, 1.43501461e-02, -1.03051411e-02,
          -3.04101594e-02, -3.82622890e-02, -5.17159980e-03,
          -9.81309172e-03, 9.92943067e-04, -2.82584317e-03,
          2.23530619e-03, 5.40687295e-04, -1.13410922e-02,
          -2.16954593e-02, -2.66491305e-02, 8.98658391e-03,
          3.85969095e-02, 1.65084004e-02, 1.36523498e-02, 9.38968547e-03,
          -5.86893549e-03, 2.52082553e-02, -9.44126223e-04,
          -2.63479259e-02, -1.16664935e-02, -1.05548715e-02,
          5.54098515e-03, 2.46761646e-02, 1.57552231e-02, 1.23186512e-02,
          2.65614465e-02, 5.75526198e-03, -1.54244276e-02,
          7.39547936e-03, 2.11469587e-02, 1.21624963e-02, 1.96801517e-02,
          2.12870967e-02, 2.13811379e-02, -4.30649631e-02,
          -3.55750546e-02, -3.88017632e-02, 8.64420645e-03,
          4.05237935e-02, 1.44385621e-02, 1.55222407e-02, 1.05040465e-02,
          -2.23137755e-02, -4.62739915e-02, -3.23867425e-02,
          -3.69920768e-02, 1.95728685e-03, 1.68018285e-02,
          1.85798015e-03, 1.36962738e-02, 8.37419555e-03,
          -2.72153933e-02, -5.08914329e-03, -2.22213455e-02,
          -1.31857991e-02, 2.19818410e-02, 4.06560637e-02,
          1.52744241e-02, 1.41597781e-02, 1.94068532e-02, 1.05628306e-02,
          -3.80865508e-03, -9.56817530e-03, -1.11659868e-02,
          1.59318484e-02, 2.21453495e-02, 1.44319152e-02, 1.57509372e-02,
          1.43913468e-02, 1.27446344e-02, -2.46442650e-02,
          -1.03122834e-02, -1.99863706e-02, -9.43221152e-03,
          7.66338455e-03, -2.14031767e-02, -2.50525889e-04,
          7.53241125e-03, -2.11056676e-02, 3.08157201e-03,
          -2.78190919e-03, 2.15570349e-03, -6.00752304e-04,
          -1.80975199e-02, -9.54885688e-03, -1.00361962e-04,
          2.87111173e-03, 2.01760116e-03, -4.35244292e-03,
          -2.09303759e-03, -1.31307701e-02, -3.31732631e-03,
          5.32097043e-03, 4.28432738e-03, 3.99284204e-03, 1.55224670e-02,
          2.70893588e-03, 6.43426785e-04, -9.88500891e-04,
          -2.66230595e-03, -5.82149206e-03, -1.76826064e-02,
          1.08902864e-02, 8.01177602e-03, 8.18413217e-03, 4.46266122e-03,
          6.02153642e-03, -1.79450226e-03, 2.12697126e-03,
          1.19138171e-03, 2.78746206e-02, -2.15013730e-04,
          1.89747242e-03, -1.51573133e-03, -2.49441975e-04,
          1.04185119e-02, 4.38033091e-03, 2.15735659e-03,
          -2.13434175e-03, -1.29663963e-02, 7.65369216e-04,
          1.95563468e-03, 6.32443000e-04, 3.17141181e-03, 4.28007962e-03,
          9.31977935e-04, 2.01812116e-04, -8.49207770e-03,
          2.42496822e-02, 1.15601085e-02, 1.11499252e-02, 3.10749188e-03,
          -8.34335387e-03, 1.40051730e-02, 4.15213639e-03,
          1.06750149e-03, -7.19195988e-04, -9.57267080e-03,
          4.52456006e-04, 4.97598434e-03, 1.77824113e-03, 6.52155606e-03,
          1.59169771e-02, 6.15286315e-03, 5.82827721e-03,
          -3.40148661e-04, -9.63634928e-04, 1.91371271e-03,
          2.99454224e-03, 3.28368763e-03, 3.91326938e-03, 0., 0., 0.,
          -7.61905685e-05, -4.09533689e-03, -6.45877080e-05, 0., 0., 0.,
          2.22698748e-02, 6.26699161e-03, 3.91358603e-03,
          -4.08199367e-06, -8.76300503e-04, 1.65492971e-03,
          4.04629670e-03, 3.18172993e-03, 6.05616113e-03, 0., 0., 0.,
          -8.17910986e-05, -5.15988842e-03, -7.26992148e-05, 0., 0., 0.,
          0., 0., 0., 0., 0., 0., 0., 0., 0., 0., 0., 0., 0., 0., 0., 0.,
          0., 0., 0., 0., 0., 0., 0., 0., 0., 0., 0., 0., 0., 0., 0., 0.,
          0., 0., 0., 0. ]
   uncompressed_sv_total: 21
   uncompressed_support_vectors:
      - [ 0., 0., 0., 0., 0., 0., 0., 0., 0., 0., 0., 0., 0., 0., 0., 0.,
          0., 0., 0., 0., 0., 0., 0., 0., 0., 0., 0., 0., 0., 0., 0., 0.,
          0., 0., 0., 0., 0., 0., 0., 0., 0., 0., 0., 0., 0., 0., 0., 0.,
          0., 0., 0., 0., 0., 0., 0., 0., 0., 0., 0., 0., 0., 0., 0., 0.,
          0., 0., 0., 0., 0., 0., 0., 0., 0., 0., 0., 0., 0., 0., 0., 0.,
          0., 3.71148344e-04, 1.76208350e-03, 1.81935995e-03,
          1.42226657e-02, 7.04218447e-01, 8.91183037e-03, 2.13495875e-03,
          2.77835457e-03, 6.26553083e-04, 0., 0., 0., 0., 0., 0., 0., 0.,
          0., 1.29604561e-03, 1.89489964e-03, 1.22211059e-03,
          2.60617323e-02, 7.04218447e-01, 1.12358453e-02, 2.78791622e-03,
          9.64298204e-04, 1.05545239e-03, 5.99147147e-03, 8.28600861e-03,
          5.78300375e-03, 1.93388816e-02, 6.15813673e-01, 1.27469804e-02,
          6.26477273e-03, 9.41754971e-03, 5.67587558e-03, 1.85293648e-02,
          1.26077766e-02, 1.45817390e-02, 1.19285043e-02, 2.82159477e-01,
          7.71868182e-03, 1.02826916e-02, 1.23224370e-02, 1.56585947e-02,
          9.26431641e-03, 7.20392400e-03, 5.29375952e-03, 3.05841994e-02,
          6.15813673e-01, 1.96598209e-02, 8.15764721e-03, 5.08146593e-03,
          7.57831754e-03, 2.87777819e-02, 2.33997609e-02, 1.84071288e-02,
          1.61947198e-02, 3.85090679e-01, 1.84420552e-02, 1.38769243e-02,
          1.02181192e-02, 3.13733146e-02, 8.58387537e-03, 4.02471516e-03,
          1.02403173e-02, 2.56042019e-03, 1.00232568e-02, 1.99752953e-03,
          2.67629279e-03, 2.49328231e-03, 7.98368547e-03, 6.91450015e-02,
          1.32954746e-01, 4.44585890e-01, 3.00174821e-02, 1.63506456e-02,
          1.09831700e-02, 1.36736948e-02, 5.73943276e-03, 4.67203744e-02,
          1.04715778e-02, 2.23457098e-01, 2.98370153e-01, 2.21329648e-02,
          1.05932280e-01, 4.56994697e-02, 1.28804855e-02, 4.72945115e-03,
          2.46328469e-02, 8.68749246e-02, 5.19603014e-01, 5.19603014e-01,
          1.21995993e-01, 1.74630061e-01, 1.13868386e-01, 3.92262638e-02,
          1.33231012e-02, 9.68312025e-02, 8.25214162e-02, 1.36574671e-01,
          3.04584920e-01, 6.23763092e-02, 3.30321910e-03, 3.20160994e-03,
          2.13793181e-02, 8.05354863e-02, 8.12597647e-02, 1.42021611e-01,
          2.05540493e-01, 3.04584920e-01, 2.39619970e-01, 5.76440571e-03,
          3.98816599e-04, 3.43316831e-02, 2.41097510e-01, 3.04584920e-01,
          8.53536353e-02, 3.04584920e-01, 3.04584920e-01, 8.21122378e-02,
          3.75369117e-02, 2.14189906e-02, 2.16555446e-02, 6.51964918e-02,
          1.13488890e-01, 1.01915218e-01, 1.71613201e-01, 3.04584920e-01,
          1.76291212e-01, 7.48305321e-02, 3.49860080e-02, 2.32507326e-02,
          1.46768421e-01, 2.91398376e-01, 2.86056936e-01, 1.88170865e-01,
          2.95931309e-01, 2.81898081e-01, 9.18667670e-03, 9.94030619e-04,
          3.62244360e-02, 1.99261546e-01, 2.95931309e-01, 2.95931309e-01,
          1.07552893e-01, 1.99876249e-01, 7.52987117e-02, 1.20346658e-02,
          2.75222491e-03, 5.07573411e-02, 1.15001313e-01, 2.95931309e-01,
          9.55168605e-02, 5.60188256e-02, 1.66420937e-01, 1.40336484e-01,
          9.25839245e-02, 2.96602529e-02, 1.05897188e-02, 8.21694583e-02,
          2.73300737e-01, 1.99183390e-01, 4.13858928e-02, 6.34405538e-02,
          4.43690158e-02, 2.21611708e-01, 3.57157402e-02, 1.30202295e-02,
          2.79349834e-02, 2.93965101e-01, 3.12449783e-01, 1.39066353e-01,
          2.69891284e-02, 6.24012155e-03, 1.03963008e-02, 2.62359530e-03,
          2.26826239e-02, 1.24067970e-01, 3.12449783e-01, 3.12449783e-01,
          2.46710271e-01, 1.39934197e-02, 8.63210671e-03, 3.75675857e-02,
          1.68389771e-02, 1.96500674e-01, 3.12449783e-01, 3.12449783e-01,
          1.97299227e-01, 3.69210429e-02, 2.51768474e-02, 2.29529198e-02,
          2.05588207e-01, 3.99089232e-02, 1.72346774e-02, 3.29831541e-02,
          2.65921891e-01, 2.43050784e-01, 2.29170118e-02, 7.48733152e-03,
          1.46738421e-02, 2.72808075e-01, 1.81000903e-02, 4.35743779e-02,
          1.39235839e-01, 2.40549013e-01, 2.77299166e-01, 8.49936381e-02,
          1.31777665e-02, 4.83309338e-03, 3.03355586e-02, 2.61873435e-02,
          2.80897439e-01, 2.89781630e-01, 2.56457418e-01, 2.17903405e-01,
          3.87066156e-02, 7.92024285e-03, 2.07165368e-02, 1.98196396e-02,
          3.61551605e-02, 2.89781630e-01, 2.89781630e-01, 1.87592164e-01,
          1.95351869e-01, 1.22561175e-02, 6.46775216e-03, 1.55840237e-02,
          2.00405672e-01, 2.13639718e-02, 1.21079423e-01, 2.35004500e-01,
          1.96142897e-01, 1.39781058e-01, 2.09364425e-02, 1.07239531e-02,
          4.04572263e-02, 9.48495865e-02, 7.67001435e-02, 2.89781630e-01,
          2.89781630e-01, 1.89987168e-01, 1.33957952e-01, 4.16805781e-02,
          3.80981807e-03, 2.82152444e-02, 1.71406679e-02, 2.15056203e-02,
          3.44725221e-01, 3.44725221e-01, 1.37106478e-01, 4.54637855e-02,
          2.45541856e-02, 3.78298340e-03, 1.12682432e-02, 9.24282707e-03,
          1.74035318e-02, 2.55032152e-01, 1.63416967e-01, 1.06887177e-01,
          1.19699515e-01, 3.09773218e-02, 1.89280864e-02, 3.64499316e-02,
          8.99843797e-02, 2.18453974e-01, 3.44725221e-01, 3.44725221e-01,
          1.52727410e-01, 5.18318526e-02, 2.06851196e-02, 2.06995737e-02,
          8.27784836e-03, 4.13039364e-02, 1.72010496e-01, 3.44725221e-01,
          3.44725221e-01, 7.81058297e-02, 6.50144741e-02, 2.53550485e-02,
          1.74318179e-02, 1.98199991e-02, 3.42532583e-02, 5.99242859e-02,
          3.13582897e-01, 2.57296622e-01, 1.68334186e-01, 2.20559314e-02,
          1.02136675e-02, 2.25133467e-02, 1.85763165e-02, 4.86305952e-02,
          9.15936008e-02, 1.17055371e-01, 1.78401858e-01, 9.35254097e-02,
          6.92562908e-02, 1.89085603e-02, 1.99085418e-02, 1.54107902e-02,
          6.98058978e-02, 1.72658086e-01, 3.87502342e-01, 3.87502342e-01,
          1.87735364e-01, 2.26358324e-02, 6.02429686e-03, 1.49999848e-02,
          2.24993508e-02, 5.36171049e-02, 1.69891804e-01, 3.87502342e-01,
          3.78087938e-01, 1.55865684e-01, 2.10056268e-02, 1.14368042e-02,
          2.68304478e-02, 1.31995708e-01, 2.08718881e-01, 1.85579434e-01,
          2.14078873e-01, 2.86254793e-01, 1.23490423e-01, 1.23086283e-02,
          8.22094548e-03, 2.11560540e-02, 2.03752831e-01, 3.69130135e-01,
          7.68715665e-02, 9.87515897e-02, 1.02254972e-01, 3.17397229e-02,
          4.46989425e-02, 1.83178317e-02, 3.50426026e-02, 9.15669277e-02,
          1.35009453e-01, 2.15040267e-01, 3.69130135e-01, 3.69130135e-01,
          2.54480481e-01, 2.46938951e-02, 2.98799258e-02, 4.32569347e-02,
          8.08022618e-02, 2.50976175e-01, 8.18594471e-02, 1.95862919e-01,
          1.21685334e-01, 6.75006807e-02, 6.98039727e-03, 9.67507344e-03,
          2.50889491e-02, 2.39457026e-01, 8.37966383e-01, 3.53249386e-02,
          3.64043601e-02, 1.78033151e-02, 6.12121820e-03, 0., 0., 0., 0.,
          0., 0., 0., 0., 0., 1.56551655e-02, 3.55818197e-02,
          4.91472967e-02, 7.09667057e-02, 4.57609057e-01, 4.29244116e-02,
          7.44013265e-02, 2.47319713e-02, 1.53845809e-02, 0., 0., 0., 0.,
          0., 0., 0., 0., 0., 0., 0., 0., 0., 0., 0., 0., 0., 0., 0., 0.,
          0., 0., 0., 0., 0., 0., 0., 0., 0., 0., 0., 0., 0., 0., 0., 0.,
          0., 0., 0., 0., 0., 0., 0., 0., 0., 0., 0., 0., 0., 0., 0., 0.,
          0., 0., 0., 0., 0., 0., 0., 0., 0., 0., 0., 0., 0., 0., 0., 0.,
          0., 0., 0., 0., 0., 0., 0., 0., 0., 0., 0., 0., 0., 0., 0., 0.,
          0., 0., 0., 0., 0., 0., 0., 0., 0., 0., 0., 0., 0., 0., 0., 0.,
          0., 0., 0., 0., 0., 0., 0., 0., 0., 0., 0., 0., 0., 0., 0., 0.,
          0., 0., 0., 0., 0., 0., 0., 0., 0., 0., 0., 0., 0., 0., 0., 0.,
          0., 0., 0., 0., 0., 0., 0., 0., 0., 0., 0., 0., 0., 0., 0., 0.,
          0., 0., 0., 0., 0., 0., 0., 0., 0., 0., 0., 0., 0., 0.,
          1.36258313e-03, 5.14724641e-04, 6.84163184e-04, 1.86497662e-02,
          7.03849018e-01, 1.17494455e-02, 2.55641108e-03, 6.52760791e-04,
          1.20243477e-03, 0., 0., 0., 0., 0., 0., 0., 0., 0.,
          3.51468124e-03, 4.73677227e-03, 2.56436062e-03, 3.88111249e-02,
          7.03849018e-01, 1.04598273e-02, 8.82653170e-04, 8.97985534e-04,
          3.41070839e-03, 3.98195907e-03, 1.31242513e-03, 1.55792595e-03,
          1.02167502e-02, 3.76589179e-01, 1.08547946e-02, 3.85114900e-03,
          2.29562540e-03, 4.18903679e-03, 1.28943725e-02, 7.52742514e-02,
          1.16263762e-01, 7.70109147e-02, 2.48561710e-01, 4.68651950e-02,
          5.43085253e-03, 4.49015805e-03, 2.13907138e-02, 6.63990201e-03,
          1.06473425e-02, 5.79181360e-03, 2.37191673e-02, 3.76589179e-01,
          1.12925293e-02, 1.55662466e-03, 4.28809365e-03, 6.76468061e-03,
          2.08433494e-02, 3.76589179e-01, 2.92383850e-01, 3.24424714e-01,
          3.76589179e-01, 3.76589179e-01, 6.69420362e-02, 7.41305342e-03,
          2.08752882e-02, 3.45243490e-03, 2.15738550e-01, 2.69963741e-01,
          5.95715567e-02, 1.30862921e-01, 9.60588977e-02, 1.25550935e-02,
          9.58031043e-04, 1.02005098e-02, 2.38502026e-02, 2.80100197e-01,
          2.80100197e-01, 9.50489789e-02, 1.65990889e-01, 1.49669424e-01,
          3.42415534e-02, 6.32797834e-03, 1.53007377e-02, 1.11382259e-02,
          2.80100197e-01, 2.80100197e-01, 1.93820328e-01, 2.80100197e-01,
          2.58498758e-01, 4.56508212e-02, 4.30886546e-04, 5.62344026e-03,
          3.71654816e-02, 2.80100197e-01, 2.80100197e-01, 1.96480155e-01,
          2.20516056e-01, 1.96341172e-01, 5.78257740e-02, 1.24008618e-02,
          1.08139524e-02, 1.06385581e-01, 2.94690490e-01, 2.94690490e-01,
          1.24277838e-01, 2.13188887e-01, 1.07934326e-01, 7.88275748e-02,
          4.20511663e-02, 1.18813179e-01, 1.50401354e-01, 8.27993378e-02,
          2.01664492e-01, 7.61756375e-02, 2.94690490e-01, 1.65361300e-01,
          4.56910953e-02, 5.78562468e-02, 2.94690490e-01, 1.78484753e-01,
          1.18369535e-01, 1.97451726e-01, 2.05401361e-01, 2.70468920e-01,
          1.54602453e-01, 1.08549930e-01, 6.47427291e-02, 1.36504799e-01,
          1.58248708e-01, 1.62028316e-02, 1.91523936e-02, 6.64923266e-02,
          2.58594751e-01, 1.33025497e-01, 4.05296348e-02, 5.87965846e-02,
          2.37758189e-01, 1.30066440e-01, 2.73511373e-02, 3.91202495e-02,
          4.89322804e-02, 3.21940631e-01, 1.37331188e-01, 7.88717065e-03,
          3.12668905e-02, 2.31627792e-01, 3.42297614e-01, 7.60615915e-02,
          4.44437526e-02, 8.88937488e-02, 3.42297614e-01, 1.87222421e-01,
          4.88114245e-02, 4.46566567e-02, 3.42297614e-01, 6.48852661e-02,
          7.74055999e-03, 9.45440680e-03, 1.65733788e-02, 1.61557972e-01,
          7.27333874e-02, 5.56811737e-03, 1.86337512e-02, 1.04791559e-01,
          3.22722793e-01, 6.95235059e-02, 3.53573225e-02, 6.57574162e-02,
          3.42297614e-01, 1.16421677e-01, 3.24586630e-02, 2.17050072e-02,
          3.11463654e-01, 3.38585675e-01, 9.35848653e-02, 3.15581709e-02,
          8.26031417e-02, 3.38585675e-01, 2.09272623e-01, 7.88667351e-02,
          3.37536037e-02, 3.38585675e-01, 1.88304171e-01, 1.75493006e-02,
          6.89621875e-03, 1.63654126e-02, 3.38585675e-01, 4.36104238e-02,
          2.69977059e-02, 1.67586692e-02, 2.17599660e-01, 2.92588472e-01,
          1.02605738e-01, 2.87063234e-02, 7.40885213e-02, 3.38585675e-01,
          1.11793689e-01, 5.45242131e-02, 2.34210715e-02, 3.34020495e-01,
          1.20754339e-01, 5.30349351e-02, 7.05189584e-03, 7.91895576e-03,
          1.07377470e-01, 1.94310620e-02, 2.78449710e-02, 1.48928305e-02,
          9.42953750e-02, 2.04447970e-01, 1.22767054e-02, 1.23831658e-02,
          4.87525910e-02, 2.71823108e-01, 3.15635726e-02, 4.52239215e-02,
          4.19643857e-02, 2.24000216e-01, 2.71823108e-01, 2.74347477e-02,
          5.25172241e-02, 1.70349434e-01, 2.71823108e-01, 1.97526097e-01,
          2.71823108e-01, 2.71823108e-01, 2.71823108e-01, 1.60983771e-01,
          5.38846701e-02, 1.82361025e-02, 5.14347404e-02, 1.87158391e-01,
          2.74223387e-02, 3.46509032e-02, 4.90130223e-02, 1.52197793e-01,
          2.66387373e-01, 7.29456544e-02, 1.21969730e-01, 1.58953920e-01,
          2.71823108e-01, 7.65626729e-02, 9.92359519e-02, 9.32520479e-02,
          2.71823108e-01, 9.60177705e-02, 8.38075764e-03, 2.46602409e-02,
          4.78469059e-02, 1.68381378e-01, 2.61336833e-01, 2.90395617e-01,
          2.88051695e-01, 1.21007793e-01, 1.64893325e-02, 6.06342498e-03,
          1.63860191e-02, 2.36758702e-02, 1.31219521e-01, 2.90395617e-01,
          2.90395617e-01, 2.80721605e-01, 1.38554182e-02, 9.57290977e-02,
          1.08393887e-02, 3.82691026e-02, 6.18206970e-02, 1.96071118e-01,
          1.05936252e-01, 1.77464262e-01, 8.18829611e-02, 9.81717408e-02,
          7.45415092e-02, 2.78089824e-03, 7.15379268e-02, 1.11839719e-01,
          2.90395617e-01, 2.90395617e-01, 2.90395617e-01, 2.16778561e-01,
          7.11428672e-02, 1.18963839e-02, 4.61932505e-03, 1.28468629e-02,
          1.43097276e-02, 1.07547753e-01, 2.46822864e-01, 2.95864314e-01,
          2.75880069e-01, 1.78769864e-02, 4.87907790e-03, 1.53084414e-03,
          8.96385312e-03, 5.42943319e-03, 5.76744601e-02, 1.86466277e-01,
          2.95864314e-01, 2.21669108e-01, 3.14630345e-02, 4.40343395e-02,
          3.98095418e-03, 9.11715254e-02, 9.86351594e-02, 2.95864314e-01,
          2.95864314e-01, 2.95864314e-01, 2.15587035e-01, 6.34833351e-02,
          2.32973602e-03, 2.97301682e-03, 1.97043549e-02, 2.27202289e-02,
          1.80765882e-01, 2.95864314e-01, 2.95864314e-01, 2.05609858e-01,
          1.04885614e-02, 1.87375098e-02, 4.18614270e-03, 7.38221966e-03,
          2.73841973e-02, 9.86384824e-02, 2.49075085e-01, 3.64313155e-01,
          2.40493968e-01, 9.06687304e-02, 1.49100879e-02, 6.72507379e-03,
          7.68823130e-03, 2.15517525e-02, 1.15419969e-01, 8.08827952e-02,
          1.44549027e-01, 4.84155975e-02, 3.68061922e-02, 7.81162875e-03,
          1.86523225e-03, 9.02197510e-03, 4.03238311e-02, 3.07597071e-01,
          3.64313155e-01, 3.64313155e-01, 3.18216532e-01, 1.93204451e-02,
          5.05861174e-03, 1.90326929e-04, 7.22577272e-04, 2.98941471e-02,
          2.80030549e-01, 2.58689553e-01, 2.59399474e-01, 4.70645465e-02,
          1.25500783e-02, 2.14019231e-02, 1.42557463e-02, 1.40052717e-02,
          8.54099542e-03, 3.52163136e-01, 1.08291768e-01, 1.23908676e-01,
          1.31835369e-02, 2.88898926e-02, 0., 0., 0., 0., 0., 0., 0., 0.,
          0., 4.78660269e-03, 0., 0., 4.01805565e-02, 8.45333338e-01,
          2.97558457e-01, 1.78304419e-01, 7.23617757e-03, 1.52625339e-02,
          0., 0., 0., 0., 0., 0., 0., 0., 0., 0., 0., 0., 0., 0., 0., 0.,
          0., 0., 0., 0., 0., 0., 0., 0., 0., 0., 0., 0., 0., 0., 0., 0.,
          0., 0., 0., 0., 0., 0., 0., 0., 0., 0., 0., 0., 0., 0., 0., 0.,
          0., 0., 0., 0., 0., 0., 0., 0., 0., 0., 0., 0., 0., 0., 0., 0.,
          0., 0., 0., 0., 0., 0., 0., 0., 0., 0., 0., 0., 0., 0., 0., 0.,
          0., 0., 0., 0., 0., 0., 0., 0., 0., 0., 0., 0., 0., 0., 0., 0.,
          0., 0., 0., 0., 0., 0., 0., 0., 0., 0., 0., 0., 0., 0., 0., 0.,
          0., 0., 0., 0., 0., 0., 0., 0., 0., 0., 0., 0., 0., 0., 0., 0.,
          0., 0., 0., 0., 0., 0., 0., 0., 0., 0., 0., 0., 0., 0., 0., 0.,
          0., 0., 0., 0., 0., 0., 0., 0., 0., 0., 0., 0., 0., 0., 0., 0.,
          0., 0., 6.04929291e-02, 1.91684496e-02, 7.15656579e-03,
          8.08210075e-02, 5.36567867e-01, 3.02772950e-02, 8.13551545e-02,
          5.03682196e-02, 8.10593367e-03, 0., 0., 0., 0., 0., 0., 0., 0.,
          0., 3.17784190e-01, 1.36696279e-01, 1.25009835e-01,
          1.32263511e-01, 5.36567867e-01, 1.18485540e-01, 3.41008067e-01,
          3.08396190e-01, 1.40911445e-01, 4.06586863e-02, 1.82249881e-02,
          1.10105984e-02, 2.60576643e-02, 2.67697513e-01, 1.87912323e-02,
          2.79235411e-02, 1.89770795e-02, 1.67659633e-02, 1.07981510e-01,
          2.87965387e-01, 1.33366585e-01, 1.08264282e-01, 2.87965387e-01,
          2.87965387e-01, 7.34554604e-02, 2.63026915e-02, 2.79690567e-02,
          1.47892714e-01, 7.78069794e-02, 5.29535115e-02, 7.04357177e-02,
          2.69112349e-01, 1.24538407e-01, 1.43229082e-01, 1.07854754e-01,
          9.72404778e-02, 2.58843333e-01, 2.87965387e-01, 1.43531546e-01,
          1.95040733e-01, 2.87965387e-01, 2.87965387e-01, 2.17491210e-01,
          1.43566757e-01, 1.28597364e-01, 7.40164816e-02, 2.84839183e-01,
          1.96669653e-01, 1.80114955e-01, 2.84839183e-01, 2.84839183e-01,
          9.73147377e-02, 1.13419835e-02, 6.65630586e-03, 6.08010665e-02,
          1.98448613e-01, 1.36605680e-01, 2.02753752e-01, 2.78034091e-01,
          1.46757573e-01, 9.89378393e-02, 4.41551693e-02, 3.47846039e-02,
          1.40444517e-01, 2.84839183e-01, 9.93381664e-02, 1.59433469e-01,
          2.84839183e-01, 2.84839183e-01, 1.19299635e-01, 5.52170537e-02,
          2.80222371e-02, 8.27118903e-02, 1.13065228e-01, 3.21754999e-02,
          1.18940227e-01, 2.84839183e-01, 9.28385034e-02, 7.47212246e-02,
          6.69016019e-02, 4.21531424e-02, 2.42264345e-01, 8.45389739e-02,
          3.82684171e-02, 2.07546681e-01, 2.50299722e-01, 2.21625313e-01,
          1.02604583e-01, 1.25250682e-01, 2.37394333e-01, 2.24492073e-01,
          8.19179937e-02, 6.82409573e-03, 1.15404166e-01, 2.50299722e-01,
          1.87323645e-01, 1.74634159e-02, 7.65202343e-02, 2.12647125e-01,
          2.13826805e-01, 9.22253206e-02, 1.20370369e-02, 9.27010924e-02,
          2.50299722e-01, 1.65054217e-01, 6.85792118e-02, 1.21840782e-01,
          2.49383956e-01, 2.30812699e-01, 8.11925605e-02, 6.60387939e-03,
          7.65161663e-02, 2.50299722e-01, 2.04484731e-01, 2.78672930e-02,
          7.02453405e-02, 2.50299722e-01, 1.11056194e-01, 4.84736376e-02,
          1.52381863e-02, 4.04071435e-02, 1.76477060e-01, 8.75904262e-02,
          9.58150066e-03, 1.90928055e-03, 7.15645850e-02, 8.34570453e-02,
          2.37202346e-02, 1.64497327e-02, 2.27294005e-02, 3.62850875e-02,
          2.17383318e-02, 9.78111196e-03, 8.36214703e-03, 3.48112397e-02,
          3.37030023e-01, 6.31095916e-02, 4.86059226e-02, 1.45705476e-01,
          3.37030023e-01, 3.37030023e-01, 1.29350290e-01, 2.91824192e-02,
          3.37030023e-01, 3.37030023e-01, 7.16232881e-02, 6.34470433e-02,
          2.19040737e-01, 3.37030023e-01, 1.45190775e-01, 7.15624318e-02,
          3.08334418e-02, 3.37030023e-01, 4.49103005e-02, 4.25799973e-02,
          2.34219115e-02, 1.97664276e-02, 6.85797259e-02, 2.91657001e-02,
          1.49358613e-02, 4.17943066e-03, 1.25167342e-02, 2.12007105e-01,
          1.44402876e-01, 8.35005865e-02, 3.28485370e-02, 1.41108602e-01,
          9.17527378e-02, 1.85721368e-01, 4.48469631e-02, 1.17430709e-01,
          1.20006956e-01, 2.52760917e-01, 2.07827345e-01, 1.35646164e-01,
          2.75368601e-01, 1.44163534e-01, 4.19566445e-02, 2.39418130e-02,
          1.31896481e-01, 2.80008316e-01, 2.80008316e-01, 2.80008316e-01,
          2.08391070e-01, 2.80008316e-01, 2.80008316e-01, 2.80008316e-01,
          1.91650078e-01, 1.64922506e-01, 1.70806140e-01, 7.44132996e-02,
          4.04711738e-02, 2.46733446e-02, 1.05377130e-01, 9.03676823e-02,
          2.64275044e-01, 8.85378271e-02, 1.41568318e-01, 9.80307683e-02,
          2.48684660e-02, 3.32496539e-02, 3.14138159e-02, 1.66934818e-01,
          5.09458408e-02, 8.97245854e-02, 3.94591205e-02, 9.29410979e-02,
          2.61797637e-01, 1.98301241e-01, 2.64275044e-01, 2.39372820e-01,
          2.64275044e-01, 2.50926584e-01, 2.64275044e-01, 2.64275044e-01,
          2.33326986e-01, 1.45211056e-01, 7.37006664e-02, 1.01239391e-01,
          1.51856661e-01, 2.64275044e-01, 1.70174107e-01, 1.36459008e-01,
          1.27563313e-01, 1.64089188e-01, 1.64366066e-01, 1.15269516e-02,
          2.34660581e-02, 4.46907133e-02, 2.78581440e-01, 3.05712577e-02,
          3.14795822e-02, 1.26998546e-02, 1.33408993e-01, 2.75754124e-01,
          9.30052064e-03, 1.55776143e-01, 1.44350097e-01, 2.95389771e-01,
          1.43207178e-01, 2.95389771e-01, 1.01478383e-01, 2.35482454e-01,
          2.23229378e-01, 4.21626680e-02, 2.66063493e-02, 6.22149445e-02,
          2.95389771e-01, 6.45647645e-02, 1.50910532e-02, 3.05840876e-02,
          1.58841193e-01, 2.95389771e-01, 5.60114235e-02, 9.49933231e-02,
          1.46562114e-01, 2.95389771e-01, 1.39545187e-01, 9.89845246e-02,
          1.32534146e-01, 2.42626503e-01, 1.19593032e-01, 5.66916307e-03,
          1.55361861e-01, 1.33083433e-01, 3.13718170e-01, 1.63234368e-01,
          3.13718170e-01, 1.23445213e-01, 1.45702675e-01, 6.40461827e-03,
          1.81648396e-02, 4.14917469e-02, 5.64371534e-02, 1.69824064e-01,
          1.67538404e-01, 1.85044006e-01, 1.16435394e-01, 3.12500261e-02,
          1.17141917e-01, 4.03901041e-02, 1.27163798e-01, 1.71642795e-01,
          3.13718170e-01, 2.06308633e-01, 1.80475995e-01, 2.62306571e-01,
          1.21562399e-01, 6.29905984e-02, 1.40029922e-01, 2.07260951e-01,
          1.51276797e-01, 3.13718170e-01, 1.35672182e-01, 1.38538063e-01,
          1.45963684e-01, 7.00338483e-02, 1.54616283e-02, 3.29970308e-02,
          2.85762232e-02, 6.73486665e-02, 1.31424785e-01, 2.45210975e-01,
          2.61704445e-01, 1.93514004e-01, 1.03093304e-01, 7.39721907e-03,
          1.11443363e-02, 4.00203094e-03, 3.26137170e-02, 1.86167479e-01,
          1.35819376e-01, 1.44922927e-01, 1.08584799e-01, 8.18217993e-02,
          1.13888673e-01, 2.12951899e-01, 2.11430088e-01, 1.87384486e-01,
          2.54854053e-01, 2.03464746e-01, 2.61704445e-01, 2.61704445e-01,
          2.27213129e-01, 3.90095077e-02, 6.67964444e-02, 4.44271006e-02,
          8.81695747e-02, 2.61704445e-01, 2.23280132e-01, 2.12021977e-01,
          2.61704445e-01, 1.49271578e-01, 0., 0., 0., 1.66252237e-02,
          5.13122261e-01, 1.56704783e-01, 1.25610754e-01, 1.10156812e-01,
          4.32727039e-02, 0., 0., 0., 0., 0., 0., 0., 0., 0.,
          1.27028553e-02, 2.00542272e-03, 3.10413279e-02, 5.57480194e-02,
          6.18221462e-01, 3.54796439e-01, 2.39736408e-01, 3.19584101e-01,
          6.31864667e-02, 0., 0., 0., 0., 0., 0., 0., 0., 0., 0., 0., 0.,
          0., 0., 0., 0., 0., 0., 0., 0., 0., 0., 0., 0., 0., 0., 0., 0.,
          0., 0., 0., 0., 0., 0., 0., 0., 0., 0., 0., 0., 0., 0., 0., 0.,
          0., 0., 0., 0., 0., 0., 0., 0., 0., 0., 0., 0., 0., 0., 0., 0.,
          0., 0., 0., 0., 0., 0., 0., 0., 0., 0., 0., 0., 0., 0., 0., 0.,
          0., 0., 0., 0., 0., 0., 0., 0., 0., 0., 0., 0., 0., 0., 0., 0.,
          0., 0., 0., 0., 0., 0., 0., 0., 0., 0., 0., 0., 0., 0., 0., 0.,
          0., 0., 0., 0., 0., 0., 0., 0., 0., 0., 0., 0., 0., 0., 0., 0.,
          0., 0., 0., 0., 0., 0., 0., 0., 0., 0., 0., 0., 0., 0., 0., 0.,
          0., 0., 0., 0., 0., 0., 0., 0., 0., 0., 0., 0., 0., 0., 0., 0.,
          0., 0., 0., 0., 0., 0., 2.63757497e-01, 3.03567588e-01,
          2.59317040e-01, 1.70427188e-01, 3.92392099e-01, 7.30290115e-02,
          1.68475494e-01, 2.75618047e-01, 1.88601598e-01, 0., 0., 0., 0.,
          0., 0., 0., 0., 0., 1.51163936e-01, 2.19916508e-01,
          1.79210439e-01, 2.33379379e-01, 3.92392099e-01, 1.39075994e-01,
          1.30350068e-01, 2.25951120e-01, 1.99219391e-01, 1.20133914e-01,
          1.08718716e-01, 7.25772604e-02, 6.54109344e-02, 1.99348062e-01,
          8.28778148e-02, 8.36289749e-02, 1.12089232e-01, 1.30819187e-01,
          1.30344167e-01, 1.28205970e-01, 6.87875226e-02, 1.22047342e-01,
          3.11567992e-01, 3.11567992e-01, 1.52320534e-01, 1.74207166e-01,
          1.68162927e-01, 1.20721765e-01, 1.21390834e-01, 9.14844945e-02,
          1.04873806e-01, 2.52952069e-01, 7.44725019e-02, 6.76943138e-02,
          1.27188399e-01, 1.28357098e-01, 1.54802546e-01, 1.60352275e-01,
          1.61569074e-01, 3.03974241e-01, 3.11567992e-01, 2.29990825e-01,
          9.48904902e-02, 2.16840401e-01, 1.38413996e-01, 6.78085983e-02,
          8.02892298e-02, 4.85545583e-02, 1.44709632e-01, 3.57367009e-01,
          3.32863182e-01, 9.86140445e-02, 8.22512805e-02, 4.69935611e-02,
          8.25630426e-02, 6.00600019e-02, 4.04068306e-02, 9.47934687e-02,
          3.56462657e-01, 9.94457752e-02, 2.96394285e-02, 3.30779813e-02,
          1.50004094e-02, 4.21405584e-02, 5.58386818e-02, 1.10641241e-01,
          3.27641964e-01, 3.57367009e-01, 2.88259119e-01, 5.99811487e-02,
          1.46405280e-01, 3.37195583e-02, 4.41620201e-02, 4.09381725e-02,
          4.57250699e-02, 9.16801021e-02, 3.38084698e-01, 1.97726071e-01,
          7.50665292e-02, 9.66297910e-02, 2.70987507e-02, 1.60608113e-01,
          7.18639418e-02, 3.71878855e-02, 6.52697831e-02, 3.15302849e-01,
          9.48169827e-02, 2.20916476e-02, 4.26281989e-02, 1.18664175e-01,
          1.93645582e-01, 2.80994549e-02, 1.45970033e-02, 7.98654035e-02,
          3.15302849e-01, 2.49474734e-01, 3.58809792e-02, 2.48669293e-02,
          3.15302849e-01, 1.25910684e-01, 5.81151731e-02, 9.61807370e-02,
          7.77343735e-02, 2.50376642e-01, 1.62838504e-01, 1.00141861e-01,
          8.83607194e-02, 9.92498994e-02, 2.32979655e-01, 7.91947916e-02,
          1.43348828e-01, 1.20026954e-01, 3.15302849e-01, 2.65469640e-01,
          8.29647854e-02, 6.69929385e-02, 3.15302849e-01, 9.94310230e-02,
          1.43720414e-02, 9.40269232e-03, 4.96279001e-02, 2.69835055e-01,
          1.15637682e-01, 2.02158839e-02, 1.04155811e-02, 2.01780558e-01,
          2.54486263e-01, 6.36557192e-02, 6.42834082e-02, 1.12520903e-01,
          2.85865963e-01, 1.03941105e-01, 1.54212043e-02, 2.00867541e-02,
          2.79222161e-01, 9.98661369e-02, 1.40636325e-01, 2.02337354e-01,
          8.43561143e-02, 2.85865963e-01, 1.36718124e-01, 1.75701864e-02,
          2.76398547e-02, 1.98191345e-01, 2.23284155e-01, 2.85865963e-01,
          2.85865963e-01, 1.23981841e-01, 2.85865963e-01, 1.31433159e-01,
          1.26228901e-02, 2.80183032e-02, 2.30584100e-01, 2.02463850e-01,
          2.30511531e-01, 2.50245541e-01, 1.65577307e-01, 2.52242893e-01,
          1.13549471e-01, 2.36871950e-02, 6.09776117e-02, 2.03196362e-01,
          1.45824865e-01, 2.64439911e-01, 2.64439911e-01, 1.65311188e-01,
          1.59563214e-01, 1.57637492e-01, 9.82961729e-02, 9.47319418e-02,
          1.05302624e-01, 1.84798166e-01, 2.64439911e-01, 2.64439911e-01,
          1.01899572e-01, 2.22316951e-01, 8.42249319e-02, 1.11048911e-02,
          6.36903569e-02, 2.05768570e-01, 8.25526714e-02, 1.63644612e-01,
          2.48918414e-01, 9.40675214e-02, 1.07415952e-01, 5.96552566e-02,
          2.51237769e-02, 4.62890491e-02, 1.13642350e-01, 2.00600088e-01,
          1.72664359e-01, 2.72172898e-01, 2.43680835e-01, 2.72172898e-01,
          2.06520945e-01, 1.37677372e-01, 1.49368852e-01, 1.78582534e-01,
          1.12745695e-01, 1.15334451e-01, 1.32987738e-01, 1.84518814e-01,
          2.72172898e-01, 1.99760497e-01, 5.37419990e-02, 1.28864884e-01,
          1.36484459e-01, 1.13235652e-01, 7.52655566e-02, 1.18720144e-01,
          1.28067687e-01, 2.38229319e-01, 1.15345940e-01, 5.65390736e-02,
          4.28276695e-02, 1.21059544e-01, 1.87508166e-01, 5.99777624e-02,
          1.58508137e-01, 1.77907631e-01, 2.72172898e-01, 1.84730366e-01,
          5.53023256e-02, 1.04874082e-01, 1.32326409e-01, 1.58857495e-01,
          7.06415027e-02, 5.06151542e-02, 1.17842019e-01, 3.05020660e-01,
          8.38442743e-02, 2.85948534e-02, 5.23601994e-02, 1.27375618e-01,
          1.93992630e-01, 7.25694969e-02, 2.91032009e-02, 1.47888049e-01,
          3.05020660e-01, 1.35935664e-01, 5.73299266e-02, 6.34111315e-02,
          1.54431105e-01, 2.44386315e-01, 7.49056786e-02, 1.09800257e-01,
          2.12669745e-01, 3.05020660e-01, 1.27803579e-01, 4.99126986e-02,
          5.31491674e-02, 1.51959285e-01, 2.71274596e-01, 2.06707105e-01,
          5.27025238e-02, 2.60441989e-01, 3.05020660e-01, 1.97258487e-01,
          8.55300352e-02, 4.74316590e-02, 1.82477787e-01, 4.17990908e-02,
          4.09990251e-02, 4.52741012e-02, 1.18464664e-01, 3.44464928e-01,
          1.64981976e-01, 7.18099549e-02, 8.15851539e-02, 3.44773345e-02,
          6.58584610e-02, 1.24032579e-01, 1.63543418e-01, 1.14100382e-01,
          3.44464928e-01, 1.11266375e-01, 2.02851743e-01, 1.03469774e-01,
          4.95619625e-02, 8.69287699e-02, 2.32981369e-01, 5.16910180e-02,
          1.68962568e-01, 3.44464928e-01, 1.89720646e-01, 8.97719190e-02,
          3.33945155e-02, 4.18704599e-02, 7.11082742e-02, 1.04502089e-01,
          9.97334793e-02, 1.16002180e-01, 3.44464928e-01, 1.84037134e-01,
          2.76304156e-01, 1.93906903e-01, 9.40802768e-02, 1.03855081e-01,
          1.86179012e-01, 1.24315321e-01, 1.08495735e-01, 2.44381070e-01,
          1.03036217e-01, 2.06035256e-01, 1.81069195e-01, 1.09536968e-01,
          5.30697703e-02, 1.10833190e-01, 3.36146951e-02, 6.36439174e-02,
          2.67032027e-01, 9.86579955e-02, 8.49483609e-02, 1.42508000e-01,
          5.32583222e-02, 1.83168277e-01, 2.13357285e-01, 7.41260722e-02,
          1.75816789e-01, 2.67032027e-01, 1.75727293e-01, 2.61484325e-01,
          2.40215585e-01, 2.40158364e-01, 1.44084305e-01, 2.67032027e-01,
          2.02729218e-02, 1.48608878e-01, 2.67032027e-01, 9.00535211e-02,
          8.44397247e-02, 1.17592983e-01, 1.38015762e-01, 4.55003083e-02,
          9.64508206e-02, 2.16915198e-02, 3.90522182e-02, 5.84015727e-01,
          1.58442393e-01, 8.45358968e-02, 1.65801883e-01, 2.00664625e-02,
          0., 0., 0., 0., 0., 0., 0., 0., 0., 1.17446914e-01,
          4.05701905e-01, 9.77423415e-03, 1.03395842e-01, 5.84015727e-01,
          1.16514824e-01, 9.03465450e-02, 1.43255278e-01, 8.41039792e-02,
          0., 0., 0., 0., 0., 0., 0., 0., 0., 0., 0., 0., 0., 0., 0., 0.,
          0., 0., 0., 0., 0., 0., 0., 0., 0., 0., 0., 0., 0., 0., 0., 0.,
          0., 0., 0., 0., 0., 0., 0., 0., 0., 0., 0., 0., 0., 0., 0., 0.,
          0., 0., 0., 0., 0., 0., 0., 0., 0., 0., 0., 0., 0., 0., 0., 0.,
          0., 0., 0., 0., 0., 0., 0., 0., 0., 0., 0., 0., 0., 0., 0., 0.,
          0., 0., 0., 0., 0., 0., 0., 0., 0., 0., 0., 0., 0., 0., 0., 0.,
          0., 0., 0., 0., 0., 0., 0., 0., 0., 0., 0., 0., 0., 0., 0., 0.,
          0., 0., 0., 0., 0., 0., 0., 0., 0., 0., 0., 0., 0., 0., 0., 0.,
          0., 0., 0., 0., 0., 0., 0., 0., 0., 0., 0., 0., 0., 0., 0., 0.,
          0., 0., 0., 0., 0., 0., 0., 0., 0., 0., 0., 0., 0., 0., 0., 0.,
          0., 0., 1.23446889e-01, 6.38075024e-02, 1.70016572e-01,
          2.07901493e-01, 5.80228508e-01, 2.64028639e-01, 6.60529584e-02,
          7.69473538e-02, 1.32773727e-01, 0., 0., 0., 0., 0., 0., 0., 0.,
          0., 6.33605421e-02, 4.68490273e-02, 1.18390717e-01,
          2.59287834e-01, 5.80228508e-01, 2.02156216e-01, 2.57979184e-02,
          2.62764208e-02, 4.61946614e-02, 1.22531809e-01, 7.36430287e-02,
          8.17569271e-02, 9.51440334e-02, 2.55890846e-01, 1.15956292e-01,
          4.29888740e-02, 6.36904314e-02, 7.98157454e-02, 1.79022282e-01,
          1.26710966e-01, 1.89198151e-01, 2.77276725e-01, 2.77276725e-01,
          2.77276725e-01, 1.09145299e-01, 2.77276725e-01, 9.15707052e-02,
          5.04768230e-02, 2.37981714e-02, 3.41135673e-02, 6.39285967e-02,
          2.77276725e-01, 7.76545480e-02, 2.87814140e-02, 2.58476585e-02,
          4.51959781e-02, 7.27367550e-02, 2.76548173e-02, 7.30432943e-02,
          2.56169587e-01, 2.77276725e-01, 2.25211442e-01, 2.77276725e-01,
          2.77276725e-01, 7.02039897e-02, 2.93343104e-02, 3.87768410e-02,
          9.47444886e-02, 2.62279183e-01, 2.62279183e-01, 1.95669010e-01,
          9.33044329e-02, 2.62279183e-01, 2.23894343e-02, 2.08263565e-02,
          4.06844094e-02, 4.09053415e-02, 7.30667859e-02, 2.62279183e-01,
          1.55211344e-01, 8.89631733e-02, 1.05717592e-01, 5.89102358e-02,
          1.53493648e-02, 1.46845886e-02, 8.60092491e-02, 2.62279183e-01,
          2.62279183e-01, 2.23867103e-01, 2.62279183e-01, 2.62279183e-01,
          1.72427688e-02, 1.04299702e-01, 3.75395603e-02, 6.73806295e-02,
          1.35785952e-01, 2.62279183e-01, 2.23095253e-01, 2.60312647e-01,
          2.03103647e-01, 1.06608726e-01, 8.75763670e-02, 5.04570976e-02,
          8.90882313e-02, 2.17566695e-02, 2.27439851e-01, 7.58932978e-02,
          8.08535963e-02, 5.63088320e-02, 1.60341352e-01, 1.42846450e-01,
          1.23126939e-01, 1.91373691e-01, 5.37374318e-02, 2.51927763e-01,
          5.86042106e-02, 1.01568349e-01, 5.88223413e-02, 1.95988283e-01,
          2.53309637e-01, 1.09265156e-01, 1.67957857e-01, 4.93985377e-02,
          2.83451289e-01, 1.29084662e-01, 1.18871711e-01, 9.47434008e-02,
          2.83451289e-01, 2.24968657e-01, 2.83451289e-01, 2.83451289e-01,
          7.89512619e-02, 2.83451289e-01, 7.45138600e-02, 9.88051221e-02,
          7.52045065e-02, 2.55747795e-01, 8.70304555e-02, 2.80520976e-01,
          3.65638971e-01, 1.00648500e-01, 1.38767272e-01, 7.32257590e-02,
          3.12401112e-02, 3.54754031e-02, 5.68972491e-02, 6.42828643e-02,
          3.65638971e-01, 3.65638971e-01, 7.02700764e-02, 8.32903683e-02,
          4.34385054e-02, 7.52157206e-03, 1.35152126e-02, 2.87997704e-02,
          7.96250775e-02, 3.44883382e-01, 3.65638971e-01, 8.28721672e-02,
          9.28073451e-02, 3.54546048e-02, 2.05566864e-02, 2.51528751e-02,
          3.53414938e-02, 6.11168779e-02, 1.72316700e-01, 3.65638971e-01,
          3.86326052e-02, 4.61914279e-02, 1.90690700e-02, 7.53464457e-03,
