%YAML:1.0
---
opencv_ml_svm:
   format: 3
   svmType: C_SVC
   kernel:
      type: LINEAR
   C: 2.6699999999999999e+00
   term_criteria: { epsilon:1.1920928955078125e-07, iterations:1000 }
   var_count: 1344
   class_count: 10
   class_labels: !!opencv-matrix
      rows: 10
      cols: 1
      dt: i
      data: [ 0, 1, 2, 3, 4, 5, 6, 7, 8, 9 ]
   sv_total: 45
   support_vectors:
      - [ 0., 0., 0., 0., 0., 0., 0., 8.91553952e-07, 5.26045733e-06,
          1.04519486e-05, 9.99866461e-06, 1.05107370e-06,
          -8.01975375e-08, 4.54177007e-06, 4.54177007e-06,
          3.66897939e-06, 6.15646240e-06, 7.59406294e-06, 3.80886786e-06,
          0., 0., 0., 0., 0., 0., 0., 0., 0., 0., 0., 0., 0., 0.,
          7.33434661e-07, 4.06247545e-06, 4.95402946e-06, 1.02194772e-05,
          7.53964650e-06, 4.29535930e-06, 2.08696724e-06,
          -3.82242007e-07, 6.37373105e-08, 4.56407406e-06,
          9.26469784e-06, 9.65630079e-06, 9.72648559e-06, 7.45196940e-06,
          5.45289595e-06, 3.77827951e-06, 2.50034560e-07, 0., 0., 0., 0.,
          0., 0., 0., 0., 0., 1.46686932e-06, 3.34018000e-06,
          4.22576795e-06, 6.24271206e-06, 1.05065456e-05, 7.46931983e-06,
          4.59605008e-06, 2.54344650e-06, 6.79305572e-07,
          -1.69406589e-21, -1.69406589e-21, 4.98685995e-06,
          1.03386119e-05, 1.03386119e-05, 1.17924128e-05, 1.28666925e-05,
          1.05711179e-05, 6.00343901e-06, 4.13942098e-06, 1.31126831e-06,
          0., 0., 0., 0., 0., 0., 0., 0., 2.19251456e-06, 5.95923711e-06,
          1.05513909e-05, 1.18417565e-05, 1.35764894e-05, 7.19083891e-06,
          2.38546841e-06, 7.42496809e-07, -1.69406589e-21,
          -1.69406589e-21, -1.69406589e-21, 4.98685995e-06,
          1.03386119e-05, 1.03386119e-05, 1.23607306e-05, 1.43670522e-05,
          1.37305360e-05, 1.00635007e-05, 6.06037975e-06, 4.09984705e-06,
          1.53352107e-06, 0., 0., 0., 0., 0., 1.46686932e-06,
          1.86692466e-06, 4.49775189e-06, 1.00328998e-05, 1.36103336e-05,
          1.43670522e-05, 1.43670522e-05, 7.19083891e-06, 1.43760019e-06,
          -1.69406589e-21, -1.69406589e-21, -4.00055285e-07,
          -1.73357284e-06, 1.28567342e-06, 6.24371069e-06,
          1.03386119e-05, 1.23607306e-05, 1.43670522e-05, 1.43670522e-05,
          1.34129386e-05, 1.02548238e-05, 7.01035924e-06, 3.96918222e-06,
          9.33462331e-07, 0., 0., 0., 0., 3.33379398e-06, 5.05903017e-06,
          9.41162671e-06, 1.36103336e-05, 1.43670522e-05, 1.43670522e-05,
          9.42073530e-06, 3.76450544e-06, 8.21485855e-07,
          -6.66758808e-07, -1.38711005e-06, -2.25651183e-06,
          -4.35680204e-06, -1.83978750e-06, 3.25399765e-06,
          9.00509440e-06, 1.16939718e-05, 1.43670522e-05, 1.43670522e-05,
          1.43670522e-05, 1.35941400e-05, 1.02004669e-05, 6.78340348e-06,
          2.88370461e-06, 6.27842326e-07, 0., 0., 0., 3.74934871e-06,
          7.76705292e-06, 1.33122821e-05, 1.43670522e-05, 1.43670522e-05,
          9.56921031e-06, 3.96302721e-06, -4.89020877e-08,
          -1.01124340e-06, -4.50845164e-06, -7.55100700e-06,
          -8.20177229e-06, -8.18666103e-06, -6.86941939e-06,
          -5.46648607e-07, 5.25421228e-06, 9.14771317e-06,
          1.33558087e-05, 1.37336310e-05, 1.43670522e-05, 1.43670522e-05,
          1.35941400e-05, 9.41384587e-06, 4.41919065e-06, 1.79464723e-06,
          5.77837170e-07, 0., 2.66703523e-07, 6.32867068e-06,
          1.28078236e-05, 1.41448072e-05, 1.40510956e-05, 9.06312471e-06,
          4.04114508e-06, -5.56614879e-08, -3.67285111e-06,
          -5.96969676e-06, -1.05186618e-05, -1.43066072e-05,
          -1.43066072e-05, -1.42386079e-05, -7.69071539e-06,
          -2.53843211e-07, 2.42203282e-06, 5.12936913e-06,
          8.39735549e-06, 1.04102255e-05, 1.38669920e-05, 1.43503830e-05,
          1.43670522e-05, 1.34123438e-05, 7.79632865e-06, 4.15052318e-06,
          1.26679686e-06, 0., 5.32877038e-06, 1.27274570e-05,
          1.38776131e-05, 9.65183972e-06, 7.76406432e-06, 1.09467658e-06,
          -2.83372486e-07, -4.75253273e-06, -7.49336550e-06,
          -1.19736078e-05, -1.38828937e-05, -1.43670522e-05,
          -1.43670522e-05, -1.43443849e-05, -8.82108179e-06,
          -3.44666341e-06, -3.44666341e-06, -1.37860809e-06,
          3.51225890e-06, 8.38982396e-06, 9.78867229e-06, 1.38614341e-05,
          1.43670522e-05, 1.34350103e-05, 7.84166150e-06, 4.15052318e-06,
          1.26679686e-06, 0., 6.12985696e-06, 1.37424722e-05,
          7.94931839e-06, 7.70327915e-07, -1.69406589e-21,
          -7.33434661e-07, -3.95537427e-06, -6.17781552e-06,
          -1.19387860e-05, -1.15695448e-05, -1.27858521e-05,
          -1.43670522e-05, -1.43670522e-05, -1.43670522e-05,
          -9.38019184e-06, -4.02844034e-06, -4.02844034e-06,
          -2.00632121e-06, 3.26212194e-06, 8.27138410e-06,
          8.99969382e-06, 1.33058211e-05, 1.43670522e-05, 1.34350103e-05,
          8.29018427e-06, 6.70723512e-06, 4.01161969e-06, 2.94474717e-07,
          -1.03987702e-06, 6.57829423e-06, 7.50333868e-07,
          -1.69406589e-21, -1.69406589e-21, -9.16793340e-07,
          -5.73998523e-06, -1.15806979e-05, -1.17347645e-05,
          -6.33942409e-06, -1.04748688e-05, -1.43670522e-05,
          -1.43670522e-05, -1.43670522e-05, -1.10830224e-05,
          -6.01507554e-06, -4.02844034e-06, -2.00632121e-06,
          1.28497084e-06, 4.12639474e-06, 8.32978822e-06, 1.28682004e-05,
          1.42614854e-05, 1.42761210e-05, 1.31622182e-05, 8.04656611e-06,
          4.75060642e-06, 1.41681232e-06, -7.64239303e-06,
          -5.14209717e-07, -1.69406589e-21, -1.69406589e-21,
          -1.69406589e-21, -9.16793340e-07, -1.01403621e-05,
          -1.18999842e-05, -6.29888018e-06, -1.94312997e-06,
          -7.23631865e-06, -1.22817419e-05, -1.43670522e-05,
          -1.43670522e-05, -1.43670522e-05, -9.74508384e-06,
          -4.02844034e-06, -2.00632121e-06, 1.51110839e-07,
          1.59521062e-06, 4.44694979e-06, 9.90878470e-06, 1.29891141e-05,
          1.43670522e-05, 1.42306553e-05, 1.22748506e-05, 5.26734448e-06,
          3.80047504e-06, -7.21365404e-06, -4.68273385e-07,
          -1.69406589e-21, -1.69406589e-21, -6.66758808e-07,
          -4.05361652e-06, -9.88376814e-06, -6.17724982e-06,
          -1.81674750e-06, -4.42338518e-07, -6.44642842e-06,
          -1.17762120e-05, -1.43670522e-05, -1.43670522e-05,
          -1.43670522e-05, -9.74508384e-06, -4.02844034e-06,
          -2.00632121e-06, 0., 4.53332518e-07, 2.92093296e-06,
          8.17521232e-06, 1.25890592e-05, 1.43670522e-05, 1.43670522e-05,
          1.33205549e-05, 5.66739982e-06, 5.66739982e-06,
          -4.82818541e-06, 1.59371007e-06, 1.62174302e-07,
          -1.69406589e-21, 7.14686735e-07, 1.11666850e-06,
          -3.98016454e-07, -1.64297171e-06, -3.47551691e-07, 0.,
          -6.44642842e-06, -1.17762120e-05, -1.43670522e-05,
          -1.43670522e-05, -1.43670522e-05, -9.74508384e-06,
          -4.02844034e-06, -2.00632121e-06, 0., 0., 2.57337820e-06,
          8.17521232e-06, 1.25890592e-05, 1.43670522e-05, 1.43670522e-05,
          1.36924054e-05, 9.18996739e-06, 5.66739982e-06, 6.29421038e-07,
          1.19544520e-05, 3.79918652e-06, 2.94777146e-06, 1.00230482e-05,
          5.96507607e-06, 1.31487161e-06, 0., 0., 0., -6.44642842e-06,
          -1.17762120e-05, -1.43670522e-05, -1.38805290e-05,
          -1.38805290e-05, -9.74508384e-06, -4.02844034e-06,
          -2.00632121e-06, 0., 0., 2.57337820e-06, 8.17521232e-06,
          1.25890592e-05, 1.43670522e-05, 1.43670522e-05, 1.37694369e-05,
          9.33631418e-06, 5.66739982e-06, 1.29502396e-05, 1.42170366e-05,
          1.43670522e-05, 1.43670522e-05, 1.28501761e-05, 6.55612666e-06,
          1.47400056e-06, 0., 0., 0., -6.44642842e-06, -1.17762120e-05,
          -1.43670522e-05, -9.17747457e-06, -9.17747457e-06,
          -9.74508384e-06, -4.02844034e-06, -2.00632121e-06, 0., 0.,
          1.98988323e-06, 6.44346255e-06, 1.25507786e-05, 1.43670522e-05,
          1.43670522e-05, 1.34966449e-05, 6.53636243e-06, 5.66739982e-06,
          1.29502396e-05, 1.42170366e-05, 1.43670522e-05, 1.43670522e-05,
          1.28501761e-05, 3.69180498e-06, 6.55622955e-07, 0., 0., 0.,
          -6.44642842e-06, -1.17762120e-05, -1.43670522e-05,
          -1.42048775e-05, -1.42048775e-05, -9.74508384e-06,
          -4.02844034e-06, -2.00632121e-06, 0., 0., 1.03510922e-06,
          3.29468935e-06, 1.20339946e-05, 1.43670522e-05, 1.43670522e-05,
          1.34966449e-05, 6.53636243e-06, 5.66739982e-06, 1.29502396e-05,
          1.42170366e-05, 1.43670522e-05, 1.43670522e-05, 1.28501761e-05,
          4.99251428e-06, 1.25044085e-06, 0., 0., 0., -6.44642842e-06,
          -1.17762120e-05, -1.43670522e-05, -1.43670522e-05,
          -1.43670522e-05, -9.74508384e-06, -4.02844034e-06,
          -2.00632121e-06, 0., 0., 1.03510922e-06, 3.26789313e-06,
          1.19957140e-05, 1.43670522e-05, 1.43670522e-05, 1.34966449e-05,
          6.54019004e-06, 5.66739982e-06, 1.22803349e-05, 1.41443043e-05,
          1.43670522e-05, 1.43670522e-05, 1.28501761e-05, 8.94535515e-06,
          2.44856051e-06, 0., 0., 0., -6.44642842e-06, -1.17762120e-05,
          -1.43670522e-05, -1.43670522e-05, -1.43670522e-05,
          -9.74508384e-06, -4.02844034e-06, -2.00632121e-06, 0., 0.,
          1.02755371e-06, 3.57796353e-06, 1.24053131e-05, 1.43670522e-05,
          1.43670522e-05, 1.34966449e-05, 6.54019004e-06, 5.66739982e-06,
          1.19740926e-05, 1.41136798e-05, 1.43670522e-05, 1.43670522e-05,
          1.28501761e-05, 8.94535515e-06, 2.73747901e-06, 2.83362454e-07,
          0., 0., -6.44642842e-06, -1.17762120e-05, -1.43670522e-05,
          -1.43670522e-05, -1.43670522e-05, -9.74508384e-06,
          -4.02844034e-06, -2.00632121e-06, 0., 0., 2.87110595e-07,
          2.97915744e-06, 1.25890592e-05, 1.43670522e-05, 1.43670522e-05,
          1.37459774e-05, 7.77929927e-06, 5.66739982e-06, 1.11127601e-05,
          1.40230131e-05, 1.43670522e-05, 1.43670522e-05, 1.28501761e-05,
          8.94535515e-06, 2.98750479e-06, 5.38944278e-07, 0., 0.,
          -6.44642842e-06, -1.17762120e-05, -1.43670522e-05,
          -1.43670522e-05, -1.43670522e-05, -9.74508384e-06,
          -4.02844034e-06, -2.00632121e-06, 0., 0., 0., 2.68449139e-06,
          1.11388581e-05, 1.37002935e-05, 1.43670522e-05, 1.42988538e-05,
          1.30139906e-05, 5.66739982e-06, 5.63728281e-06, 1.36540639e-05,
          1.43670522e-05, 1.43670522e-05, 1.28501761e-05, 8.94535515e-06,
          2.44856051e-06, 0., 0., 0., -6.44642842e-06, -1.17762120e-05,
          -1.43670522e-05, -1.43670522e-05, -1.43670522e-05,
          -9.74508384e-06, -4.02844034e-06, -2.00632121e-06, 0., 0., 0.,
          2.68449139e-06, 9.25526456e-06, 1.28501761e-05, 1.43670522e-05,
          1.43670522e-05, 1.37414372e-05, 5.66739982e-06, 4.25058715e-06,
          1.35914224e-05, 1.43670522e-05, 1.43670522e-05, 1.28501761e-05,
          8.94535515e-06, 2.44856051e-06, 0., 0., 0., -6.44642842e-06,
          -1.17762120e-05, -1.43670522e-05, -1.43670522e-05,
          -1.43670522e-05, -9.74508384e-06, -4.02844034e-06,
          -2.00632121e-06, 0., 0., 0., 2.60027468e-06, 9.14425164e-06,
          1.28501761e-05, 1.43670522e-05, 1.43670522e-05, 1.37605775e-05,
          5.85114503e-06, 4.25058715e-06, 1.35875944e-05, 1.43670522e-05,
          1.43670522e-05, 1.28501761e-05, 9.68579843e-06, 3.01522596e-06,
          0., 0., 0., -6.44642842e-06, -1.17762120e-05, -1.43670522e-05,
          -1.43670522e-05, -1.43670522e-05, -9.74508384e-06,
          -4.02844034e-06, -2.00632121e-06, 0., 0., 0., 2.23278403e-06,
          8.66192022e-06, 1.28501761e-05, 1.43670522e-05, 1.43670522e-05,
          1.38447940e-05, 6.64354684e-06, 4.25058715e-06, 1.35875944e-05,
          1.43670522e-05, 1.43670522e-05, 1.28501761e-05, 1.01164642e-05,
          3.34011429e-06, 0., 0., 0., -6.44642842e-06, -1.17762120e-05,
          -1.43670522e-05, -1.43670522e-05, -1.43670522e-05,
          -9.74508384e-06, -4.02844034e-06, -2.00632121e-06, 0., 0., 0.,
          2.23278403e-06, 8.66192022e-06, 1.28501761e-05, 1.43670522e-05,
          1.43670522e-05, 1.38447940e-05, 6.64354684e-06, 4.25058715e-06,
          1.35914224e-05, 1.43670522e-05, 1.43670522e-05, 1.28501761e-05,
          1.01164642e-05, 3.34011429e-06, 0., 0., 0., -6.44642842e-06,
          -1.17762120e-05, -1.43670522e-05, -1.43670522e-05,
          -1.43670522e-05, -9.74508384e-06, -4.02844034e-06,
          -2.00632121e-06, 0., 0., 0., 2.23278403e-06, 8.66192022e-06,
          1.28501761e-05, 1.43670522e-05, 1.43670522e-05, 1.38447940e-05,
          6.64354684e-06, 4.25058715e-06, 1.35858663e-05, 1.43670522e-05,
          1.43670522e-05, 1.28501761e-05, 1.01164642e-05, 3.34011429e-06,
          0., 0., 0., -4.25707549e-06, -1.03166431e-05, -1.43670522e-05,
          -1.43670522e-05, -1.43670522e-05, -9.74508384e-06,
          -4.02844034e-06, -2.00632121e-06, 0., 0., 0., 2.23278403e-06,
          8.66192022e-06, 1.28501761e-05, 1.43670522e-05, 1.43670522e-05,
          1.38447940e-05, 6.64354684e-06, 4.25058715e-06, 1.35914224e-05,
          1.43670522e-05, 1.43670522e-05, 1.28501761e-05, 1.01164642e-05,
          3.34011429e-06, 0., 0., 0., 0., -7.51913649e-06,
          -1.43670522e-05, -1.43670522e-05, -1.43670522e-05,
          -9.74508384e-06, -4.02844034e-06, -2.00632121e-06, 0., 0., 0.,
          2.23278403e-06, 8.26743508e-06, 1.21667717e-05, 1.43670522e-05,
          1.43670522e-05, 1.38447940e-05, 6.64354684e-06, 4.25058715e-06,
          1.35914224e-05, 1.43670522e-05, 1.43670522e-05, 1.28501761e-05,
          1.01164642e-05, 3.34011429e-06, 0., 0., 0., 0.,
          -7.51913649e-06, -1.43670522e-05, -1.43670522e-05,
          -1.43670522e-05, -1.07586739e-05, -5.36637799e-06,
          -2.00632121e-06, 0., 0., 0., 2.23278403e-06, 8.45634349e-06,
          1.24890275e-05, 1.43670522e-05, 1.43670522e-05, 1.38447940e-05,
          6.64354684e-06, 4.25058715e-06, 1.35914224e-05, 1.43670522e-05,
          1.43670522e-05, 1.28501761e-05, 1.01164642e-05, 3.34011429e-06,
          0., 0., 0., 0., -7.51913649e-06, -1.43670522e-05,
          -1.43670522e-05, -1.43670522e-05, -1.43670522e-05,
          -1.01099768e-05, -2.00632121e-06, 0., 0., 0., 2.22522840e-06,
          8.64680896e-06, 1.28501761e-05, 1.43670522e-05, 1.43670522e-05,
          1.38447940e-05, 6.64354684e-06, 4.25058715e-06, 1.35914224e-05,
          1.43670522e-05, 1.43670522e-05, 1.28501761e-05, 1.01164642e-05,
          3.43964302e-06, 9.95287550e-08, 0., 0., 0., -7.51913649e-06,
          -1.43670522e-05, -1.43670522e-05, -1.43670522e-05,
          -1.43670522e-05, -1.01099768e-05, -2.00632121e-06, 0., 0., 0.,
          1.57545185e-06, 7.79303355e-06, 1.28501761e-05, 1.43670522e-05,
          1.43670522e-05, 1.38447940e-05, 6.64354684e-06, 4.25058715e-06,
          1.35800383e-05, 1.43670522e-05, 1.43670522e-05, 1.28501761e-05,
          1.01164642e-05, 3.86455440e-06, 5.24439997e-07, 0., 0., 0.,
          -7.51913649e-06, -1.43670522e-05, -1.43670522e-05,
          -1.43670522e-05, -1.42048775e-05, -9.94780203e-06,
          -2.00632121e-06, 0., 0., 0., 1.34123002e-06, 7.49081164e-06,
          1.28501761e-05, 1.43670522e-05, 1.43670522e-05, 1.39354606e-05,
          7.55021210e-06, 4.25058715e-06, 1.35875944e-05, 1.43670522e-05,
          1.43670522e-05, 1.28501761e-05, 1.01164642e-05, 4.06855406e-06,
          7.28439602e-07, 0., 0., 0., -7.51913649e-06, -1.43670522e-05,
          -1.43670522e-05, -1.43670522e-05, -9.90725857e-06,
          -4.23115807e-06, -2.00632121e-06, 0., 0., 0., 1.34123002e-06,
          7.49081164e-06, 1.28501761e-05, 1.43670522e-05, 1.43670522e-05,
          1.40487937e-05, 8.57021041e-06, 4.54506198e-06, 1.36192029e-05,
          1.43670522e-05, 1.43670522e-05, 1.28501761e-05, 1.01164642e-05,
          4.82410815e-06, 1.48016579e-06, 0., 0., 0., -7.51913649e-06,
          -1.43670522e-05, -1.43670522e-05, -1.43670522e-05,
          -9.74508384e-06, -4.02844034e-06, -2.00632121e-06, 0., 0., 0.,
          1.34123002e-06, 7.49081164e-06, 1.28501761e-05, 1.43670522e-05,
          1.43670522e-05, 1.42079225e-05, 1.15254625e-05, 5.66739982e-06,
          1.31404367e-05, 1.42445551e-05, 1.43670522e-05, 1.28501761e-05,
          1.01164642e-05, 4.89966351e-06, 1.54816564e-06, 0., 0., 0.,
          -7.51913649e-06, -1.43670522e-05, -1.43670522e-05,
          -1.43670522e-05, -1.36372673e-05, -9.17747457e-06,
          -2.00632121e-06, 0., 0., 0., 1.34123002e-06, 9.79112883e-06,
          1.38836522e-05, 1.43670522e-05, 1.43670522e-05, 1.43670522e-05,
          1.43670522e-05, 5.60628223e-06, 1.28555348e-05, 1.41909622e-05,
          1.43670522e-05, 1.37002935e-05, 1.20000577e-05, 6.24089353e-06,
          2.02938054e-06, 0., 0., 0., -7.51913649e-06, -1.43670522e-05,
          -1.43670522e-05, -1.43670522e-05, -1.43670522e-05,
          -1.01099768e-05, -2.00632121e-06, 0., 0., 0., 1.68878501e-06,
          1.12779380e-05, 1.43670522e-05, 1.43670522e-05, 1.43670522e-05,
          1.42761210e-05, 1.26166333e-05, 4.31170474e-06, 1.27241874e-05,
          1.41909622e-05, 1.43670522e-05, 1.43670522e-05, 1.34502588e-05,
          9.35527532e-06, 3.09781808e-06, 0., 0., 0., -7.51913649e-06,
          -1.43670522e-05, -1.43670522e-05, -1.43670522e-05,
          -1.43670522e-05, -1.01099768e-05, -2.00632121e-06, 0., 0., 0.,
          2.23278403e-06, 1.19957140e-05, 1.43670522e-05, 1.43670522e-05,
          1.43670522e-05, 1.40487937e-05, 8.57021041e-06, 4.25058715e-06,
          1.27186313e-05, 1.41909622e-05, 1.43670522e-05, 1.43670522e-05,
          1.37336310e-05, 1.05887793e-05, 3.33564094e-06, 1.83745399e-07,
          0., -1.89573655e-07, -7.75610351e-06, -1.43670522e-05,
          -1.43670522e-05, -1.43670522e-05, -1.43670522e-05,
          -1.01099768e-05, -2.00632121e-06, 0., 0., 1.36396281e-07,
          2.64197274e-06, 1.19957140e-05, 1.43670522e-05, 1.43670522e-05,
          1.43670522e-05, 1.40487937e-05, 8.57021041e-06, 4.25058715e-06,
          1.17232994e-05, 1.39945187e-05, 1.43670522e-05, 1.43670522e-05,
          1.43670522e-05, 1.39058830e-05, 4.44962870e-06, 5.93344510e-07,
          0., -1.99052329e-06, -1.00783809e-05, -1.43670522e-05,
          -1.43670522e-05, -1.43670522e-05, -1.43670522e-05,
          -1.01099768e-05, -2.00632121e-06, 0., 0., 1.59583135e-06,
          7.98285782e-06, 1.29734899e-05, 1.43670522e-05, 1.43670522e-05,
          1.43670522e-05, 1.40487937e-05, 8.57021041e-06, 4.25058715e-06,
          1.09959683e-05, 1.38434079e-05, 1.43670522e-05, 1.43670522e-05,
          1.43670522e-05, 1.40836792e-05, 8.88368777e-06, 2.58998716e-06,
          4.21083186e-08, -2.36967068e-07, -7.81929521e-06,
          -1.43670522e-05, -1.43670522e-05, -1.43670522e-05,
          -1.19344377e-05, -6.86649037e-06, -2.00632121e-06, 0.,
          1.61856406e-06, 6.19102730e-06, 1.21147259e-05, 1.43670522e-05,
          1.43670522e-05, 1.43670522e-05, 1.43670522e-05, 1.40487937e-05,
          8.57021041e-06, 4.25058715e-06, 1.02014419e-05, 1.36822800e-05,
          1.43670522e-05, 1.43670522e-05, 1.43670522e-05, 1.43503830e-05,
          1.38669920e-05, 8.79076197e-06, 2.80380459e-06, 0.,
          -7.51913649e-06, -1.43670522e-05, -1.43670522e-05,
          -1.43670522e-05, -1.19344377e-05, -6.86649037e-06,
          -2.00632121e-06, 1.54582449e-06, 5.76038337e-06,
          1.17947620e-05, 1.40325683e-05, 1.43670522e-05, 1.43670522e-05,
          1.43670522e-05, 1.39578633e-05, 9.77504442e-06, 8.57021041e-06,
          8.00110570e-07, 5.29030422e-06, 8.37645894e-06, 1.34734100e-05,
          1.43670522e-05, 1.43670522e-05, 1.43670522e-05, 1.43670522e-05,
          1.08352560e-05, 9.63695584e-06, 6.81702704e-06,
          -2.33055857e-06, -1.19084480e-05, -1.43670522e-05,
          -1.43670522e-05, -1.43670522e-05, -9.63637740e-06,
          2.86449506e-07, 7.99701957e-06, 1.03630546e-05, 1.30836952e-05,
          1.43670522e-05, 1.43670522e-05, 1.36778108e-05, 1.01505202e-05,
          1.00331035e-05, 7.75343324e-06, 4.35298807e-06,
          -2.30647947e-06, -1.25633437e-06, 1.70240571e-06,
          9.99684562e-06, 1.26638606e-05, 1.38773203e-05, 9.34415311e-06,
          8.49273783e-06, 7.44259250e-06, 9.79350625e-06, 7.22862842e-06,
          5.65140624e-07, -5.09765050e-06, -8.84440669e-06,
          -1.03448183e-05, -8.09769153e-06, -6.07958555e-06,
          -1.12235091e-06, 5.49308697e-06, 6.72159604e-06,
          8.03184957e-06, 8.49273783e-06, 8.49273783e-06, 7.43860483e-06,
          1.31277193e-06, -2.50550943e-06, -1.80336406e-06,
          -1.01801675e-06, -4.02844034e-06, -4.02844034e-06,
          -5.46360661e-06, -2.65616478e-07, 5.72616364e-06,
          9.09404116e-06, 1.74337379e-06, -1.69406589e-21,
          -1.69406589e-21, 4.90577258e-06, 2.79750680e-06,
          -1.69406589e-21, -4.00055285e-07, -1.93512551e-06,
          -3.73101579e-06, -2.33234732e-06, -1.58011335e-06,
          -1.50355277e-06, -1.50355277e-06, -5.89332274e-07,
          -1.69406589e-21, -1.69406589e-21, -1.69406589e-21,
          -4.31921535e-07, -3.36280505e-06, -8.70220174e-06,
          -1.24545550e-05, -4.02844034e-06, -4.02844034e-06,
          -6.17724982e-06, -1.36372673e-05, -1.29239434e-05,
          -6.77714115e-06, -7.38749748e-07, -1.69406589e-21,
          -1.69406589e-21, -1.69406589e-21, -1.69406589e-21,
          -1.69406589e-21, -1.69406589e-21, -1.69406589e-21,
          -7.55554197e-09, -9.82220456e-08, -9.82220456e-08,
          -9.82220456e-08, -9.82220456e-08, -9.82220456e-08,
          -3.77777098e-08, -1.69406589e-21, -1.69406589e-21,
          -4.09188829e-07, -2.83853979e-06, -7.64203287e-06,
          -1.12317321e-05, -1.38304058e-05, -6.29888018e-06,
          -4.02844034e-06, -1.37994421e-05, -1.43670522e-05,
          -1.38986079e-05, -1.22306210e-05, -4.16458761e-06,
          -2.10107601e-06, -7.34921741e-07, -1.69406589e-21,
          -1.69406589e-21, -1.69406589e-21, -1.69406589e-21,
          -1.69406589e-21, -1.69406589e-21, -1.69406589e-21,
          -1.69406589e-21, -1.69406589e-21, -1.69406589e-21,
          -1.69406589e-21, -1.69406589e-21, -1.69406589e-21,
          -5.02626563e-07, -2.75461298e-06, -7.60882449e-06,
          -1.04720475e-05, -1.27879439e-05, -1.42859644e-05,
          -1.27453086e-05, -4.02844034e-06, -1.29074833e-05,
          -1.42859644e-05, -1.43670522e-05, -1.31335482e-05,
          -1.02214653e-05, -9.35257776e-06, -3.74576371e-06,
          -3.92264184e-07, -1.77654769e-07, -1.37809039e-07,
          5.67610073e-07, 9.73045758e-07, 9.73045758e-07, 9.73045758e-07,
          9.73045758e-07, 9.73045758e-07, 9.73045758e-07, 6.54787812e-07,
          6.37373105e-08, -1.96921476e-07, -2.75682441e-06,
          -7.53453469e-06, -1.02338390e-05, -1.16637866e-05,
          -1.24571188e-05, -1.29074833e-05, -4.02844034e-06,
          -4.02844034e-06, -4.02844034e-06, -1.34345501e-05,
          -1.43670522e-05, -1.43670522e-05, -1.43670522e-05,
          -1.33394979e-05, -4.85874034e-06, 1.78762969e-06,
          5.73397699e-07, -7.31153534e-07, 6.08153641e-06,
          1.03386119e-05, 1.03386119e-05, 1.03386119e-05, 1.03386119e-05,
          1.03386119e-05, 1.03386119e-05, 8.36086565e-06, 4.54177007e-06,
          2.95609925e-06, -1.80173549e-06, -2.10177700e-06,
          -2.10177700e-06, -2.58533169e-06, -4.02844034e-06,
          -4.02844034e-06, -4.02844034e-06 ]
      - [ 0., 0., 0., 0., 0., 0., 0., 1.51404595e-06, 3.36123912e-06,
          -7.09206051e-06, -7.15244369e-06, -4.10118355e-06,
          -4.10118355e-06, -3.41367922e-06, 8.36833692e-07,
          -3.13884425e-06, -7.61557067e-06, -8.33930881e-06,
          -1.50429323e-05, -2.02052547e-06, 0., 0., 0., 0., 0., 0., 0.,
          0., 0., 0., 0., 0., 0., 1.28638214e-06, 4.58719705e-06,
          -3.76598223e-06, -1.93699839e-06, -1.03824095e-06,
          -9.72769271e-07, -3.85993758e-07, -3.85993758e-07,
          -3.19869287e-07, 7.63010561e-08, -6.53074835e-07,
          -1.11942620e-06, -1.18375851e-06, -5.93164941e-06,
          -1.04651517e-05, 1.12072314e-06, 1.69085652e-07, 0., 0., 0.,
          0., 0., 0., 0., 0., 0., 2.57276429e-06, 3.75841614e-06,
          1.79486301e-06, 7.17846888e-07, -1.20642915e-06,
          -7.97764756e-07, -2.96461532e-21, -2.96461532e-21,
          -2.96461532e-21, -2.96461532e-21, -2.96461532e-21,
          -2.96461532e-21, -2.96461532e-21, -2.96461532e-21,
          -2.96461532e-21, -4.34242963e-07, -4.16161674e-06,
          -6.92244339e-06, -4.22481480e-06, -1.45014258e-06, 0., 0., 0.,
          0., 0., 0., 0., 0., 1.19410561e-06, 4.62592243e-06,
          1.91869231e-06, 1.50124208e-07, -2.96461532e-21,
          -2.96461532e-21, -2.96461532e-21, -2.96461532e-21,
          -2.96461532e-21, -2.96461532e-21, -2.96461532e-21,
          -2.96461532e-21, -2.96461532e-21, -2.96461532e-21,
          -2.96461532e-21, -2.96461532e-21, -2.96461532e-21,
          -4.84797238e-06, -8.84590827e-06, -1.12157259e-05,
          -6.18408558e-06, 0., 0., 0., 0., 0., 2.57276429e-06,
          7.43397948e-07, 1.29276339e-06, 1.45921808e-06, 1.61672233e-07,
          -2.96461532e-21, -2.96461532e-21, -2.96461532e-21,
          -2.96461532e-21, -2.96461532e-21, -2.96461532e-21,
          -7.01662998e-07, -3.04053970e-06, -2.33887661e-07,
          -2.96461532e-21, -2.96461532e-21, -2.96461532e-21,
          -2.96461532e-21, -2.96461532e-21, -7.77294019e-07,
          -3.09523693e-06, -8.16455031e-06, -9.99748227e-06,
          -4.11879864e-06, 0., 0., 0., 0., 5.84719146e-06,
          6.18929789e-06, 3.21882862e-06, 1.61672233e-07,
          -2.96461532e-21, -2.96461532e-21, -2.96461532e-21,
          2.16063484e-07, 2.40756458e-06, 1.29985858e-06,
          -5.84753309e-07, 1.41758647e-07, 1.36775793e-06,
          5.78238769e-06, 4.81597726e-06, -4.56037725e-07,
          -1.16943829e-06, -2.96461532e-21, -2.96461532e-21,
          -2.96461532e-21, -2.96461532e-21, -1.83248778e-06,
          -5.33387038e-06, -9.65353229e-06, -5.36647167e-06, 0., 0., 0.,
          3.00172564e-06, 4.52030645e-06, 1.89869070e-06,
          -2.96461532e-21, -2.96461532e-21, -2.96461532e-21,
          3.08662123e-07, 9.26203541e-07, 5.55602264e-06, 6.37118910e-06,
          1.48624167e-06, 2.30581509e-06, 6.35062952e-06, 7.82748793e-06,
          8.45675731e-06, 2.50568360e-06, 2.18791752e-06, 4.73859636e-08,
          -9.87501494e-07, -2.96461532e-21, -2.96461532e-21,
          -2.96461532e-21, -3.25069573e-06, -1.12499229e-05,
          -9.45690408e-06, 0., 0., -2.60840576e-08, -2.90272942e-06,
          -6.17395244e-07, -2.96461532e-21, -2.96461532e-21,
          -2.96461532e-21, 1.25095099e-07, 2.39922542e-06,
          5.93542063e-06, 2.96410508e-06, 6.85518171e-06, 2.07278404e-07,
          2.07278404e-07, 4.40466607e-07, 6.37381117e-06, 6.60699925e-06,
          6.60699925e-06, 9.90906574e-06, 4.79430673e-06,
          -4.82954056e-06, -4.38539359e-07, -2.92359577e-08,
          -2.96461532e-21, -7.77294034e-08, -5.81905624e-07,
          -4.53168786e-06, -4.38824628e-07, 0., 6.15228282e-06,
          1.19461356e-06, -4.98602972e-08, -2.96461532e-21,
          -2.96461532e-21, -2.96461532e-21, 1.94897325e-06,
          9.90983267e-07, 3.19402739e-06, 2.25327767e-06, 1.70220972e-06,
          0., 0., 7.77294034e-08, 1.91732533e-06, 1.99505462e-06,
          1.99505462e-06, 2.19449589e-06, 6.55427493e-06,
          -3.68561518e-06, -5.60099761e-06, -4.97011285e-07,
          -2.96461532e-21, -2.96461532e-21, -2.53671647e-06,
          -9.17258512e-06, -4.11802830e-06, 0., 1.66817736e-05,
          2.90613389e-06, -2.96461532e-21, -2.96461532e-21,
          -2.96461532e-21, -2.29961574e-06, -4.05577657e-06,
          3.89938668e-06, 0., 0., 0., 0., 0., 0., 0., 0., 0., 0.,
          4.45152955e-06, 9.30464375e-06, -9.82028268e-07,
          4.47065702e-07, -2.96461532e-21, -2.96461532e-21,
          -1.15810383e-06, -4.51522101e-06, -5.93311506e-06, 0.,
          1.10614974e-05, 2.02314277e-06, -2.96461532e-21,
          -2.96461532e-21, -2.96461532e-21, -1.87848684e-06,
          -6.05423975e-06, 7.14664282e-07, 0., 0., 0., 0., 0., 0., 0.,
          0., 0., 0., 3.78283107e-06, 6.99020711e-06, 8.67471499e-06,
          3.98817565e-06, -2.96461532e-21, -2.96461532e-21,
          -2.96461532e-21, -1.30818501e-06, -7.27139377e-06,
          -3.38741813e-07, -5.72554939e-07, 2.23057341e-08,
          -2.96461532e-21, -2.96461532e-21, -2.96461532e-21,
          -5.94234905e-07, -4.69547967e-06, 0., 0., 0., 0., 0., 0., 0.,
          0., 0., 0., 0., 5.18196032e-07, 4.30102682e-06, 8.41702786e-06,
          -7.85896574e-08, -6.40647784e-07, -2.96461532e-21,
          -2.96461532e-21, -1.95637540e-06, -8.53704751e-06,
          3.19916057e-06, 1.66371228e-05, 5.56386158e-06, 3.45701574e-06,
          3.59174260e-06, 2.50314042e-06, 3.00160787e-06, 3.26391137e-06,
          0., 0., 0., 0., 0., 0., 0., 0., 0., 0., 0., 0., 1.55458804e-06,
          4.71558405e-06, 3.94938752e-06, 3.70536054e-06,
          -2.96461532e-21, -2.96461532e-21, -1.95637540e-06,
          -7.83538417e-06, 6.47358775e-06, 2.24014766e-05,
          2.02701467e-05, 1.12128600e-05, 8.54066911e-06, 1.23554655e-05,
          7.49456285e-06, 2.02096453e-06, 0., 0., 0., 0., 0., 0., 0., 0.,
          0., 0., 0., 0., 0., 3.52373286e-06, 4.42525334e-06,
          4.03646618e-06, -2.96461532e-21, -2.96461532e-21,
          -1.83627549e-06, -7.23434778e-06, 6.47358775e-06,
          2.24014766e-05, 2.24014766e-05, 2.03292748e-05, 1.95854082e-05,
          1.83595366e-05, 5.86129727e-06, 0., 0., 0., 0., 0., 0., 0., 0.,
          0., 0., 0., 0., 0., 0., 3.52373286e-06, -2.58545742e-06,
          -7.33560981e-08, -2.96461532e-21, -2.96461532e-21,
          -1.85125691e-06, -7.37519804e-06, 6.47358775e-06,
          2.24014766e-05, 2.24014766e-05, 2.24014766e-05, 2.24014766e-05,
          1.97410045e-05, 5.86129727e-06, 0., 0., 0., 0., 0., 0., 0., 0.,
          0., 0., 0., 0., 0., 0., 3.54964277e-06, -5.25276118e-06,
          -1.77417860e-06, -2.96461532e-21, -2.96461532e-21,
          -1.19185086e-06, -4.06262188e-06, 6.47358775e-06,
          2.24014766e-05, 2.24014766e-05, 2.24014766e-05, 2.24014766e-05,
          1.97410045e-05, 5.86129727e-06, 0., 0., 0., 0., 0., 0., 0., 0.,
          0., 0., 0., 0., 0., 0., 3.54964277e-06, -6.92811818e-06,
          -4.01789202e-06, -2.96461532e-21, -2.96461532e-21,
          -1.19185086e-06, -4.06262188e-06, 6.47358775e-06,
          2.24014766e-05, 2.24014766e-05, 2.24014766e-05, 2.24014766e-05,
          1.97410045e-05, 7.95543019e-06, 1.59552951e-06, 0., 0., 0., 0.,
          0., 0., 0., 0., 0., 0., 0., 0., 0., -8.21879712e-06,
          -1.14939348e-05, -4.18409309e-06, -2.96461532e-21,
          -2.96461532e-21, 5.36656955e-07, 1.46714456e-06,
          7.36278525e-06, 1.94929598e-05, 2.20856964e-05, 2.24014766e-05,
          2.24014766e-05, 1.97410045e-05, 8.43741236e-06, 1.96117162e-06,
          0., 0., 0., 0., 0., 0., 0., 0., 0., 0., 0., 0., 0.,
          -1.44852975e-05, -1.25504475e-05, -2.40574241e-06,
          -2.96461532e-21, -2.96461532e-21, 2.55418627e-06,
          7.92426181e-06, 7.45516900e-06, 1.81633513e-05, 2.19527356e-05,
          2.24014766e-05, 2.24014766e-05, 1.97410045e-05, 8.43741236e-06,
          1.96117162e-06, 0., 0., 0., 0., 0., 0., 0., 0., 0., 0., 0.,
          -2.14262755e-07, -9.36280776e-06, -1.90483715e-05,
          -1.44746646e-05, -1.60797765e-06, -2.96461532e-21,
          -2.96461532e-21, 5.66315930e-06, 1.89797811e-05,
          7.45516900e-06, 1.52096345e-05, 2.16418175e-05, 2.24014766e-05,
          2.24014766e-05, 1.97410045e-05, 8.43741236e-06, 1.96117162e-06,
          0., 0., 0., 0., 0., 0., 0., 0., 0., -8.02521470e-07,
          -3.93521623e-06, -7.68239806e-06, -2.10615472e-05,
          -2.24014766e-05, -1.54851459e-05, -4.15150589e-06,
          -1.16943829e-06, 2.78411562e-06, 1.14309423e-05,
          2.08189267e-05, 7.45516900e-06, 1.15563525e-05, 2.12531704e-05,
          2.24014766e-05, 2.24014766e-05, 1.97410045e-05, 8.43741236e-06,
          1.96117162e-06, 0., 0., 0., 0., 0., 0., 0., 0., 0.,
          -2.60883121e-06, -1.26581272e-05, -2.20704351e-05,
          -2.23706829e-05, -2.24014766e-05, -1.54851459e-05,
          -7.45516900e-06, -1.06088201e-07, 1.15723151e-05,
          2.21551200e-05, 2.08189267e-05, 7.45516900e-06, 1.15563525e-05,
          2.12531704e-05, 2.24014766e-05, 2.24014766e-05, 1.97410045e-05,
          8.43741236e-06, 1.96117162e-06, 0., 0., 0., 0., 0., 0., 0., 0.,
          -1.07832659e-06, -7.60033799e-06, -2.24014766e-05,
          -2.24014766e-05, -2.24014766e-05, -2.24014766e-05,
          -1.58507883e-05, -7.93715208e-06, 7.95247979e-06,
          2.21512710e-05, 2.24014766e-05, 2.09020272e-05, 8.25293409e-06,
          1.15563525e-05, 2.12365503e-05, 2.24014766e-05, 2.24014766e-05,
          1.97410045e-05, 1.09765733e-05, 3.90440664e-06, 0., 0., 0., 0.,
          0., 0., 0., -2.16063484e-07, -7.74056298e-06, -2.20473376e-05,
          -2.24014766e-05, -2.24014766e-05, -2.24014766e-05,
          -2.24014766e-05, -1.74463185e-05, -9.43468876e-06,
          8.65754282e-06, 2.24014766e-05, 2.24014766e-05, 2.12515861e-05,
          1.16932943e-05, 1.15563525e-05, 2.12365503e-05, 2.24014766e-05,
          2.24014766e-05, 1.97410045e-05, 1.24534317e-05, 5.01852810e-06,
          0., 0., 0., 0., 0., 0., 0., -3.50669961e-06, -1.27359672e-05,
          -2.24014766e-05, -2.24014766e-05, -2.24014766e-05,
          -2.24014766e-05, -2.24014766e-05, -1.74463185e-05,
          2.24536120e-06, 1.89589555e-05, 2.24014766e-05, 2.24014766e-05,
          2.12515861e-05, 1.16932943e-05, 1.15563525e-05, 2.12531704e-05,
          2.24014766e-05, 2.24014766e-05, 1.97410045e-05, 1.24534317e-05,
          5.01852810e-06, 0., 0., 0., 0., 0., 0., -3.76902653e-06,
          -1.30090712e-05, -2.12856758e-05, -2.24014766e-05,
          -2.24014766e-05, -2.24014766e-05, -2.24014766e-05,
          -2.24014766e-05, -4.48875744e-06, 1.08234753e-05,
          1.97410045e-05, 2.24014766e-05, 2.24014766e-05, 2.12676696e-05,
          1.16932943e-05, 1.15563525e-05, 2.12531704e-05, 2.24014766e-05,
          2.24014766e-05, 1.97410045e-05, 1.24534317e-05, 5.01852810e-06,
          0., 0., 0., 0., 0., -3.80374217e-06, -1.34035199e-05,
          -2.08074762e-05, -2.24014766e-05, -2.24014766e-05,
          -2.24014766e-05, -2.24014766e-05, -2.24014766e-05,
          -9.44173371e-06, 3.06783681e-06, 1.23701930e-05,
          1.97410045e-05, 2.24014766e-05, 2.24014766e-05, 2.12676696e-05,
          1.16932943e-05, 1.15563525e-05, 2.12531704e-05, 2.24014766e-05,
          2.24014766e-05, 1.97410045e-05, 1.24534317e-05, 5.01852810e-06,
          0., 0., 0., 0., -3.60699687e-06, -1.37637626e-05,
          -2.06480763e-05, -2.24014766e-05, -2.24014766e-05,
          -2.24014766e-05, -2.24014766e-05, -2.23088791e-05,
          -1.83580032e-05, -4.09404538e-06, 4.73959608e-06,
          1.23701930e-05, 1.97410045e-05, 2.24014766e-05, 2.21923983e-05,
          2.02383526e-05, 1.16932943e-05, 1.15563525e-05, 2.12531704e-05,
          2.24014766e-05, 2.24014766e-05, 1.97410045e-05, 1.24534317e-05,
          5.01852810e-06, 0., 0., 0., -3.02488866e-06, -1.40890415e-05,
          -2.06480763e-05, -2.24014766e-05, -2.24014766e-05,
          -2.24014766e-05, -2.24014766e-05, -2.19693502e-05,
          -1.87194801e-05, -7.03119758e-06, -1.15965850e-06,
          4.95515906e-06, 1.23701930e-05, 1.97410045e-05, 2.24014766e-05,
          2.16616554e-05, 1.76007288e-05, 1.16932943e-05, 1.15563525e-05,
          2.12531704e-05, 2.24014766e-05, 2.24014766e-05, 1.97410045e-05,
          1.24534317e-05, 5.01852810e-06, 0., 0., 0., -1.34470311e-05,
          -2.07744088e-05, -2.24014766e-05, -2.24014766e-05,
          -2.24014766e-05, -2.24014766e-05, -2.18150199e-05,
          -1.83306092e-05, -6.92254935e-06, -6.04471268e-07, 0.,
          4.92924937e-06, 1.23183736e-05, 1.97410045e-05, 2.24014766e-05,
          2.17742381e-05, 1.81797204e-05, 1.16932943e-05, 1.15563525e-05,
          2.12531704e-05, 2.24014766e-05, 2.24014766e-05, 1.97410045e-05,
          1.24534317e-05, 5.45065086e-06, 1.54326671e-07,
          -2.02061074e-06, -7.68045174e-06, -2.05840570e-05,
          -2.24014766e-05, -2.24014766e-05, -2.24014766e-05,
          -2.24014766e-05, -2.19076173e-05, -1.79806229e-05,
          -7.20670550e-06, 0., 0., 0., 2.70100645e-06, 9.39056554e-06,
          1.97410045e-05, 2.24014766e-05, 2.24014766e-05, 2.12676696e-05,
          1.16932943e-05, 1.15563525e-05, 2.12106406e-05, 2.24014766e-05,
          2.24014766e-05, 1.97410045e-05, 1.24534317e-05, 7.29548174e-06,
          -2.83589884e-07, -1.38310361e-05, -2.22228300e-05,
          -2.24014766e-05, -2.24014766e-05, -2.24014766e-05,
          -2.24014766e-05, -2.24014766e-05, -1.79511680e-05,
          -7.21364677e-06, 0., 0., 0., 0., 1.89780258e-06,
          8.35417359e-06, 1.97410045e-05, 2.24014766e-05, 2.24014766e-05,
          2.15785876e-05, 1.49311354e-05, 1.15563525e-05, 2.12365503e-05,
          2.24014766e-05, 2.24014766e-05, 1.97410045e-05, 1.24534317e-05,
          6.77297885e-06, -4.59623243e-06, -2.23745319e-05,
          -2.24014766e-05, -2.24014766e-05, -2.24014766e-05,
          -2.24014766e-05, -2.24014766e-05, -2.06480763e-05,
          -1.21666326e-05, -2.30960318e-08, 0., 0., 0., 0.,
          1.89780258e-06, 8.35417359e-06, 1.97410045e-05, 2.24014766e-05,
          2.24014766e-05, 2.23853949e-05, 2.22728122e-05, 1.15563525e-05,
          2.12531704e-05, 2.24014766e-05, 2.24014766e-05, 1.97410045e-05,
          1.24534317e-05, 4.28073145e-06, -1.55736798e-05,
          -2.24014766e-05, -2.24014766e-05, -2.24014766e-05,
          -2.24014766e-05, -2.24014766e-05, -1.88518625e-05,
          -9.55848463e-06, -1.04930814e-06, 0., 0., 0., 0., 0.,
          1.89780258e-06, 8.35417359e-06, 1.97410045e-05, 2.24014766e-05,
          2.24014766e-05, 2.19993999e-05, 1.86862871e-05, 1.15563525e-05,
          1.86438137e-05, 2.18696350e-05, 2.24014766e-05, 1.97410045e-05,
          1.16472129e-05, 7.01318697e-07, -1.66174104e-05,
          -2.24014766e-05, -2.24014766e-05, -2.24014766e-05,
          -2.24014766e-05, -2.24014766e-05, -1.70929416e-05,
          -7.13129612e-06, 0., 0., 0., 0., 0., 0., 1.89780258e-06,
          1.23887357e-05, 2.15536347e-05, 2.24014766e-05, 2.24014766e-05,
          2.19672347e-05, 1.83002940e-05, 1.15563525e-05, 1.74378783e-05,
          2.16369535e-05, 2.24014766e-05, 1.86822726e-05, 4.25675444e-06,
          -1.09880684e-05, -1.66007903e-05, -2.24014766e-05,
          -2.24014766e-05, -2.24014766e-05, -2.24014766e-05,
          -1.90972532e-05, -7.89300339e-06, -1.19329499e-07, 0., 0., 0.,
          0., 0., 0., 3.08965355e-06, 1.57559534e-05, 2.24014766e-05,
          2.24014766e-05, 2.24014766e-05, 2.19672347e-05, 1.83002940e-05,
          1.15563525e-05, 1.74637880e-05, 2.16369535e-05, 2.24014766e-05,
          1.12135112e-05, -3.62038145e-06, -1.15563525e-05,
          -1.66007903e-05, -2.24014766e-05, -2.24014766e-05,
          -2.24014766e-05, -1.97469835e-05, -6.96966026e-06,
          -3.88845734e-07, 0., 0., 0., 0., 0., 0., 0., 4.95515906e-06,
          1.82173844e-05, 2.24014766e-05, 2.24014766e-05, 2.24014766e-05,
          2.19672347e-05, 1.83002940e-05, 1.15563525e-05, 1.74637880e-05,
          2.16369535e-05, 1.30684466e-05, 3.58230091e-06,
          -1.96336919e-06, -8.13841234e-06, -1.58270523e-05,
          -2.16037133e-05, -2.24014766e-05, -2.02408428e-05,
          -6.16060197e-06, -6.99947350e-07, 0., 0., 0., 0., 0., 0., 0.,
          1.44747662e-06, 6.40263579e-06, 1.82173844e-05, 2.24014766e-05,
          2.24014766e-05, 2.24014766e-05, 2.19672347e-05, 1.83002940e-05,
          9.12780888e-06, 1.38122741e-05, 1.15919638e-05, 3.62035621e-06,
          -2.96461532e-21, -2.96461532e-21, -2.72962825e-06,
          -1.41133723e-05, -1.98253620e-05, -2.24014766e-05,
          -5.60174203e-06, -7.29984720e-07, 0., 0., 0., 0., 0., 0., 0.,
          0., 2.27500573e-06, 8.81056440e-06, 1.90209630e-05,
          2.24014766e-05, 2.24014766e-05, 2.24014766e-05, 2.19672347e-05,
          1.83002940e-05, 7.45516900e-06, 2.62849198e-06, 1.34733409e-06,
          -2.96461532e-21, -2.96461532e-21, -2.96461532e-21,
          -1.52632799e-06, -1.15680150e-05, -1.74929810e-05,
          -1.18082262e-05, -1.46192690e-06, 0., 0., 0., 0., 0., 0., 0.,
          0., 1.40651991e-06, 5.37720098e-06, 1.73156623e-05,
          2.24014766e-05, 2.24014766e-05, 2.24014766e-05, 2.24014766e-05,
          2.19511512e-05, 1.83002940e-05, 7.45516900e-06,
          -6.85355917e-06, -1.69433440e-06, -2.96461532e-21,
          -2.96461532e-21, -2.96461532e-21, -2.92359577e-08,
          -2.24395785e-06, -1.02690528e-05, 1.98444855e-06,
          -6.17324218e-08, 0., 0., 0., 0., 0., 0., 0., 1.30272895e-06,
          4.73981481e-06, 1.67948292e-05, 2.22226608e-05, 2.24014766e-05,
          2.24014766e-05, 2.24014766e-05, 2.20476504e-05, 2.02463452e-05,
          1.83002940e-05, -5.38631093e-06, -1.15436933e-05,
          -5.08737048e-06, -8.64245180e-07, -2.96461532e-21,
          -2.96461532e-21, -2.96461532e-21, -1.01033493e-06,
          -7.01267300e-06, 5.38348240e-06, 3.48214689e-06,
          1.26864461e-06, -2.98537998e-06, -6.06009826e-06,
          -6.06009826e-06, -6.06009826e-06, -2.17171578e-06,
          -8.25501267e-09, 1.63221841e-06, 4.80678091e-06,
          1.12198313e-05, 1.46687398e-05, 1.46687398e-05, 1.48612062e-05,
          1.46509110e-05, 1.28544070e-05, 9.34661239e-06, 4.91604396e-06,
          -8.85246482e-06, -1.83811426e-05, -1.06544621e-05,
          -4.04412322e-06, -9.47345654e-07, -2.96461532e-21,
          -2.96461532e-21, -2.96461532e-21, -1.56806175e-06,
          1.10280155e-06, -8.18141132e-07, -1.74682009e-06,
          -4.46916511e-06, -9.91302386e-06, -1.56276365e-05,
          -1.17964346e-05, -6.83037615e-06, -5.46731053e-06,
          -5.46731053e-06, -2.68378062e-06, 8.88799036e-07,
          2.46929699e-06, 2.46929699e-06, 2.33076730e-06, 1.03742002e-06,
          -2.08141455e-06, -4.98501640e-06, -9.18987189e-06,
          -8.85246482e-06, -2.02230094e-05, -1.78679438e-05,
          -1.12350754e-05, -4.42246710e-06, -2.96461532e-21,
          -2.96461532e-21, -2.96461532e-21, -2.96461532e-21,
          -2.96461532e-21, -2.96461532e-21, -2.96461532e-21,
          -7.01662998e-07, -3.52227630e-06, -1.00440802e-05,
          -7.71916439e-06, -5.48845264e-06, -5.15605052e-06,
          -5.15605052e-06, -2.02096453e-06, -2.96461532e-21,
          -2.96461532e-21, -4.50326041e-07, -2.10688268e-06,
          -4.69950737e-06, -8.80384323e-06, -1.36225945e-05,
          -1.45305939e-05, -1.27843350e-05, -2.08606089e-05,
          -2.24014766e-05, -1.74527049e-05, -9.35064145e-06,
          -1.08511199e-06, -2.96461532e-21, -2.96461532e-21,
          -2.96461532e-21, -2.96461532e-21, -2.96461532e-21,
          -2.96461532e-21, -2.96461532e-21, -2.59098005e-08,
          -3.36827412e-07, -3.36827412e-07, -3.36827412e-07,
          -3.36827412e-07, -3.36827412e-07, -1.29549008e-07,
          -2.96461532e-21, -4.18159914e-07, -2.15513182e-06,
          -4.10118355e-06, -6.80208359e-06, -1.42188910e-05,
          -2.13806361e-05, -1.79876097e-05, -1.95854082e-05,
          -2.19232770e-05, -2.24014766e-05, -2.07950688e-05,
          -1.76164012e-05, -6.23256210e-06, -1.97293093e-06,
          -1.05240883e-06, -2.96461532e-21, -2.96461532e-21,
          -2.96461532e-21, -2.96461532e-21, -2.96461532e-21,
          -2.96461532e-21, -2.96461532e-21, -2.96461532e-21,
          -2.96461532e-21, -2.96461532e-21, -2.96461532e-21,
          -3.85993758e-07, -6.43322949e-07, -2.25163035e-06,
          -4.61640684e-06, -6.92182539e-06, -1.10444807e-05,
          -1.69863288e-05, -2.24014766e-05, -2.24014766e-05,
          -7.27850284e-06, -1.72144446e-05, -2.02730025e-05,
          -2.07012090e-05, -1.85377485e-05, -1.22656647e-05,
          -9.25909171e-06, -4.63356400e-06, 3.08835553e-07,
          5.20359038e-07, -7.71783789e-07, 1.07596111e-06,
          1.79265237e-06, 1.72652790e-06, 1.33035746e-06, 1.80813379e-06,
          2.79585265e-06, 2.61065520e-06, 1.31427441e-06,
          -9.37355821e-07, -2.94998176e-06, -4.51429833e-06,
          -5.94823405e-06, -1.19307488e-05, -1.47678647e-05,
          -1.74883935e-05, -2.04388816e-05, -1.91272466e-05, 0., 0.,
          -6.46094168e-06, -8.85246482e-06, -8.85246482e-06,
          -8.85246482e-06, -5.02848388e-06, -1.26388454e-06,
          4.49477238e-06, 5.22895016e-06, -5.57535441e-06,
          7.79116817e-06, 1.45305939e-05, 1.38430887e-05, 9.59257613e-06,
          1.21331886e-05, 1.73187127e-05, 1.63309942e-05, 9.44782823e-06,
          9.44782823e-06, 6.64462777e-06, -1.71921863e-06,
          -2.24546579e-06, -2.24546579e-06, -3.90369314e-06,
          -8.85246482e-06, -7.42912789e-06, 0. ]
      - [ 0., 0., 0., 0., 0., 0., 0., 2.30569822e-06, -8.81092433e-07,
          -2.75964499e-06, -7.76348224e-06, -1.50946498e-05,
          -1.50946498e-05, -1.47794253e-05, -3.80093161e-06,
          5.64987204e-06, -3.48778167e-06, -8.08383174e-06,
          -1.03171169e-05, 2.49475329e-06, 0., 0., 0., 0., 0., 0., 0.,
          0., 0., 0., 0., 0., 0., 1.34730078e-06, 9.86414852e-06,
          1.93844494e-06, -4.95276026e-07, 9.71685168e-08,
          -8.15462556e-07, -1.80738903e-06, -1.80738903e-06,
          -1.77236404e-06, -5.79039295e-07, 6.27292536e-07,
          -4.08529047e-07, -2.51832898e-06, -1.22151914e-05,
          -1.51203258e-05, -1.09226185e-05, -8.58260591e-07, 0., 0., 0.,
          0., 0., 0., 0., 0., 0., 2.69460156e-06, 2.66920756e-06,
          -2.00755812e-06, -4.24564314e-06, -2.20143147e-06,
          -4.01668217e-07, -4.23516474e-21, -4.23516474e-21,
          -4.23516474e-21, -4.23516474e-21, -4.23516474e-21,
          -4.23516474e-21, -4.23516474e-21, -4.23516474e-21,
          -6.04243951e-07, -2.54087763e-06, -6.00209160e-06,
          -1.25869446e-05, -1.06854777e-05, -7.29851172e-06,
          -2.83221038e-06, 0., 0., 0., 0., 0., 0., 0., 2.40086501e-06,
          5.33922685e-06, -1.76945525e-06, -3.05940989e-06,
          -1.04295884e-06, -4.23516474e-21, -4.23516474e-21,
          -4.23516474e-21, -4.23516474e-21, -4.23516474e-21,
          -4.23516474e-21, -4.23516474e-21, -4.23516474e-21,
          -4.23516474e-21, -4.23516474e-21, -4.23516474e-21,
          -6.76753245e-07, -6.67734685e-06, -1.18785383e-05,
          -1.33776557e-05, -8.40090615e-06, -3.54026292e-06, 0., 0., 0.,
          0., 2.69460156e-06, 4.59534613e-06, 2.72818988e-06,
          -1.89891509e-07, -9.96853259e-07, -4.23516474e-21,
          -4.23516474e-21, -4.23516474e-21, -4.23516474e-21,
          -4.23516474e-21, -4.23516474e-21, 1.21120513e-06,
          5.28671399e-06, 3.84655664e-07, -4.23516474e-21,
          -4.23516474e-21, -4.23516474e-21, -4.23516474e-21,
          -4.23516474e-21, -1.35962671e-06, -5.89968658e-06,
          -1.21575995e-05, -1.62178367e-05, -8.94804816e-06, 0., 0., 0.,
          0., 6.12409440e-06, 4.55094050e-06, 3.83390727e-07,
          -9.96853259e-07, -4.23516474e-21, -4.23516474e-21,
          -4.23516474e-21, -4.23516474e-21, 5.09419351e-06,
          8.07074503e-06, 5.30456236e-06, 1.39956444e-06, 7.60313014e-06,
          6.44576994e-06, 6.35531069e-06, 1.73616672e-06,
          -1.22481890e-06, -4.23516474e-21, -4.23516474e-21,
          -4.23516474e-21, -8.21771778e-07, -6.21967365e-06,
          -1.44112755e-05, -1.61814114e-05, -6.29351234e-06, 0., 0., 0.,
          4.02867272e-06, -1.68013082e-06, -1.23367840e-06,
          -4.23516474e-21, -4.23516474e-21, -4.23516474e-21,
          3.75800880e-07, 6.02830960e-06, 1.38963933e-05, 1.19073948e-05,
          5.64515767e-06, 3.05331150e-06, 6.16448187e-06, 6.04443039e-06,
          6.93758057e-06, 2.58829141e-06, 4.74296621e-06, 6.01467264e-06,
          -2.22001404e-06, -1.16846229e-06, -9.10490101e-08,
          -8.21771778e-07, -6.86286694e-06, -1.61488551e-05,
          -1.41351775e-05, -1.49191260e-06, 0., 1.33971832e-06,
          1.23646169e-06, -3.52876754e-07, -4.38714864e-07,
          -4.23516474e-21, 1.20200070e-06, 5.92631523e-06,
          8.08309869e-06, 1.39485091e-05, 1.23212340e-05, 5.58391639e-06,
          1.56318521e-07, 1.56318521e-07, 1.77819288e-07, 5.07413552e-06,
          7.58512169e-06, 7.58512169e-06, 1.07373671e-05, 9.04209992e-06,
          -6.33600121e-06, -4.54929750e-06, -3.03767507e-07,
          -4.23516474e-21, -1.04957951e-06, -8.58182375e-06,
          -1.07655187e-05, -2.33160949e-06, 0., 1.37380612e-05,
          3.40940323e-06, -1.63071448e-07, -4.23516474e-21,
          -4.23516474e-21, 3.34876199e-06, 1.47005167e-05,
          1.08002896e-05, 1.02901022e-05, 3.36563721e-06, 1.13330930e-06,
          0., 0., 5.86194453e-08, 1.44594640e-06, 1.50456583e-06,
          1.50456583e-06, 1.50456583e-06, 5.15365309e-06,
          -1.05232823e-06, -1.14459654e-05, -1.02102194e-06,
          -4.23516474e-21, -9.90960075e-07, -7.41383656e-06,
          -7.30958664e-06, -2.96098938e-06, -2.91088304e-06,
          5.05233356e-06, 7.05074444e-06, 1.64412893e-06, 2.34875550e-08,
          1.08752442e-06, 2.79826736e-06, 6.70289546e-06, 9.81862104e-06,
          3.19915171e-06, 0., 0., 0., 0., 0., 0., 0., 0., 0.,
          4.08520509e-06, 6.29282295e-06, -4.61002082e-06,
          -1.30624002e-07, 8.31271940e-09, -9.90960075e-07,
          -6.83792177e-06, -3.72667864e-06, 1.41936619e-06,
          -9.40392329e-06, 3.31481328e-06, 9.12437099e-06,
          8.68041843e-06, 5.13379746e-06, 7.66943049e-06, 1.10630335e-05,
          2.87129296e-06, 2.79571327e-06, 1.69188311e-07, 0., 0., 0., 0.,
          0., 0., 0., 0., 0., 2.78376319e-06, 5.52188339e-06,
          1.08163949e-05, 1.58532339e-06, 1.26418638e-06,
          -9.66790310e-08, -1.28099714e-06, -4.03682452e-06,
          -7.78073058e-07, -3.72855106e-06, 2.55918185e-05,
          3.26979789e-05, 3.29929026e-05, 3.22412998e-05, 3.18185230e-05,
          2.46802538e-05, 5.96854352e-06, 3.38376623e-07, 0., 0., 0., 0.,
          0., 0., 0., 0., 0., 0., 3.90796316e-07, 2.75718912e-06,
          5.56276518e-06, -7.83523410e-06, -2.91195943e-06,
          -4.23516474e-21, -1.45018547e-07, -1.68203178e-06,
          -5.66055041e-06, 1.01437240e-06, 2.55918185e-05,
          3.39174039e-05, 3.45519147e-05, 3.45519147e-05, 3.23559034e-05,
          1.83747452e-05, 4.03496279e-06, 0., 0., 0., 0., 0., 0., 0., 0.,
          0., 0., 0., 0., 6.63008962e-07, 1.64501046e-06,
          -6.66527967e-06, -2.17327670e-06, -4.23516474e-21,
          -4.23516474e-21, -1.45473598e-06, -7.13156123e-06,
          4.44386524e-06, 2.55918185e-05, 3.39174039e-05, 3.45519147e-05,
          3.45519147e-05, 3.03845409e-05, 1.14548329e-05, 2.81831444e-06,
          0., 0., 0., 0., 0., 0., 0., 0., 0., 0., 0., 0., 0.,
          2.99282851e-06, -6.10212373e-06, -3.86107331e-06,
          -8.19441141e-07, -4.23516474e-21, -1.36153392e-06,
          -4.93618381e-06, 4.44386524e-06, 2.86130380e-05,
          3.40756233e-05, 3.45519147e-05, 3.45519147e-05, 3.03845409e-05,
          1.18787475e-05, 1.99513170e-06, 0., 0., 0., 0., 0., 0., 0., 0.,
          0., 0., 0., 0., 0., 2.44212083e-06, -1.34580032e-05,
          -6.82103018e-06, -1.38091002e-06, -4.23516474e-21,
          -2.60072170e-06, -1.14088452e-05, 4.44386524e-06,
          3.17551057e-05, 3.42557796e-05, 3.45519147e-05, 3.45519147e-05,
          3.03845409e-05, 1.25071610e-05, 2.16432022e-06, 0., 0., 0., 0.,
          0., 0., 0., 0., 0., 0., 0., 0., -6.48301807e-07,
          -3.00435840e-06, -1.81582745e-05, -7.25372911e-06,
          -1.38091002e-06, -4.23516474e-21, -8.44059514e-07,
          -3.67146777e-06, 1.15637276e-05, 3.17551057e-05,
          3.42557796e-05, 3.45519147e-05, 3.45519147e-05, 3.03845409e-05,
          9.46177170e-06, 1.29420880e-06, 0., 0., 0., 0., 0., 0., 0., 0.,
          0., 0., 0., -2.34875550e-08, -4.30631826e-06, -1.66125210e-05,
          -2.29015805e-05, -7.25372911e-06, -1.38091002e-06,
          -4.23516474e-21, 4.21570257e-06, 8.94184086e-06,
          1.44746109e-05, 3.17551057e-05, 3.42557796e-05, 3.45519147e-05,
          3.45519147e-05, 3.03845409e-05, 1.03318825e-05, 1.53590645e-06,
          0., 0., 0., 0., 0., 0., 0., 0., 0., 0., 0., -3.41605028e-06,
          -1.79039216e-05, -2.75873062e-05, -2.36956112e-05,
          -7.25372911e-06, -1.38091002e-06, 3.94943117e-06,
          1.37774114e-05, 1.88413633e-05, 1.44746109e-05, 3.17551057e-05,
          3.42557796e-05, 3.45519147e-05, 3.45519147e-05, 3.03845409e-05,
          1.44165715e-05, 2.72022453e-06, 0., 0., 0., 0., 0., 0., 0., 0.,
          0., -4.64408402e-07, -4.33719788e-06, -1.34689781e-05,
          -2.97710230e-05, -3.18944985e-05, -2.40103000e-05,
          -7.25372911e-06, -1.38091002e-06, 7.78417325e-06,
          2.04216776e-05, 2.24602991e-05, 1.44746109e-05, 3.17551057e-05,
          3.42557796e-05, 3.45519147e-05, 3.45519147e-05, 3.03845409e-05,
          1.44165715e-05, 3.29055388e-06, 5.59361467e-07, 0., 0., 0., 0.,
          0., 0., 0., 0., -9.60693524e-06, -2.32835246e-05,
          -3.01580203e-05, -3.45284243e-05, -3.38093996e-05,
          -2.59252029e-05, -7.25372911e-06, 2.16785406e-06,
          1.59414467e-05, 2.94344100e-05, 2.56648273e-05, 1.44746109e-05,
          2.95275677e-05, 3.40213046e-05, 3.45519147e-05, 3.45519147e-05,
          3.03845409e-05, 1.44165715e-05, 3.78410800e-06, 1.06388347e-06,
          -4.69751114e-07, -1.15846606e-05, -1.52083048e-05,
          -1.52083048e-05, -1.52083048e-05, -1.20331451e-05,
          -6.06812455e-06, -1.08633121e-05, -2.72545203e-05,
          -3.45519147e-05, -3.45519147e-05, -3.45519147e-05,
          -3.45519147e-05, -2.66872557e-05, -9.91771049e-06,
          9.29449288e-06, 2.70791406e-05, 3.44794025e-05, 3.19668543e-05,
          1.44746109e-05, 2.20835191e-05, 3.34513716e-05, 3.45519147e-05,
          3.45519147e-05, 3.03845409e-05, 1.44165715e-05, 2.72022453e-06,
          0., -2.14553256e-06, -2.49670320e-05, -3.45519147e-05,
          -3.45519147e-05, -3.45519147e-05, -3.28947644e-05,
          -2.23584029e-05, -3.11276854e-05, -3.45519147e-05,
          -3.45519147e-05, -3.45519147e-05, -3.45519147e-05,
          -3.45519147e-05, -2.66872557e-05, -8.29624059e-06,
          1.42098379e-05, 2.96373692e-05, 3.45519147e-05, 3.27402886e-05,
          1.44746109e-05, 2.06091645e-05, 3.33898279e-05, 3.45519147e-05,
          3.45519147e-05, 3.03845409e-05, 1.44165715e-05, 2.72022453e-06,
          0., -3.62736523e-06, -2.56462063e-05, -3.45519147e-05,
          -3.45519147e-05, -3.45519147e-05, -3.45519147e-05,
          -3.45519147e-05, -3.45519147e-05, -3.45519147e-05,
          -3.45519147e-05, -3.45519147e-05, -3.45519147e-05,
          -3.45519147e-05, -2.39392120e-05, 4.18602986e-06,
          2.58324890e-05, 3.45519147e-05, 3.45519147e-05, 3.27402886e-05,
          1.44746109e-05, 2.06091645e-05, 3.33898279e-05, 3.45519147e-05,
          3.45519147e-05, 3.03845409e-05, 1.63314744e-05, 4.18571062e-06,
          0., -3.62736523e-06, -2.52455393e-05, -3.42657222e-05,
          -3.45519147e-05, -3.45519147e-05, -3.44946748e-05,
          -3.39795333e-05, -3.44374384e-05, -3.45519147e-05,
          -3.45519147e-05, -3.45519147e-05, -3.45519147e-05,
          -3.45519147e-05, -2.48082506e-05, 5.65622304e-06,
          2.67333326e-05, 3.45519147e-05, 3.45519147e-05, 3.27052621e-05,
          1.44746109e-05, 2.06091645e-05, 3.33898279e-05, 3.45519147e-05,
          3.45519147e-05, 3.10067080e-05, 1.88109789e-05, 5.02592275e-06,
          0., -3.39248959e-06, -1.40292141e-05, -2.48912802e-05,
          -3.39177495e-05, -3.45519147e-05, -3.35216282e-05,
          -2.15588570e-05, -3.15755315e-05, -3.45519147e-05,
          -3.45519147e-05, -3.45519147e-05, -3.45519147e-05,
          -3.45519147e-05, -2.66872557e-05, -3.15302884e-07,
          2.38617122e-05, 3.45519147e-05, 3.45519147e-05, 3.27052621e-05,
          1.44746109e-05, 2.06091645e-05, 3.33898279e-05, 3.45519147e-05,
          3.45519147e-05, 3.17654485e-05, 2.04802109e-05, 5.02592275e-06,
          0., -3.08715153e-06, -1.03872644e-05, -1.48826739e-05,
          -1.88283775e-05, -1.97209047e-05, -1.96064284e-05,
          -1.80037623e-05, -1.93202377e-05, -2.83991958e-05,
          -3.45519147e-05, -3.45519147e-05, -3.45519147e-05,
          -3.45519147e-05, -2.66872557e-05, -1.14219647e-05,
          8.78463015e-06, 2.68494277e-05, 3.45519147e-05, 3.27402886e-05,
          1.44746109e-05, 2.06091645e-05, 3.33788594e-05, 3.45519147e-05,
          3.45519147e-05, 3.17654485e-05, 2.04802109e-05, 5.02592275e-06,
          0., -1.60531874e-06, -3.39038843e-06, -4.13777752e-06,
          -4.13777752e-06, -4.13777752e-06, -4.26126326e-06,
          -5.88201783e-06, -6.02093951e-06, -1.41376895e-05,
          -2.17214838e-05, -2.71109566e-05, -3.45519147e-05,
          -3.45519147e-05, -2.66872557e-05, -1.33778231e-05,
          -1.50246512e-06, 1.19109736e-05, 2.58915315e-05,
          3.27402886e-05, 1.44746109e-05, 2.06091645e-05, 3.33898279e-05,
          3.45519147e-05, 3.45519147e-05, 3.17654485e-05, 2.04802109e-05,
          5.02592275e-06, 0., 0., 0., 0., 0., 0., -2.00664843e-07,
          -2.67038604e-06, -2.87105081e-06, -4.75919114e-06,
          -6.96440111e-06, -1.61400367e-05, -2.63536367e-05,
          -3.45519147e-05, -2.66872557e-05, -1.41565424e-05,
          -5.51642097e-06, 3.40490851e-06, 1.33646363e-05,
          2.23708776e-05, 1.44746109e-05, 2.06091645e-05, 3.33898279e-05,
          3.45519147e-05, 3.45519147e-05, 3.17199265e-05, 2.03891614e-05,
          5.02592275e-06, 0., 0., 0., 0., 0., 0., 0., 0., 0., 0.,
          -1.85229089e-06, -7.36269567e-06, -2.01956609e-05,
          -2.60336947e-05, -2.60576362e-05, -1.36925855e-05,
          -4.83476015e-06, -4.23516474e-21, 2.60393904e-06,
          6.07876791e-06, 5.37374808e-06, 2.06091645e-05, 3.33898279e-05,
          3.45519147e-05, 3.45519147e-05, 3.04907644e-05, 1.76728663e-05,
          5.02592275e-06, 0., 0., 0., 0., 0., 0., 0., 0., 0., 0.,
          -2.93279385e-07, -2.22324570e-06, -7.43898545e-06,
          -1.93336673e-05, -1.83500288e-05, -8.87723945e-06,
          -2.89268678e-06, -4.23516474e-21, -1.04787023e-06,
          -4.91761421e-06, -5.54951566e-06, 2.06091645e-05,
          3.33898279e-05, 3.45519147e-05, 3.45519147e-05, 3.03845409e-05,
          1.74452434e-05, 5.02592275e-06, 0., 0., 0., 0., 0., 0., 0., 0.,
          0., 0., 0., 0., -2.02905426e-06, -1.05247636e-05,
          -1.19736023e-05, -4.17592992e-06, -3.82461451e-07,
          -4.23516474e-21, -4.23516474e-21, 3.31244393e-10,
          -1.01518581e-05, 2.06091645e-05, 3.33702883e-05,
          3.45519147e-05, 3.45519147e-05, 3.03845409e-05, 1.74452434e-05,
          5.02592275e-06, 0., 0., 0., 0., 0., 0., 0., 0., 0., 0., 0., 0.,
          -4.78508468e-07, -3.03885190e-06, -1.17336631e-05,
          1.22419544e-06, 2.42220699e-06, -4.23516474e-21,
          -4.23516474e-21, -1.35649145e-07, -9.25568565e-06,
          2.06091645e-05, 3.33898279e-05, 3.45519147e-05, 3.45519147e-05,
          3.03845409e-05, 1.74452434e-05, 5.55349789e-06, 5.27575025e-07,
          0., 0., 0., 0., 0., 0., 0., 0., 0., 0., 0., 0.,
          -7.89214937e-07, -8.86510315e-06, 1.85357555e-06,
          2.42220699e-06, -4.23516474e-21, -4.23516474e-21,
          2.39932696e-09, -4.14170745e-06, 2.11904626e-05,
          3.34446668e-05, 3.45519147e-05, 3.45519147e-05, 3.03845409e-05,
          1.74452434e-05, 7.50747949e-06, 2.48155652e-06, 0., 0., 0., 0.,
          0., 0., 0., 0., 0., 0., 0., 0., -2.77843640e-07,
          -1.42732432e-07, 4.65601761e-06, 2.42220699e-06,
          -4.23516474e-21, -4.23516474e-21, -1.04481194e-06,
          -1.11119825e-05, 2.34059717e-05, 3.16425430e-05,
          3.21092084e-05, 3.21092084e-05, 2.79418346e-05, 2.06007699e-05,
          1.12053722e-05, 2.65741483e-06, 0., 0., 0., 0., 0., 0., 0., 0.,
          0., 0., 0., 0., -2.77843640e-07, 1.90068488e-06,
          1.00795078e-05, 4.32067600e-06, -4.23516474e-21,
          -4.23516474e-21, -9.45673548e-07, -8.93136166e-06,
          2.04755197e-05, 2.58193122e-05, 2.53521139e-05, 2.51231613e-05,
          2.31561062e-05, 1.73163189e-05, 1.00395418e-05, 3.16497994e-06,
          0., 0., 0., 0., 0., 0., 0., 0., 0., 0., 0., 0.,
          -3.17179882e-07, 1.13782585e-06, 1.18228509e-05,
          4.97971723e-06, -4.23516474e-21, -4.23516474e-21,
          -7.37014375e-07, -8.98389135e-06, 6.02126875e-06,
          1.46523953e-05, 6.04203569e-06, 1.06231823e-06, 6.04203569e-06,
          1.19482202e-05, 1.16180854e-05, 4.30095861e-06, 0., 0., 0., 0.,
          0., 0., 0., 0., 0., 0., 0., 0., -9.46559965e-07,
          -8.88024442e-06, -5.34087292e-07, 2.28952516e-07,
          -4.23516474e-21, -4.23516474e-21, -3.21060384e-07,
          -9.10532253e-06, 1.21667597e-06, 3.51091649e-06,
          6.86857561e-07, -4.23516474e-21, 6.86857561e-07,
          8.95645712e-07, 1.08709366e-06, 3.55291354e-06, 0., 0., 0., 0.,
          0., 0., 0., 0., 0., 0., 0., -1.54357579e-07, 1.20084451e-06,
          -5.58666716e-06, -9.94790639e-07, -4.23516474e-21,
          -4.23516474e-21, -4.23516474e-21, -1.66702819e-07,
          -8.36440631e-06, 1.28307170e-06, -1.82080100e-07,
          -5.08035214e-07, -4.23516474e-21, -4.23516474e-21,
          2.16375497e-06, 7.26175722e-06, 5.00167425e-06, 0., 0., 0., 0.,
          0., 0., 0., 0., 0., 0., 0., -8.33530919e-07, -2.56302110e-06,
          4.07198650e-06, 1.43464968e-06, -4.23516474e-21,
          -4.23516474e-21, -4.23516474e-21, 2.20392940e-06,
          2.69954012e-06, -2.28906015e-06, -2.48677361e-06,
          -8.98831502e-07, -4.23516474e-21, -4.23516474e-21,
          6.29380111e-07, 1.40518227e-06, 1.83540487e-06, 1.17405114e-06,
          0., 0., 0., 0., 0., 0., 0., 0., 0., -1.08050301e-06,
          5.99825171e-07, 1.06128221e-06, 1.26662007e-06, 9.15810062e-07,
          -4.23516474e-21, -4.23516474e-21, -4.23516474e-21,
          4.88866226e-06, 1.52216417e-05, -3.10153905e-06,
          6.84799943e-06, 3.29051409e-06, -4.23516474e-21,
          -4.23516474e-21, -4.23516474e-21, 3.68219389e-07,
          2.78803697e-07, -3.28347232e-06, -1.56065084e-06,
          -1.11137456e-06, 0., 0., 0., 0., 0., 0., -1.69856344e-06,
          -4.18295622e-06, 1.36857352e-06, 9.19425656e-06,
          4.40304433e-07, -4.23516474e-21, -4.23516474e-21,
          -4.23516474e-21, 8.26459598e-07, 2.54662245e-06,
          1.64374705e-05, -3.13255941e-06, 3.21902235e-06,
          6.94647588e-06, 4.56051202e-06, -4.23516474e-21,
          -4.23516474e-21, -4.23516474e-21, -2.45174624e-06,
          -8.10560141e-06, -1.62209730e-07, 2.15505179e-06,
          6.15797808e-06, 4.11444762e-06, 2.25337635e-06, 2.25337635e-06,
          8.67610481e-07, 3.94695871e-06, 5.45071600e-07,
          -3.45198782e-06, -1.32487571e-06, 3.32145305e-06,
          4.57905031e-07, -4.23516474e-21, -4.23516474e-21,
          1.31065156e-06, 3.66330528e-06, 2.04426715e-06, 7.73567626e-06,
          0., -2.31922604e-06, 7.23914900e-06, 9.93082267e-06,
          1.66761640e-06, -4.23516474e-21, -4.23516474e-21,
          -4.23516474e-21, -1.92908965e-06, 1.29870659e-06,
          1.37466100e-06, 4.67247173e-06, 4.67640893e-06,
          -2.42459123e-06, -2.77918048e-06, 6.50994082e-07,
          2.71673002e-06, -1.47613014e-06, -6.49621916e-06,
          -4.08989217e-06, -1.19192873e-06, -4.23516474e-21,
          -4.23516474e-21, -9.80698474e-07, 4.97519750e-06,
          7.50177423e-06, 3.13009105e-06, 2.54017596e-06, 0., 0.,
          4.64699588e-06, 5.91711887e-06, 5.41817144e-06, 5.96047630e-06,
          -4.23516474e-21, -4.23516474e-21, -4.23516474e-21,
          -4.23516474e-21, -4.23516474e-21, -4.23516474e-21,
          -1.17496154e-06, -5.47830086e-06, -7.33288562e-06,
          -4.62331445e-06, -3.88842318e-06, -3.88842318e-06,
          -3.88842318e-06, -1.52410564e-06, -4.23516474e-21,
          -4.23516474e-21, -9.80698474e-07, 2.30239675e-06,
          9.47701119e-06, 1.25660144e-05, 3.47808714e-06, 0., 0., 0., 0.,
          8.80751941e-07, 9.36550987e-06, 1.41476603e-05, 5.47612217e-06,
          2.86190641e-07, -4.23516474e-21, -4.23516474e-21,
          -4.23516474e-21, -4.23516474e-21, -4.23516474e-21,
          -1.95398151e-08, -2.54017607e-07, -2.54017607e-07,
          -2.54017607e-07, -2.54017607e-07, -2.54017607e-07,
          -9.76990790e-08, -4.23516474e-21, -9.10648623e-07,
          7.37876803e-07, 1.08064196e-05, 1.32456998e-05, 6.95952440e-06,
          2.34477781e-07, 0., 0., 0., 0., 1.21146854e-06, 1.29955168e-07,
          9.75540297e-06, 1.55509679e-05, -6.07025896e-08,
          -2.12447702e-07, -4.23516474e-21, -4.23516474e-21,
          -4.23516474e-21, -4.23516474e-21, -4.23516474e-21,
          -4.23516474e-21, -4.23516474e-21, -4.23516474e-21,
          -4.23516474e-21, -4.23516474e-21, -2.10979280e-07,
          3.18916614e-06, 2.86090449e-06, 6.29724536e-06, 9.62739614e-06,
          7.67725487e-06, 4.08382130e-06, 0., 0., 0., 0., 0., 0.,
          -8.80985567e-07, -6.35884419e-07, 4.31482704e-07,
          -5.29880072e-06, 3.78963790e-07, 1.82733629e-06,
          1.01471358e-06, -4.89110903e-07, -4.23516474e-21,
          -3.50249465e-08, -8.05573791e-07, -8.40598716e-07,
          -6.29210717e-07, 1.32864716e-06, 2.69204929e-06,
          6.94298421e-07, 1.20927216e-05, 1.91650870e-05, 1.20191335e-05,
          7.24856773e-06, 4.47461798e-06, 2.42293709e-06, 0., 0., 0., 0.,
          0., 0., 0., 0., 1.94936229e-06, -4.34003960e-06,
          2.17278921e-06, 9.57466364e-06, 4.38444613e-06,
          -5.96947302e-06, -4.23516474e-21, -3.15224526e-07,
          -8.61613717e-06, -8.93136166e-06, -7.54559551e-06,
          4.41784414e-06, 1.31970537e-05, 1.55876805e-05, 1.35339133e-05,
          5.53382142e-06, 4.98265308e-06, 4.98265308e-06, 3.73210469e-06,
          0., 0., 0. ]
      - [ 0., 0., 0., 0., 0., 0., 0., 1.87183173e-06, 4.04506000e-06,
          7.32252329e-06, 6.32699903e-06, 4.58120212e-06, 4.58120212e-06,
          4.72058218e-06, 8.39092536e-06, 8.51448021e-06, 2.19425920e-06,
          -8.68847474e-06, -1.17844984e-05, -1.32519772e-05,
          -1.32519772e-05, -1.32519772e-05, -1.32519772e-05,
          -6.85984742e-06, 0., 0., 0., 0., 0., 0., 0., 0., 0., 0.,
          3.20524987e-06, 6.73415616e-06, 1.05844729e-05, 1.25730085e-05,
          1.24148892e-05, 1.21396424e-05, 1.21396424e-05, 1.21551293e-05,
          1.24958369e-05, 9.28628924e-06, 1.80454992e-06,
          -2.61549167e-06, -8.68322968e-06, -1.18411936e-05,
          -1.30405342e-05, -1.32519772e-05, -1.32519772e-05,
          -6.85984742e-06, 0., 0., 0., 0., 0., 0., 0., 0.,
          8.88326895e-07, 3.33687717e-06, 6.44302509e-06, 1.07526803e-05,
          1.28132588e-05, 1.32519772e-05, 1.32519772e-05, 1.32519772e-05,
          1.32519772e-05, 1.32519772e-05, 1.32519772e-05, 8.78268293e-06,
          -3.38813179e-21, -4.62908986e-07, -1.64022015e-06,
          -4.58444038e-06, -1.06354119e-05, -1.28412894e-05,
          -1.30039389e-05, -6.85984742e-06, 0., 0., 0., 0., 0., 0., 0.,
          1.58629803e-07, 4.90518232e-06, 1.02988706e-05, 1.13795058e-05,
          1.27077446e-05, 1.32519772e-05, 1.32519772e-05, 1.32519772e-05,
          1.32519772e-05, 1.32519772e-05, 1.32519772e-05, 1.12252046e-05,
          5.76850789e-06, -3.38813179e-21, -3.38813179e-21,
          -3.38813179e-21, -5.18458080e-07, -5.04917762e-06,
          -1.08648965e-05, -1.26655914e-05, -6.60977503e-06, 0., 0., 0.,
          0., 0., 0., 0., 4.49108984e-06, 9.69738358e-06, 1.27303265e-05,
          1.32519772e-05, 1.32519772e-05, 1.32519772e-05, 1.32519772e-05,
          1.32519772e-05, 1.32519772e-05, 1.32519772e-05, 1.21086696e-05,
          6.18425611e-06, -3.38813179e-21, -3.38813179e-21,
          -3.38813179e-21, -3.38813179e-21, -3.38813179e-21,
          -1.06841287e-06, -4.20000833e-06, -9.08731909e-06,
          -6.50284437e-06, 0., 0., 0., 0., 0., 0., 3.81901418e-06,
          9.14545944e-06, 1.27303265e-05, 1.32519772e-05, 1.32519772e-05,
          1.32519772e-05, 1.32519772e-05, 1.32519772e-05, 1.32519772e-05,
          1.27864050e-05, 1.09234225e-05, 6.12673466e-06, 2.02321289e-07,
          -6.24698349e-10, -3.38813179e-21, -3.38813179e-21,
          -3.38813179e-21, -3.38813179e-21, -3.38813179e-21,
          -6.29556212e-07, -4.41155180e-06, -3.24523080e-06,
          2.80568884e-07, 2.29741175e-07, 0., 0., 0., 2.96316580e-06,
          8.53614620e-06, 1.27108897e-05, 1.32519772e-05, 1.32519772e-05,
          1.32519772e-05, 1.32519772e-05, 1.32519772e-05, 1.24158723e-05,
          9.47398712e-06, 7.88948546e-06, 6.73167096e-06, 8.76093964e-07,
          -3.42199155e-06, -2.58122122e-06, -2.57969418e-06,
          -8.27200381e-07, -7.72580933e-08, -3.38813179e-21,
          -3.38813179e-21, -3.38813179e-21, -6.29556212e-07,
          1.44887167e-06, 3.01611999e-06, 4.67614797e-07, 2.11443208e-07,
          0., 0., 8.00353428e-06, 1.25420083e-05, 1.31706529e-05,
          1.32519772e-05, 1.32519772e-05, 1.32519772e-05, 1.32514915e-05,
          1.23528152e-05, 9.57221255e-06, 4.46270678e-06, 1.26903842e-07,
          -5.06995002e-06, -1.05917543e-05, -7.57211410e-06,
          -5.52216216e-06, -5.52216216e-06, -4.11593601e-06,
          -1.66649670e-06, -1.95594808e-07, -9.14898521e-08,
          -3.38813179e-21, -3.38813179e-21, 5.58537067e-06,
          6.95085464e-06, 2.23746406e-06, 4.63548588e-07, 0.,
          4.68201233e-06, 1.22463716e-05, 1.31867100e-05, 1.32519772e-05,
          1.32519772e-05, 1.32519772e-05, 1.22608299e-05, 1.00692441e-05,
          7.14042790e-06, 2.64831988e-06, 9.20885782e-07, 0.,
          -8.73071440e-06, -1.32043888e-05, -1.20781169e-05,
          -1.20305285e-05, -1.20305285e-05, -1.20296954e-05,
          -7.09281539e-06, -1.25284112e-06, -3.21231028e-07,
          -8.13243091e-08, -3.38813179e-21, 5.63295953e-06,
          7.51063271e-06, 3.75515879e-06, 4.63548588e-07, 0.,
          7.99416375e-06, 1.29339478e-05, 1.32519772e-05, 1.32519772e-05,
          1.32519772e-05, 1.22763167e-05, 9.46688851e-06, 6.39900600e-06,
          1.67379881e-06, 0., 0., -2.23464713e-06, -9.71811733e-06,
          -1.32519772e-05, -1.32519772e-05, -1.32519772e-05,
          -1.32519772e-05, -1.32519772e-05, -8.91527543e-06,
          -3.08674521e-06, -1.26180316e-06, -2.78535765e-07,
          -3.38813179e-21, 5.63295953e-06, 7.97957546e-06,
          5.47301079e-06, 1.91397544e-06, 1.07754715e-07, 7.99416375e-06,
          1.29359805e-05, 1.32519772e-05, 1.32519772e-05, 1.32519772e-05,
          1.08515424e-05, 7.08855805e-06, 1.83936459e-06, 1.29614520e-07,
          0., -3.63779776e-07, -1.02378026e-05, -1.32519772e-05,
          -1.32519772e-05, -1.32519772e-05, -1.30960716e-05,
          -1.29401660e-05, -1.32519772e-05, -1.07878514e-05,
          -7.71685609e-06, -2.37350446e-06, -3.13523913e-07,
          -3.86290466e-08, 6.31806506e-06, 1.22706106e-05,
          7.79741549e-06, 4.04940556e-06, 5.18442505e-07, 8.00408907e-06,
          1.29370219e-05, 1.32519772e-05, 1.32519772e-05, 1.32519772e-05,
          1.08515424e-05, 3.93453229e-06, 2.59229040e-07, 0., 0.,
          -9.77008585e-06, -1.27842604e-05, -1.32519772e-05,
          -1.32519772e-05, -1.32519772e-05, -9.45827378e-06,
          -4.67716836e-06, -1.32519772e-05, -1.29347181e-05,
          -1.03409775e-05, -5.74500518e-06, -1.11644567e-06,
          -3.15131700e-07, 6.39213022e-06, 1.31408797e-05,
          1.12414591e-05, 4.04940556e-06, 5.18442505e-07, 8.01186343e-06,
          1.29378550e-05, 1.32519772e-05, 1.32519772e-05, 1.32519772e-05,
          8.19898287e-06, 2.44968351e-06, 0., 0., 0., -1.15889843e-05,
          -1.32519772e-05, -1.32519772e-05, -1.32519772e-05,
          -1.32519772e-05, -8.73071440e-06, -1.03937077e-06,
          -5.61260231e-06, -1.32519772e-05, -1.23001992e-05,
          -9.10580275e-06, -2.64962705e-06, -3.15131700e-07,
          6.39213022e-06, 1.32519772e-05, 1.20932109e-05, 4.04940556e-06,
          5.18442505e-07, 8.01186343e-06, 1.29378550e-05, 1.32519772e-05,
          1.32519772e-05, 1.32519772e-05, 6.20419178e-06, 1.47721914e-06,
          0., -5.71653914e-07, -6.08031905e-06, -1.23685122e-05,
          -1.32519772e-05, -1.32519772e-05, -1.32519772e-05,
          -1.04456767e-05, -4.62519984e-06, 0., -1.66299321e-06,
          -1.32519772e-05, -1.32519772e-05, -9.83549944e-06,
          -2.64962705e-06, -3.15131700e-07, 6.39213022e-06,
          1.32519772e-05, 1.22450056e-05, 6.14465262e-06, 5.18442505e-07,
          1.03264083e-05, 1.30654362e-05, 1.32519772e-05, 1.32519772e-05,
          1.32519772e-05, 6.43780368e-06, 7.76881166e-07,
          -7.27559552e-07, -4.57323131e-06, -1.30441031e-05,
          -1.32519772e-05, -1.32519772e-05, -1.32519772e-05,
          -1.32519772e-05, -7.32756416e-06, 0., 0., -1.66299321e-06,
          -1.32519772e-05, -1.32519772e-05, -9.83549944e-06,
          -2.64962705e-06, -3.15131700e-07, 6.39213022e-06,
          1.32519772e-05, 1.16836463e-05, 3.13700070e-06, 5.18442505e-07,
          1.27335352e-05, 1.31970837e-05, 1.32519772e-05, 1.32519772e-05,
          1.32519772e-05, 6.91922924e-06, 9.06495700e-07,
          -2.59842705e-06, -1.32519772e-05, -1.32519772e-05,
          -1.32519772e-05, -1.32519772e-05, -1.32519772e-05,
          -1.25763863e-05, -6.65197285e-06, 0., -3.11811249e-07,
          -2.75433263e-06, -1.32519772e-05, -1.32519772e-05,
          -1.03010625e-05, -4.03883996e-06, -3.15825815e-07,
          6.39213022e-06, 1.32519772e-05, 1.20964041e-05, 4.06516210e-06,
          5.18442505e-07, 1.27335352e-05, 1.31970837e-05, 1.32519772e-05,
          1.32519772e-05, 1.32519772e-05, 4.58616751e-06, 2.39906711e-07,
          -2.59842705e-06, -1.32519772e-05, -1.32519772e-05,
          -1.32519772e-05, -1.32519772e-05, -1.32519772e-05,
          -6.60000433e-06, -6.75591025e-07, 0., -2.80630115e-06,
          -1.21606381e-05, -1.32519772e-05, -1.32519772e-05,
          -1.10787496e-05, -6.28653834e-06, -3.25196282e-07,
          6.39213022e-06, 1.32519772e-05, 1.20964041e-05, 4.06516210e-06,
          5.18442505e-07, 1.27335352e-05, 1.31970837e-05, 1.32519772e-05,
          1.32519772e-05, 1.32519772e-05, 5.26150234e-06,
          -2.47850448e-06, -1.02378026e-05, -1.32519772e-05,
          -1.32519772e-05, -1.32519772e-05, -1.32519772e-05,
          -1.32519772e-05, -5.92441347e-06, 0., 0., -8.83465191e-07,
          -4.88504293e-06, -1.32519772e-05, -1.32519772e-05,
          -1.10787496e-05, -6.28702401e-06, -3.25890397e-07,
          6.39213022e-06, 1.32519772e-05, 1.20964041e-05, 4.06523122e-06,
          5.18442505e-07, 1.27213880e-05, 1.31957650e-05, 1.32519772e-05,
          1.32519772e-05, 1.32519772e-05, 8.39277982e-06,
          -2.66101506e-06, -1.32519772e-05, -1.32519772e-05,
          -1.32519772e-05, -1.32519772e-05, -1.32519772e-05,
          -8.57480882e-06, -2.75433263e-06, 0., 0., 0., -1.66299321e-06,
          -1.32519772e-05, -1.32519772e-05, -1.10946121e-05,
          -6.28140197e-06, -3.18463435e-07, 6.39213022e-06,
          1.32519772e-05, 1.20964041e-05, 4.06523122e-06, 5.18442505e-07,
          1.27158355e-05, 1.31952092e-05, 1.32519772e-05, 1.32519772e-05,
          1.32519772e-05, 6.52191284e-06, -5.72537419e-06,
          -1.31482893e-05, -1.32519772e-05, -1.32519772e-05,
          -1.32519772e-05, -1.32519772e-05, -4.46929425e-06, 0., 0., 0.,
          0., -1.66299321e-06, -1.32519772e-05, -1.32519772e-05,
          -1.26491841e-05, -7.83340602e-06, -3.15131700e-07,
          6.39213022e-06, 1.32519772e-05, 1.26198829e-05, 6.66676033e-06,
          5.18442505e-07, 1.09074554e-05, 1.30048538e-05, 1.32519772e-05,
          1.32519772e-05, 1.32519772e-05, 2.93608355e-06,
          -1.17142035e-05, -1.30547660e-05, -1.32519772e-05,
          -1.32519772e-05, -1.32519772e-05, -1.16409528e-05,
          -3.79370340e-06, 0., 0., 0., -4.67716859e-07, -3.48189224e-06,
          -1.32519772e-05, -1.32519772e-05, -1.32519772e-05,
          -8.45206159e-06, -3.15131700e-07, 6.39213022e-06,
          1.32519772e-05, 1.31964289e-05, 1.15519097e-05, 5.18442505e-07,
          5.07860159e-06, 1.25611959e-05, 1.32519772e-05, 1.32519772e-05,
          1.32519772e-05, 2.93608355e-06, -1.19114147e-05,
          -1.32519772e-05, -1.32519772e-05, -1.32519772e-05,
          -1.32519772e-05, -3.37795518e-06, -1.55905624e-07, 0., 0., 0.,
          -2.96220674e-06, -1.28881975e-05, -1.32519772e-05,
          -1.32519772e-05, -1.32519772e-05, -8.45206159e-06,
          -3.15131700e-07, 6.39213022e-06, 1.32519772e-05,
          1.32519772e-05, 1.21444336e-05, 5.18442505e-07, 3.94910376e-06,
          1.25076804e-05, 1.32519772e-05, 1.32519772e-05, 7.89921796e-06,
          -3.14423573e-06, -1.19114147e-05, -1.32519772e-05,
          -1.32519772e-05, -1.32519772e-05, -1.32519772e-05,
          -3.06614379e-06, 0., 0., 0., 0., -3.06614379e-06,
          -1.32519772e-05, -1.32519772e-05, -1.32519772e-05,
          -1.32519772e-05, -8.45358863e-06, -3.17144611e-07,
          6.39213022e-06, 1.32519772e-05, 1.32519772e-05, 1.21447811e-05,
          5.21774211e-07, 3.94910376e-06, 1.25076103e-05, 1.32519772e-05,
          8.31496618e-06, 2.59842705e-06, -3.30462535e-06,
          -1.07216920e-05, -1.32519772e-05, -1.32519772e-05,
          -1.32519772e-05, -6.34016169e-06, -1.24724500e-06, 0., 0., 0.,
          0., -1.24724500e-06, -6.34016169e-06, -1.32519772e-05,
          -1.32519772e-05, -1.32519772e-05, -8.46025250e-06,
          -3.25890397e-07, 6.39213022e-06, 1.32519772e-05,
          1.32519772e-05, 1.21308212e-05, 5.36142295e-07, 3.94910376e-06,
          1.25076103e-05, 9.30236820e-06, 2.96220674e-06,
          -3.38813179e-21, -2.40043551e-06, -1.00395837e-05,
          -1.32519772e-05, -1.27842604e-05, -7.95118649e-06,
          -9.87402245e-07, 0., 0., 0., 0., 0., 0., -1.66299321e-06,
          -1.32519772e-05, -1.32519772e-05, -1.32519772e-05,
          -8.46025250e-06, -3.25890397e-07, 6.39213022e-06,
          1.32519772e-05, 1.32519772e-05, 1.21308212e-05, 5.36142295e-07,
          3.94910376e-06, 1.25076804e-05, 3.53386076e-06,
          -3.38813179e-21, -3.38813179e-21, -2.40043551e-06,
          -1.00395837e-05, -1.32519772e-05, -1.20567011e-05,
          -2.59842693e-07, 0., 0., 0., 0., 0., 0., 0., -1.66299321e-06,
          -1.32519772e-05, -1.32519772e-05, -1.32519772e-05,
          -8.46025250e-06, -3.25890397e-07, 6.39213022e-06,
          1.32519772e-05, 1.32519772e-05, 1.21463081e-05, 5.36142295e-07,
          3.94910376e-06, 1.21418670e-05, 3.42992371e-06,
          -3.38813179e-21, -3.38813179e-21, -2.40043551e-06,
          -1.00395837e-05, -1.32519772e-05, -1.20567011e-05,
          -2.07874152e-07, 0., 0., 0., 0., 0., 0., 0., -1.66299321e-06,
          -1.32519772e-05, -1.32519772e-05, -1.32519772e-05,
          -8.46025250e-06, -3.25890397e-07, 6.39213022e-06,
          1.32519772e-05, 1.32519772e-05, 1.21463081e-05, 5.36142295e-07,
          3.94910376e-06, 3.10137443e-06, 5.71653914e-07,
          -3.38813179e-21, -3.38813179e-21, -2.40043551e-06,
          -1.00395837e-05, -1.32519772e-05, -1.20567011e-05,
          -2.07874152e-07, 0., 0., 0., 0., 0., 0., 0., -1.66299321e-06,
          -1.32519772e-05, -1.32519772e-05, -1.32519772e-05,
          -8.46025250e-06, -4.70241048e-07, 6.14205828e-06,
          1.32519772e-05, 1.30506505e-05, 1.11551599e-05, 5.36142295e-07,
          3.94910376e-06, 1.38641258e-06, -3.38813179e-21,
          -3.38813179e-21, -3.38813179e-21, -2.40043551e-06,
          -1.00395837e-05, -1.15370158e-05, -4.15748309e-06,
          -1.03937076e-07, 0., 0., 0., 0., 0., 0., -2.02677302e-06,
          -9.25039967e-06, -1.32519772e-05, -1.32519772e-05,
          -1.32519772e-05, -8.46025250e-06, -4.01115386e-07,
          6.25997836e-06, 1.32519772e-05, 1.25395900e-05, 8.61534409e-06,
          5.36142295e-07, -2.28712111e-06, 3.99010361e-07,
          -3.38813179e-21, -3.38813179e-21, -3.38813179e-21,
          -2.40043551e-06, -1.00395837e-05, -1.06535508e-05, 0., 0., 0.,
          0., 0., 0., 0., 0., -1.61102469e-06, -7.79528091e-06,
          -1.32519772e-05, -1.32519772e-05, -1.32519772e-05,
          -8.47611500e-06, -3.57616358e-07, 6.39213022e-06,
          1.32519772e-05, 1.26479972e-05, 9.17286525e-06, 5.36142295e-07,
          -9.30287388e-06, -7.44297495e-07, -3.38813179e-21,
          -3.38813179e-21, -3.38813179e-21, -2.40043551e-06,
          -1.00377783e-05, -1.13793058e-05, -3.74173487e-06,
          -3.74173487e-06, -3.74173487e-06, -3.74173487e-06,
          -3.74173487e-06, -3.74173487e-06, -2.07874155e-06, 0.,
          -8.83465191e-07, -4.88504293e-06, -1.32519772e-05,
          -1.32519772e-05, -1.32519772e-05, -9.84033159e-06,
          -2.15013324e-06, 4.62519984e-06, 1.09133935e-05,
          1.32519772e-05, 1.21463081e-05, 5.36142295e-07,
          -9.30287388e-06, -7.60229909e-07, -3.38813179e-21,
          -3.38813179e-21, -3.38813179e-21, -2.40043551e-06,
          -1.00300740e-05, -1.32424684e-05, -1.32519772e-05,
          -1.32519772e-05, -1.32519772e-05, -1.32519772e-05,
          -1.32519772e-05, -1.32519772e-05, -7.89921796e-06,
          -1.24724500e-06, -4.00157751e-06, -1.32519772e-05,
          -1.32519772e-05, -1.32519772e-05, -1.32519772e-05,
          -1.03320845e-05, -2.78465245e-06, -3.38813179e-21,
          4.52126278e-06, 1.20047325e-05, 1.10894189e-05, 1.31634840e-06,
          -9.30287388e-06, -7.44366901e-07, -3.38813179e-21,
          -3.38813179e-21, -3.38813179e-21, -2.40043551e-06,
          -9.60177385e-06, -1.28141683e-05, -1.32519772e-05,
          -1.32519772e-05, -1.32519772e-05, -1.32519772e-05,
          -1.32519772e-05, -1.32519772e-05, -1.26803234e-05,
          -1.20047325e-05, -1.23165437e-05, -1.32519772e-05,
          -1.32519772e-05, -1.32519772e-05, -1.32519772e-05,
          -1.03320845e-05, -2.78465245e-06, -3.38813179e-21,
          4.67716859e-07, 1.24724500e-06, 9.72529278e-07,
          -3.59832029e-06, -9.19511967e-06, -7.34131959e-07,
          -3.38813179e-21, -3.38813179e-21, -3.38813179e-21,
          -2.40043551e-06, -8.01547594e-06, -1.12279395e-05,
          -1.32519772e-05, -1.32519772e-05, -1.32519772e-05,
          -1.32519772e-05, -1.32519772e-05, -1.32519772e-05,
          -1.32519772e-05, -1.32519772e-05, -1.32519772e-05,
          -1.32519772e-05, -1.32519772e-05, -1.32519772e-05,
          -1.32519772e-05, -1.03320845e-05, -2.78465245e-06,
          -3.38813179e-21, -3.38813179e-21, -3.38813179e-21,
          -5.16781540e-07, -5.89196816e-06, -8.78443188e-06,
          -7.00301143e-07, -2.22114971e-09, -3.38813179e-21,
          -3.38813179e-21, -3.71680329e-07, -6.30817794e-06,
          -1.10851724e-05, -1.32519772e-05, -1.32519772e-05,
          -1.32519772e-05, -1.32519772e-05, -1.32519772e-05,
          -1.32519772e-05, -1.32519772e-05, -1.32519772e-05,
          -1.32519772e-05, -1.32519772e-05, -1.32519772e-05,
          -1.32519772e-05, -1.32519772e-05, -1.03320845e-05,
          -2.78465245e-06, -3.38813179e-21, -3.38813179e-21,
          -3.38813179e-21, -4.18140388e-07, -3.94910376e-06,
          -8.80679545e-06, -7.23125368e-07, -3.19290261e-09,
          -3.38813179e-21, -3.38813179e-21, -1.87388832e-06,
          -6.36172672e-06, -1.06962598e-05, -1.32519772e-05,
          -1.32519772e-05, -1.32519772e-05, -1.32519772e-05,
          -1.32519772e-05, -1.32519772e-05, -1.32519772e-05,
          -1.32519772e-05, -1.32519772e-05, -1.32519772e-05,
          -1.32519772e-05, -1.32519772e-05, -1.32519772e-05,
          -9.60238685e-06, -1.83287352e-06, -3.38813179e-21,
          -3.38813179e-21, -3.38813179e-21, 2.35353738e-07,
          -8.01631813e-07, -7.20176831e-06, 1.32065145e-06,
          2.07554876e-06, 2.07874155e-06, 2.07874155e-06,
          -3.21693904e-07, -2.14889769e-06, -7.74724867e-06,
          -1.11732361e-05, -1.11732361e-05, -1.11732361e-05,
          -1.11732361e-05, -1.11732361e-05, -1.11732361e-05,
          -1.11732361e-05, -1.11732361e-05, -1.16409528e-05,
          -1.32519772e-05, -1.32519772e-05, -1.32519772e-05,
          -1.32519772e-05, -8.46025250e-06, -3.25890397e-07,
          9.87402245e-07, 2.07874155e-06, 2.07874155e-06, 3.16830256e-06,
          4.58120212e-06, 3.53335531e-06, 1.20761060e-05, 1.28330366e-05,
          1.28362290e-05, 1.28362290e-05, 1.20154355e-05, 9.81655103e-06,
          3.01273758e-06, -4.12416597e-07, -4.15748303e-07,
          -4.15748303e-07, -4.15748303e-07, -4.15748303e-07,
          -4.15748303e-07, -4.15748303e-07, -4.15748303e-07,
          -3.37795518e-06, -1.32519772e-05, -1.32519772e-05,
          -1.32519772e-05, -1.17470781e-05, -6.73315662e-06,
          -3.25890397e-07, 6.18425611e-06, 1.28362290e-05,
          1.28362290e-05, 1.22108286e-05, 4.58120212e-06, 1.61061473e-06,
          1.01639844e-05, 1.28363472e-05, 1.32519772e-05, 1.32519772e-05,
          1.32519772e-05, 1.10713418e-05, 3.65375331e-06, 1.07586935e-08,
          0., 0., 0., 0., 0., 0., 0., -6.75591025e-07, -4.20945162e-06,
          -1.32519772e-05, -1.32519772e-05, -9.88667671e-06,
          -2.55376403e-06, -7.38052250e-08, 6.39213022e-06,
          1.32519772e-05, 1.32519772e-05, 1.25746083e-05, 4.58120212e-06,
          0., 8.44146780e-06, 1.25190872e-05, 1.32519772e-05,
          1.32519772e-05, 1.32519772e-05, 1.22608299e-05, 8.46950752e-06,
          2.03436412e-06, 7.63520192e-10, 0., 0., 0., 0., 0., 0., 0.,
          -1.66299321e-06, -1.32519772e-05, -1.07044407e-05,
          -5.20480944e-06, -1.79440349e-06, -3.38813179e-21,
          6.39213022e-06, 1.32519772e-05, 1.32519772e-05, 1.25591214e-05,
          4.58120212e-06, 0., 8.15073327e-06, 1.24601274e-05,
          1.32519772e-05, 1.32519772e-05, 1.32519772e-05, 1.32519772e-05,
          1.13330598e-05, 6.84643192e-06, 1.56924762e-06, 0., 0., 0., 0.,
          0., 0., -1.24724500e-06, -6.34016169e-06, -1.07384440e-05,
          -6.12413442e-06, -2.22627523e-06, -1.04313195e-07,
          -3.38813179e-21, 6.39213022e-06, 1.32519772e-05,
          1.25779761e-05, 7.43645751e-06, 4.58120212e-06, 0.,
          3.53497785e-06, 8.68644656e-06, 1.27698495e-05, 1.32519772e-05,
          1.32519772e-05, 1.32519772e-05, 1.21679095e-05, 1.05327772e-05,
          7.77611695e-06, 4.82831319e-06, 4.82831319e-06, 3.04921559e-06,
          1.61061473e-06, 1.61061473e-06, 1.61061473e-06,
          -1.45552906e-06, -1.04377996e-05, -6.35844935e-06,
          -4.40167560e-06, -1.99900956e-06, -3.38813179e-21,
          -3.38813179e-21, 6.39213022e-06, 1.28493239e-05,
          1.07973465e-05, 4.55070585e-06, 4.30063346e-06, 0., 0.,
          4.93405514e-06, 1.20240475e-05, 1.32480209e-05, 1.32519772e-05,
          1.32519772e-05, 1.32519772e-05, 1.32519772e-05, 1.24942426e-05,
          1.09092216e-05, 1.09092216e-05, 9.79761535e-06, 8.80565403e-06,
          6.95423432e-06, 6.89036551e-06, 3.83421684e-06,
          -5.59029422e-06, -4.33118157e-06, -2.95141308e-06,
          -9.67641768e-07, -3.38813179e-21, -3.38813179e-21,
          5.95850315e-06, 1.09209013e-05, 6.36940558e-06, 4.09446648e-06,
          2.06774030e-06, 0., 0., 2.33848868e-06, 8.31131183e-06,
          1.24752551e-05, 1.32519772e-05, 1.32519772e-05, 1.32519772e-05,
          1.32519772e-05, 1.32519772e-05, 1.32519772e-05, 1.32519772e-05,
          1.32519772e-05, 1.31406587e-05, 1.01987889e-05, 1.00874704e-05,
          7.02771240e-06, -3.15673310e-06, -3.15673310e-06,
          -1.23731252e-06, -3.38813179e-21, -3.38813179e-21,
          -4.33627065e-07, 4.01156422e-06, 6.73335580e-06,
          4.15915292e-06, 2.82361043e-06, 0., 0., 0., 0., 3.02982926e-06,
          8.91079162e-06, 1.25159622e-05, 1.32519772e-05, 1.32519772e-05,
          1.32519772e-05, 1.32519772e-05, 1.32519772e-05, 1.32519772e-05,
          1.32519772e-05, 1.32361147e-05, 1.30457593e-05, 1.30457593e-05,
          9.97961524e-06, -2.06218743e-07, -2.06218743e-07,
          -7.93149013e-08, -3.38813179e-21, -4.02653683e-07,
          -2.40850977e-06, 1.90785386e-07, 4.33278683e-06,
          3.36295193e-06, 1.90355763e-07, 0., 0., 0., 0., 9.83504833e-07,
          1.30076444e-06, 8.06501612e-06, 1.12971229e-05, 1.25315182e-05,
          1.32519772e-05, 1.32519772e-05, 1.32519772e-05, 1.32519772e-05,
          1.32519772e-05, 1.32519772e-05, 1.32519772e-05, 1.32519772e-05,
          1.16409528e-05, 5.45669673e-06, -3.38813179e-21,
          -3.71680329e-07, -6.19467244e-07, -2.51522465e-06,
          -5.96619520e-06, -2.52410450e-06, 4.05415267e-06,
          3.31536285e-06, 0., 0., 0., 0., 0., 0., 0., 1.45939418e-06,
          3.28363694e-06, 8.82731001e-06, 1.20976820e-05, 1.26177365e-05,
          1.28777983e-05, 1.29422442e-05, 1.32519772e-05, 1.32364912e-05,
          1.28957836e-05, 1.28802976e-05, 1.28802976e-05, 1.16850206e-05,
          3.00688839e-06, -2.96865869e-06, -4.72612555e-06,
          -5.89337742e-06, -9.19817194e-06, -2.81478719e-06,
          3.63262257e-06, 1.96700967e-06, 0., 0., 0., 0., 0., 0., 0., 0.,
          2.15736532e-06, 4.04506000e-06, 4.24837071e-06, 7.67425081e-06,
          9.28961617e-06, 9.99977419e-06, 1.32519772e-05, 1.31125971e-05,
          9.44225394e-06, 9.30287388e-06, 9.30287388e-06, 9.30287388e-06,
          7.48407638e-06, -7.47549893e-06, -8.95882022e-06,
          -9.20691764e-06, -9.20691764e-06, -2.81478719e-06,
          3.02982926e-06, 0., 0., 0. ]
      - [ -1.21645853e-05, -1.44383248e-05, -1.55160506e-05,
          -1.55160506e-05, -1.55160506e-05, -1.52775301e-05,
          -5.30733951e-06, -1.31039519e-06, -3.66040081e-06,
          3.13498617e-06, 1.06015557e-06, -2.32343055e-07,
          -2.32343055e-07, -7.25406267e-07, -5.30423358e-06,
          -6.83258259e-06, -9.29418457e-06, -9.79539982e-06,
          -1.22086294e-05, -1.50505130e-05, -1.99467413e-05,
          -1.99467413e-05, -1.99467413e-05, -1.99467413e-05,
          -2.02293195e-05, -1.55160506e-05, -1.11467307e-05, 0.,
          -2.54105744e-05, -2.57654356e-05, -2.59362951e-05,
          -2.59362951e-05, -2.59362951e-05, -2.58885902e-05,
          -1.88222657e-05, -9.78135904e-06, -4.77191315e-06,
          2.11430779e-06, 5.83006738e-07, 4.05455381e-07, 4.05455381e-07,
          3.17709123e-07, -7.88672196e-07, -1.10463111e-06,
          -1.35009691e-06, -3.23614358e-06, -8.51626100e-06,
          -1.32680252e-05, -2.04393145e-05, -2.83094032e-05,
          -2.86766208e-05, -2.86766208e-05, -2.82978617e-05,
          -2.25336062e-05, -1.20535979e-05, -2.82574501e-06,
          -3.21113293e-05, -3.21113293e-05, -3.21113293e-05,
          -3.21113293e-05, -2.87403236e-05, -2.30096448e-05,
          -1.85545996e-05, -8.31784564e-06, -1.70066880e-06,
          -1.69406589e-21, -1.69406589e-21, -1.69406589e-21,
          -1.69406589e-21, -1.69406589e-21, -1.69406589e-21,
          -1.69406589e-21, -1.69406589e-21, -5.68362452e-07,
          -1.80120571e-06, -6.72774468e-06, -1.60745640e-05,
          -2.08970650e-05, -2.72127400e-05, -3.21113293e-05,
          -2.92107197e-05, -2.31710437e-05, -1.22244564e-05,
          -3.35146478e-06, -3.21113293e-05, -3.21113293e-05,
          -3.21113293e-05, -2.98192899e-05, -1.99229507e-05,
          -7.94487642e-06, -4.49161371e-06, -1.85339252e-06,
          -1.69406589e-21, -1.69406589e-21, -1.69406589e-21,
          -1.69406589e-21, -1.69406589e-21, -1.69406589e-21,
          -1.69406589e-21, -1.69406589e-21, -1.69406589e-21,
          -1.69406589e-21, -1.69406589e-21, -6.36565915e-07,
          -7.71632949e-06, -1.57333707e-05, -2.01480871e-05,
          -2.67399537e-05, -3.02654862e-05, -2.45545816e-05,
          -1.22244564e-05, -3.35146478e-06, -3.21113293e-05,
          -3.21113293e-05, -2.99814674e-05, -2.08250876e-05,
          -8.94941695e-06, -1.76640651e-06, -1.69406589e-21,
          -1.69406589e-21, -1.69406589e-21, -1.69406589e-21,
          -1.69406589e-21, -1.69406589e-21, -1.69406589e-21,
          -1.69406589e-21, -1.69406589e-21, -1.69406589e-21,
          -1.69406589e-21, -1.69406589e-21, -1.69406589e-21,
          -1.69406589e-21, -1.65470044e-06, -5.83546216e-06,
          -1.21919857e-05, -2.18508339e-05, -2.86007689e-05,
          -2.45545816e-05, -1.22244564e-05, -3.35146478e-06,
          -3.21113293e-05, -3.21113293e-05, -2.32634993e-05,
          -9.98225551e-06, -1.76640651e-06, -1.69406589e-21,
          8.67437961e-07, 1.43258694e-06, 1.43258694e-06, 1.43258694e-06,
          8.61240324e-08, -1.63357117e-06, -3.26983195e-06,
          -1.59911588e-06, -1.59911588e-06, -1.27672422e-06,
          4.77822311e-07, 1.43258694e-06, 2.38846906e-06, 4.06950358e-06,
          4.06950358e-06, 3.29653039e-06, -1.63141237e-06,
          -1.00527786e-05, -1.62852557e-05, -1.47135333e-05,
          -1.08395743e-05, -1.91887784e-06, -2.75184448e-05,
          -2.65778326e-05, -1.60762575e-05, -2.79232472e-06,
          -1.69406589e-21, 5.20431570e-07, 1.15859257e-05,
          1.44267624e-05, 1.44267624e-05, 1.13627157e-05, 3.14860085e-06,
          -1.60361083e-06, -3.19975425e-06, -2.10209714e-06,
          5.46221543e-07, 2.42565238e-06, 5.24295547e-06, 8.18285844e-06,
          1.36376775e-05, 1.92423304e-05, 1.61685493e-05, 1.16097490e-05,
          1.09836628e-05, 4.94002734e-06, 4.63238575e-06, 6.80866424e-06,
          2.97647784e-06, 0., -2.25502772e-05, -1.49772886e-05,
          -6.28951102e-06, -1.28503007e-06, -1.69406589e-21,
          2.05140145e-06, 2.05531232e-05, 2.29375983e-05, 2.22081944e-05,
          1.33840140e-05, 1.83440238e-06, -6.40118651e-06,
          -6.40118651e-06, -6.12302756e-06, 3.13708392e-06,
          5.75689592e-06, 5.75689592e-06, 7.57211592e-06, 1.30938070e-05,
          1.61088810e-05, 1.65455494e-05, 2.00609848e-05, 2.05016458e-05,
          1.94768127e-05, 1.75221267e-05, 1.56710885e-05, 1.22209003e-05,
          0., -5.87934892e-06, -4.34252479e-06, -1.04164621e-06,
          -1.69406589e-21, -1.69406589e-21, 2.05140145e-06,
          1.94975473e-05, 1.50301939e-05, 1.21234780e-05, 2.66134521e-06,
          3.05401556e-07, -1.54166696e-06, -1.54166696e-06,
          -1.44894739e-06, 7.45417651e-07, 8.38137282e-07,
          8.38137282e-07, 8.92626019e-07, 7.63035405e-06, 1.51845834e-05,
          1.96917608e-05, 2.88439696e-05, 3.05696594e-05, 2.96375456e-05,
          2.30818641e-05, 1.67626222e-05, 1.22209003e-05, 0.,
          5.20744288e-06, 3.22032656e-06, -1.69406589e-21,
          -1.69406589e-21, -1.69406589e-21, 1.27751514e-06,
          1.51337272e-05, 1.20097029e-05, 5.66989820e-06, 0., 0., 0., 0.,
          0., 0., 0., 0., 0., 7.30199963e-06, 1.53615165e-05,
          1.75826008e-05, 2.71959962e-05, 3.20868457e-05, 3.11792137e-05,
          2.51614692e-05, 2.04968528e-05, 1.34418542e-05, 1.77610821e-06,
          5.20744288e-06, 3.25245219e-06, -1.69406589e-21,
          -1.69406589e-21, -1.69406589e-21, -1.13758381e-06,
          -8.03942157e-07, 1.95190432e-06, 1.59141479e-07, 0., 0., 0.,
          0., 0., 0., 0., 0., 0., 4.69423230e-06, 9.74166323e-06,
          1.56054703e-05, 2.11294046e-05, 3.02768822e-05, 3.20203908e-05,
          3.09063980e-05, 2.46834570e-05, 1.68518418e-05, 1.38472105e-05,
          5.85676707e-06, 3.36826747e-06, -1.69406589e-21,
          -1.69406589e-21, -1.69406589e-21, -1.25998952e-06,
          -8.96218444e-06, -3.83198767e-06, 0., 0., 0., 0., 0., 0., 0.,
          0., 0., 0., 6.18130969e-07, 5.47150466e-06, 1.13598271e-05,
          1.66312420e-05, 2.57853735e-05, 3.21113293e-05, 3.19749197e-05,
          2.89120726e-05, 1.69742470e-05, 1.44347587e-05, 8.70478198e-06,
          4.17190722e-06, -1.69406589e-21, -1.69406589e-21,
          -1.56679323e-06, -8.22267066e-06, -1.10125220e-05,
          -4.10256598e-06, 0., 0., 0., 0., 0., 0., 0., 0., 0., 0., 0.,
          1.85439296e-06, 7.17093781e-06, 1.55285688e-05, 2.57853735e-05,
          3.21113293e-05, 3.21113293e-05, 2.99578605e-05, 1.69742470e-05,
          1.44347587e-05, 9.71679310e-06, 4.50048219e-06,
          -1.69406589e-21, -1.69406589e-21, -2.22778408e-06,
          -1.31586503e-05, -1.29622331e-05, -4.10256598e-06, 0., 0., 0.,
          0., 0., 0., 0., 0., 0., 0., 0., 0., 5.74923661e-06,
          1.55285688e-05, 2.28721165e-05, 3.07893461e-05, 3.21113293e-05,
          3.02617464e-05, 2.01466992e-05, 1.44347587e-05, 1.41407554e-05,
          4.95711220e-06, -1.69406589e-21, -1.69406589e-21,
          -2.22778408e-06, -1.40376678e-05, -1.47136434e-05,
          -4.10256598e-06, 0., 0., 0., 0., 0., 0., 0., 0., 0., 0., 0.,
          0., 5.74923661e-06, 1.55285688e-05, 2.08891452e-05,
          2.98835439e-05, 3.21113293e-05, 2.99828844e-05, 1.85002882e-05,
          1.44347587e-05, 2.39192614e-05, 7.91636739e-06, 4.17534807e-07,
          -1.69406589e-21, -2.22778408e-06, -1.33988669e-05,
          -1.36325352e-05, -3.72093223e-06, 0., 0., 0., 0., 0., 0., 0.,
          0., 0., 0., 0., 0., 5.18904608e-06, 1.37916968e-05,
          2.08437377e-05, 2.98835439e-05, 3.21113293e-05, 3.01667333e-05,
          1.80049919e-05, 1.44347587e-05, 2.39192614e-05, 1.22201882e-05,
          1.79861149e-06, -1.69406589e-21, -2.22778408e-06,
          -1.61203006e-05, -6.15043609e-06, -3.81634067e-07, 0., 0., 0.,
          -4.99434009e-07, -6.44007002e-07, 0., 0., 0., 0., 0., 0., 0.,
          4.23419715e-06, 1.05685867e-05, 2.02307401e-05, 2.98835439e-05,
          3.21113293e-05, 3.01667333e-05, 1.80049919e-05, 1.44347587e-05,
          2.39192614e-05, 1.35049104e-05, 2.21614641e-06,
          -1.69406589e-21, -2.22778408e-06, -1.46820230e-05,
          -4.85583905e-06, -3.54860987e-07, -1.05143997e-07,
          -5.78291974e-07, -5.91434969e-07, -4.50259859e-06,
          -7.83045834e-06, -5.91434969e-07, -5.91434969e-07,
          -5.96415248e-06, -3.03058277e-06, -5.91434969e-07,
          -5.78291974e-07, -1.05143997e-07, 4.23419715e-06,
          1.05368017e-05, 2.01853327e-05, 2.98835439e-05, 3.21113293e-05,
          3.01667333e-05, 1.80095321e-05, 1.44347587e-05, 2.31246340e-05,
          1.34186366e-05, 2.21614641e-06, -1.69406589e-21,
          -2.22778408e-06, -1.21038602e-05, -1.62481447e-05,
          -5.13663417e-06, -8.01722990e-07, -8.92683966e-06,
          -1.55597936e-05, -1.65156762e-05, -1.76363665e-05,
          -1.55597936e-05, -1.55597936e-05, -1.76363665e-05,
          -1.65156762e-05, -1.26921477e-05, -5.20219555e-06,
          -8.01722990e-07, 3.95357347e-06, 1.07600281e-05,
          2.06711902e-05, 2.98835439e-05, 3.21113293e-05, 3.01667333e-05,
          1.80095321e-05, 1.44347587e-05, 2.27613764e-05, 1.33823105e-05,
          2.18402829e-06, -1.69406589e-21, -2.22778408e-06,
          -1.27596131e-05, -2.37382847e-05, -1.80488623e-05,
          -1.21709263e-05, -1.70213661e-05, -2.39212222e-05,
          -2.39212222e-05, -2.39212222e-05, -2.39212222e-05,
          -2.39212222e-05, -2.39212222e-05, -2.39212222e-05,
          -2.20753809e-05, -1.46481407e-05, -1.21709263e-05,
          -9.22259278e-06, 5.74270143e-06, 2.08891452e-05,
          2.98835439e-05, 3.21113293e-05, 3.11866497e-05, 2.30782061e-05,
          1.44347587e-05, 1.92380285e-05, 1.30114322e-05, 2.18402829e-06,
          -1.69406589e-21, -2.22778408e-06, -1.27596131e-05,
          -2.33271494e-05, -2.73892274e-05, -2.39212222e-05,
          -2.39212222e-05, -2.39212222e-05, -2.39212222e-05,
          -2.39212222e-05, -2.39212222e-05, -2.39212222e-05,
          -2.39212222e-05, -2.39212222e-05, -2.39212222e-05,
          -2.39212222e-05, -2.39212222e-05, -2.01091971e-05,
          -2.25852023e-06, 1.58110161e-05, 2.93967660e-05,
          3.21113293e-05, 3.20431245e-05, 2.98077357e-05, 1.44347587e-05,
          1.04697137e-05, 1.22179244e-05, 2.21614641e-06,
          -1.69406589e-21, -2.22778408e-06, -1.27596131e-05,
          -2.64433475e-05, -3.05054255e-05, -2.39212222e-05,
          -2.39212222e-05, -2.39212222e-05, -2.39212222e-05,
          -2.39212222e-05, -2.39212222e-05, -2.39212222e-05,
